0.20922471793881187,0.24809051793090803,-0.0117426307609248
-0.1262799507486173,0.11628651180461813,0.2850298117643038
0.18890040711710931,0.2863617777464434,0.26151796265879784
0.06240902789706493,0.08185131094715115,0.2652239935471669
-0.02758491384289785,0.10717706903054813,-0.2127943517878844
0.05094043990025332,0.14498493350781255,-0.038587445763373474
-0.018323102666335966,0.24128172512280038,-0.2666462830601577
-0.0028373503189002003,-0.0850186710081749,-0.03962330786133467
0.19612967789873226,-0.1432900529007651,-0.12926613663931266
-0.15817309001875038,-0.21265709782696046,-0.054932726656865105
-0.2761881530199416,-0.12944342878685725,-0.1622717463106458
0.04310333593361865,-0.22612894832373465,-0.09709460254358615
-0.06973857225489943,-0.17439510488594107,-0.20579702581176867
0.2666187994612655,-0.017451750688782353,0.12232288303543015
0.038459699914636325,0.11947758012940907,-0.03140849060604789
-0.21587918938834533,0.13912040422145172,0.11691271491089306
0.2857180071332956,0.08613837691451104,-0.24690637999178658
0.24193282714325354,0.24900557971810328,-0.09149830607550696
0.045528008209573256,-0.10771399610374735,-0.024576765813825063
0.1791273347375067,-0.2210121366154041,-0.28510574131227695
-0.2526188411347176,0.2958784990044126,0.03404530883493451
0.0522984452898862,0.0652455187763924,-0.11802291042668511
-0.25943991861345217,0.08160130307955521,0.016933536512111824
0.036648262927246766,0.14904588817174275,-0.14604412014187657
0.004318049003066093,0.27695332945114565,-0.05565998974015776
0.11163271126542612,0.24252903248430752,-0.19808990209800964
0.0691552505520111,0.02125517999693005,-0.2669265143591776
-0.27430874311789255,-0.15062223980558487,0.24800718608212285
0.008368808704389774,-0.2997625890447487,0.11378036623953025
-0.21846700640033143,-0.2610126132254743,0.24185074859658456
0.287067735761303,-0.14144606269207285,0.22657972521744102
-0.13456199711597974,-0.09237332336291662,0.11355871842663534
-0.278293871334406,-0.18545043616326579,-0.2818526471164577
-0.000522760855516613,0.22157427428472037,0.07797186011655105
0.22751223228117218,0.10912543376214556,-0.07298799379426302
-0.16184538108227178,-0.18916105254694254,-0.1562886419890542
-0.10236239547609566,-0.014969078652000478,0.13903194496163634
-0.06634852099855951,0.23889754843056604,0.05976688051176404
-0.1056102865466704,0.2466210271775891,0.08066810367903426
-0.22635257197258135,-0.12843464108748476,0.2753599791615224
0.06142249001695094,-0.2634661988118743,0.08579402663461289
-0.24470702574585113,-0.2739678726690727,0.11472961452925529
0.010133020086807498,-0.28818810431954023,-0.19307776956992073
0.09106502969243946,0.12770348754932798,-0.2510886805645059
-0.1792618716479647,-0.04974863642129801,0.20828409754995786
-0.20751910735166454,-0.0235132157751487,-0.05734674743299342
0.034035265559365036,-0.045311410482340386,0.2999122013803714
-0.2296403675806917,0.038217208968084226,0.07651528085485576
0.2013887152205544,0.11429586618529242,0.04907750475765743
0.20343602594418614,-0.08577798412866869,-0.296140909467844
0.05593522464975481,0.04553112473716664,-0.07519434704421515
-0.19076400532647125,0.22574755979980682,0.12595810469411428
-0.25584438136805177,0.015873095345490917,-0.2723881978037167
-0.24239432003808886,0.1947927069470391,-0.0537341380857492
0.07032722859070534,0.26723027457060017,-0.2291160870482173
-0.07384925146949275,-0.14043000432491262,0.11886203823868835
-0.06935234310256838,-0.18466179452595555,0.29804871685033957
-0.012238913592911571,-0.2971122236458707,-0.12108092709811347
-0.02996438153987868,-0.2369680081194314,0.17801665620886054
0.1437105603543547,0.16877958727607262,-0.0685913574727264
-0.13300893025528326,0.03189466862173068,-0.23984094911871737
-0.17736962799839112,0.1073141700242401,-0.11101021487080556
-0.022601415460247798,-0.060420330343437745,-0.2703111327008195
0.044378265181558185,0.17116883560203555,0.17765251679196387
0.22143785962353874,-0.08542057085174165,0.1702304062657492
-0.0104393524232535,0.2872452996269967,0.20103954811755614
-0.07645845570961554,0.05660462755898238,-0.2957555465328395
-0.15490620697692603,-0.1573087975112562,0.23042252117802603
0.007551975311229864,0.21808579398900702,-0.19549634330397647
-0.030276957945834182,0.055400944545245634,0.18442993990409895
-0.024723374775743934,0.2683484894137648,0.29468704042895516
0.24013893793669377,0.2260318289058249,-0.22571581666463192
0.2093354573594693,0.06848328025762473,0.25194072271648743
-0.2329583501464953,0.07974965202810991,0.01728338404514046
-0.27940495579404506,-0.29337263275578684,0.15803971000042583
0.1086937210984169,0.20990120919940486,0.26076992946667793
0.2637703199724401,-0.1558861185153897,0.29728630650657656
-0.08051426119449237,0.03323972923641416,-0.16055478378767854
-0.16671941915883112,-0.16794038766912295,-0.23040899964949352
0.17809222882428588,-0.028751388405865386,-0.2319597280225364
-0.29367185412417296,0.12437989690289991,-0.15951078405552152
0.07709288777862655,-0.14908099813687764,0.26501228394774595
0.08444060960991473,-0.01515393487400396,0.29925124408508913
-0.10587678821329075,0.22679079792061768,0.28385072296179076
-0.027926909584620074,-0.22101409541012074,-0.05295060745806221
-0.26682841068767743,0.03598354861387343,-0.07064040250384634
-0.08191515280826145,0.004762188189440131,-0.16749194819859817
-0.06454930135613926,-0.08137163397381095,0.23867377693804465
-0.07073063102957428,-0.26448517577387515,-0.2550254010556416
-0.2559840551997959,-0.09032204719907916,-0.05479266001240085
-0.13598413457571273,-0.10787821043350657,0.21046382288207738
-0.27140755712523884,0.21870998405371317,-0.28187966129895664
0.22168279829227883,0.048548072577051626,0.1965699904709567
0.27737472604391106,0.04473214921554758,0.15814602112337373
-0.20918224529771934,-0.04771412925953855,-0.2781106831102746
-0.2615439656388717,-0.28521460205399213,0.04064777535496372
0.18333201050890696,0.19309550485898735,-0.2743317078482882
0.11055605032183291,0.2531523266863313,-0.13148423830234446
0.1327009130748827,-0.02318236609427282,0.10683721232933241
-0.29711094436119573,0.23278223907351753,0.13430623906856093
-0.038756648564164276,-0.15739212968975305,-0.1369259815933572
-0.2578825810790763,-0.16796026792737984,-0.2968072314575154
0.04911598790532884,-0.056892472779879716,0.18120529790687656
-0.1608331885797218,0.17812492591532253,0.16611460716208237
0.186988944025699,0.13129183635803932,0.14746104310285557
0.1076128194133138,-0.15539585389191693,-0.2806994944538486
0.22662162725014828,0.14870677013117783,0.02831287225220408
-0.1997793739674094,0.04445911985991796,0.1403275119897432
-0.08661311574686084,-0.2464702522510101,0.20838930849853937
-0.17652034347021023,-0.19518771852607097,-0.1788960722602751
0.14810151750175482,-0.16092814613077133,-0.19112903998709224
-0.22815002163714065,-0.045228366349105764,-0.055698681443867776
-0.23587583691102643,-0.017831397740560084,0.11922532610261327
-0.10398127145127886,0.09958671382637935,0.25275410842284723
-0.1960389854229213,0.2279385880234744,0.025375172663489487
-0.16925789071512837,0.015378009814122684,0.2574404448306769
0.007948587967577359,-0.07172932139105398,-0.19122057158210498
0.2211524668899924,-0.13582039254486392,-0.16870041096869315
0.016651022920532665,-0.10403053104432158,0.015740514427098562
-0.17716652431137508,0.19810141515005236,-0.11653768058738598
0.28034032700466865,-0.14389666397546078,0.13848610072867384
-0.06319090600416685,-0.08883525831640529,-0.1172894989394235
-0.18317453335971284,-0.2553772856135138,0.17454632899254874
-0.14793380378283247,-0.14317195482722717,0.22309710684639067
0.14356589635004413,-0.21065907348297508,0.07218005973262404
0.21379263759260897,-0.03246532495425308,-0.29456029562448083
-0.26344098970893304,-0.15503896049010915,-0.21534397844526676
0.21189456706328108,0.013663499214876973,-0.03484087900426036
0.22842158267442209,0.08455984497334962,-0.21648928217906338
-0.23780587578791193,0.18995795589790054,-0.11877499152830073
0.2988966794107412,-0.07301106787531614,-0.2693439231267291
-0.043739050242557864,0.1067984091424155,-0.19347495667075676
-0.07238656291956208,0.09549823473957486,0.13736326929828757
0.12829905308627354,0.24501446135909905,-0.13486697145797763
-0.13721816571587314,-0.017153351311160026,0.286669073385223
0.18112667804124022,0.18383721136991144,0.16667910472959052
0.2602018740871174,-0.03746390748012046,-0.2488360456108505
0.11479923599771785,-0.15071868510841016,0.26311557642850786
0.1372961216620487,-0.20031549433668228,0.15293613204357753
-0.24625135634224424,-0.17218052534360864,0.11841984372459907
-0.017259604009082663,0.13512536703505984,-0.08952911909133804
-0.22472089882495427,0.14045034639530396,-0.1927363306235029
0.01422394329626575,0.1519130471942341,-0.2482956504774122
-0.12124540087368038,0.06573556429537453,-0.0920084405057312
-0.1871297455179225,-0.20328903885015254,-0.2539343678887161
0.08174249364578112,-0.15657903365133985,-0.017966182805898012
0.09146944777608906,-0.11563126001644816,-0.003958143204289333
0.014467434745184082,-0.02291201780670299,-0.025002281464071796
0.1217602164375513,-0.0007184452727344026,-0.12157339054454924
-0.06071935029404213,-0.14134495289604138,0.1590689464671743
0.16342590959849468,0.07234547056811147,-0.2504492097917742
0.17764966336659732,-0.23555853706066204,-0.006048974272154117
-0.29862961623877454,-0.1514187624984769,-0.2746783585533889
-0.2325464587163629,-0.17156259070146385,0.2892288959636529
-0.11937812962815816,-0.11210052761465686,-0.17343683011553576
-0.21275130004607046,0.21055757354122645,0.11404428067554778
0.06570369571680101,-0.17926736663670523,-0.20392014927273516
0.08518711123808925,0.1781070681071521,-0.022885676957069834
-0.026115299372175826,0.20539955244178681,0.2838358701242883
-0.2794848896371926,0.0489396404328889,-0.0375517256933281
-0.1382040214635434,-0.15777680163772936,0.19539441805168228
0.19279536497686112,0.013989090281021188,-0.22794131495624023
-0.251525045638751,0.26907401396600555,0.28294782867105367
0.06703548109202678,0.24706940170333697,0.18007395500460516
-0.2653290906259092,-0.002341562327159208,0.21490366136733058
-0.06925414420592307,0.2950181196641955,0.15330545152851455
0.03337890702367696,-0.04663319011426276,0.2516308439928871
0.02404634266869149,-0.19690293636174333,0.1683724212135686
0.02370687113812131,-0.2643388724548888,0.2130926899110635
0.26023773466126726,-0.10828221541540664,-0.0780719048340004
0.13667867660476518,-0.25458551014037895,0.2060210868186388
-0.034375721234218004,-0.15982921990220655,-0.2851673915024491
-0.27262059608913075,0.04489942021990967,-0.17928352907301792
0.135958715997117,-0.11591029037481121,-0.09538584195173311
-0.00019491880351008017,0.13023414082194973,-0.005037048818224699
0.25495442242836314,-0.09750914102330926,-0.2031940209503615
0.27922623701324717,0.27085158020849903,0.051517908342117
-0.05620974713289001,-0.2116055654347891,-0.1691959304161555
-0.2489321270391555,0.016103964549490535,0.19597862300844843
-0.07227879665090534,0.1361681395281591,0.2825682875975118
-0.21316067067538513,-0.22392712404250997,0.05444970582671066
0.15382583105536934,-0.20392018469468387,0.06066618581280542
0.05440282048919026,-0.260430494303605,0.22136424517986358
0.022911826277396297,0.167781613949527,0.00934269718184777
-0.2749501718809437,-0.26322160576657194,0.1443363551672815
0.16121104686185578,0.21779862859931526,-0.08474536429962556
-0.08591433119058911,-0.26662418740009247,-0.024400994870485526
-0.2498267317124142,-0.05936769612834619,-0.12241370808976781
0.19918190283434706,-0.10307487881369068,0.29679461794444956
-0.12493390488304326,-0.12240802199350903,-0.052366526689808235
0.10550793763401634,-0.18032619846743259,-0.022235599545279927
-0.026708071156832602,-0.046588609064761755,0.10830849944156257
-0.010345461926453858,0.07980344801601685,0.1615745108272197
-0.2475529068063506,0.10715862865288045,-0.16905205292512107
0.12360438558005771,0.11709239943028138,-0.12526496048274174
-0.2822096339093558,0.03676342445243019,0.01908605887471232
-0.15103714277486371,0.2099708969132929,-0.28298372635645075
-0.10497879922062903,-0.17117703836482076,0.07472646994982024
0.10534196097145965,-0.15128948140991805,-0.016442865505714388
-0.1856805366733696,-0.164195455228611,-0.29402757953699915
-0.18215034044639067,0.21924678743615938,-0.23442311507862273
-0.0017698396733969446,-0.19091427157920804,-0.06172393125976858
0.11859889121994488,-0.081657207736781,0.11669136996831819
-0.27581311235267086,0.0691145104921222,0.19603786502887682
0.2988331802758653,-0.06607748358736251,0.17716399351773388
0.0663203933799727,0.052746026489075115,-0.1406843148489575
0.18286583599488065,-0.018502486808193774,-0.02467582243858435
0.026536114945354794,-0.06345422794745229,-0.06342238432933384
0.12269565647996888,-0.09582264977216418,0.278540860271606
-0.26408355316500637,0.25305401259726673,0.09646095871724136
0.019851434400952217,-0.1499318978237487,0.03343220435663519
-0.16150762696200674,0.10913200923745148,-0.25771720213798316
0.20616276109899329,0.2855284907813053,0.10849849698119762
0.10696074419790669,-0.12235553931418172,0.21714513750261916
0.1856652222931433,0.002439640954167932,0.18891195434878588
-0.27756832515331964,0.20472656251044546,0.25172481695727095
0.17228073364789132,-0.04497791512246152,-0.030418582258030846
0.0930150710699883,0.25984584673077343,-0.08488873244450268
0.012453289669703715,0.26821488662727794,-0.23486894107473605
0.018687110750363667,0.10455912192942907,0.19598207793478362
-0.1824880686302582,0.15409689111442,0.26294498460337873
-0.07837558380721096,-0.12621932550947437,-0.0487732249828135
0.22888014041362753,0.11243591874819392,-0.07354338049997078
0.24957718468222562,-0.2606622299818625,-0.2321156360339221
0.20620750473087796,0.19856742419069212,0.12249337723074838
0.001608706526950776,0.014912806177545423,-0.07324465586313175
-0.1275594629175247,0.23758191191370587,0.19945549813731245
-0.23993570322049615,0.00543234905619272,0.24374328938249984
0.03759229207012038,0.05442460848111341,0.29385697119074033
-0.06150760835983837,0.01813883954597606,0.298773981116458
-0.26893692963423127,-0.21175246795071273,-0.08932772469030428
-0.09133430248410318,-0.24831833649029902,-0.16860474680010945
-0.2091854751953561,0.16547105488706693,0.10213585517429735
0.22634117750257937,0.09717117534948688,0.09879999476100643
-0.2972768189969171,0.4012601476294336,-0.011515043245572286
-0.5911287032538279,-0.21582196526058534,-0.33857327698088413
-0.08760861527801435,0.07673273450746333,-0.22732549387442846
-0.18440881484703214,-0.2911821924075862,0.17250172793491847
-0.34659964342159016,0.448491081472373,0.41619410520855304
0.14651876700353628,-0.2935623717317771,0.07554639003764574
-0.061444788984016646,0.057325118226240646,-0.22568504653869398
-0.09940050764471167,0.07201459415468814,-0.43289770094935837
0.2582162676149647,0.21275226389610852,0.14467661861872694
-0.23261485015705313,0.2262644051308637,-0.13298701675944616
-0.19351868067302358,0.05012795608119308,0.26182973713255736
0.05173093679082119,0.2196952622105351,-0.1957697915698074
-0.23196157455262723,0.09332854384196099,0.1964788430361465
0.17640132095142208,-0.22858704896870735,-0.13282315991276994
0.2530076314477799,0.2260521717665575,-0.05620443254838042
-0.2797597966069445,0.16752155446716738,0.11852366604200715
0.2496717230689925,0.002550876020419035,-0.15331416775368154
0.016110133751035483,0.1468158308853878,-0.16166213521317932
0.24420015784356924,0.19471874758296853,0.16589641189029575
-0.27370608970744387,0.04147247798009607,0.07081751349267901
-0.1550654089937227,0.060833305467742016,-0.13498864872638125
0.062339569328610844,0.18937787723367938,0.252702533741136
0.18657540193663952,0.19269979622020855,-0.060823275896982915
0.051630021105943835,0.21390812398449638,0.062442295370397916
-0.08004571849578401,-0.15947911536611853,0.1992769782514549
-0.11337975001154435,0.15155059994926656,0.23714006329522824
-0.2411809110137691,0.23234976538805768,-0.19491845819964726
-0.48291954101057083,0.08396900961440507,0.23763847084182751
-0.6081920583127026,0.10298990425144598,0.20285300638074422
-0.2119598635985479,-0.3192897834242695,-0.5299614346834266
-0.06685903736637822,-0.2481268316134673,0.04205255582814044
0.391410038144333,0.056451274841155835,-0.889486747747956
0.46355477064951983,0.2423037824839469,-0.7432685850142082
-0.17624922991090344,0.03314818205262256,0.24380372946107257
-0.19862721345642284,0.3475868843474192,0.15737527541780447
0.13420873873841166,-0.22497066224540033,-0.03884396078960722
0.16678484880582606,-0.19820387694804248,-0.202888186744776
-0.012218838004766475,0.18778274164135572,0.08748724300062394
0.2245905141464382,-0.010910095007079956,0.05248067582096494
0.2689657269860158,-0.23225984687064113,0.02108718137764204
-0.053376808209900706,0.04311278360181592,-0.2890091820477251
-0.22732082530049708,0.2638318546140393,0.15178184178051896
-0.24276111384378957,-0.2180159686876892,0.17618337880590224
-0.047073140263280244,-0.14692678349965108,0.22200027862755317
-0.2524577014624428,-0.25175528619285675,0.14975315966845604
0.1485356689903074,0.034507737436590746,0.010773778990163352
-0.16622917660772585,0.1956405308823716,-0.17238924351387752
0.286585215796001,0.15456036874370127,0.19215513185742578
-0.1277691868890913,0.03020568343324498,-0.20988609679314302
0.0579671168984926,-0.054527985955180075,-0.0006777165386669948
0.0588477924511045,-0.15775219531856208,0.27978779279094884
0.15945362537810065,-0.19663743884592197,-0.29388396102616027
0.001928091660034048,-0.15109345582891184,0.2949644856232823
0.18465097040020745,-0.20228042234471263,-0.03829340633643352
-0.12536046359997852,-0.08090003176869642,0.21062048159607333
-0.1256934220846126,0.059950712338612655,0.1939871090944515
0.4101682817894242,0.2687392029686103,0.1271101421430882
0.22779434478445243,-0.057638873137648795,0.29486574501877005
0.1736030031125553,0.08399533567554357,0.2541983352330342
0.8883129993171565,0.5417824012520152,-0.12828382029979224
0.5550571410040438,0.13075374345420265,-0.35166566059311716
-0.28144525273703846,-0.168701472102906,-0.04075228448692275
-0.4322060754782529,0.0370326894277164,-0.340770080374029
0.14268795760690728,-0.3443898663760748,-0.35726381008879166
0.28322433245713224,-0.0008184164575860686,-0.01982319663177795
0.05421291903925185,0.21591317228361423,0.0028487018816348852
0.18466530454780983,-0.02953466982477393,-0.26445036578049386
0.0863467348903511,0.2811458878859154,-0.2125270086440436
0.21620000647612397,-0.11325237758426357,0.2822615898756618
0.06106465008776957,-0.28139374879466733,0.14755704928395824
-0.14914958693702912,-0.13026948630903148,-0.10557552524660288
-0.05652948972520935,0.046908137766793534,-0.17423914883928968
-0.023174065803721167,0.015588331955378787,0.2680532791528886
0.08960446985796378,-0.08091954492450698,0.14200857556135743
-0.16562061592859686,-0.15677414154903657,0.07935758147971883
0.08634010496393885,-0.03433363159663522,-0.020435522535129202
-0.08461931398091513,0.28391374702240874,0.14434807553881734
-0.11111742630998403,0.24724276917003213,0.2974827014671357
-0.003395123026028346,0.08798903274004,-0.16291500786161575
0.11721591609811643,0.2390189037038099,0.135061117733268
-0.07197631148731179,-0.17576720603224222,-0.04614002668633993
-0.15260475639285342,-0.2007733514085201,-0.2533222097340973
-0.049859712850122265,0.3387527767044756,0.19435316432793112
-0.3074783461669646,-0.0310217389675943,0.2758410367254569
0.2902647285876451,-0.2919173452934976,0.02906630516671216
-0.16669440765177404,0.06634795750817513,-0.276247939168722
-0.13831189627627197,-0.2334928492608902,-0.13025335388856485
0.22092509634217966,0.03281349734165118,0.29997928337036633
0.11096225514824172,0.15690447883367897,0.3327066817125933
0.1192640091959168,0.44671212530077675,0.07046943011355405
-0.00554312693857035,0.01598768026040407,0.37241132859649895
-0.2242697135947639,-0.6893352861702517,-0.07241483730881307
-0.15218083987123088,-0.208708212831768,0.09949097492767951
0.05024741696558371,0.27741546302173997,0.1823324869721084
-0.1256698873043597,-0.08369354922262717,-0.17855893687111352
-0.23928034844847168,-0.1219623109146897,0.06953754438591342
-0.23204946423292605,0.24027192495185984,0.24745417201285919
-0.08293012014797715,-0.2795616143812019,0.20418374379324628
-0.2625497843464359,-0.15775353010682738,0.09977031673465969
-0.007969850137401369,0.18023622908333697,-0.2758159885202521
-0.2591148211321421,0.23101726490728297,-0.028117470480445106
0.13968950403790226,0.017818856245599923,0.16391938541536916
-0.18320404645900387,-0.002631827592810887,0.28401746099343556
0.2212514651746294,-0.14258098097512661,-0.18748862445942516
0.22104700722819343,0.2700745234818514,0.13056695214544467
-0.2050572548420586,0.18500613840446906,-0.035717832402213545
-0.08548474905389905,-0.16274090477694222,-0.21820306795741878
-0.047769467654475095,0.08973046424599918,-0.16733156465644455
-0.22720604528156563,-0.05842527406704584,0.06461107181566628
0.16479208358888273,0.1850246055676198,-0.0008062005896631989
0.03739393222314981,-0.011153231281702597,-0.07172824186942586
-0.5390957237189055,-0.10409994498302827,-0.1477148924969581
0.11241971190783584,0.28653636327896365,0.0792724299179936
0.018913886814581282,-0.25425348917772206,-0.160225380438773
0.10904792633237476,-0.13591046253745875,-0.018375858795348643
0.04228209044805081,-0.270005082725717,0.008929464140524423
-0.28933620451887604,0.008094077351318008,-0.021399234203050788
-0.011585294017063288,0.664882373693622,0.5141165982649663
-0.2270670385014125,0.5380126582575994,0.1753998629141658
-0.4641081318348411,0.03578951435714491,-0.05645298376716485
0.17415791815042947,-0.061341496190763116,0.10002869595217685
0.04822490045616801,-0.15418027506357818,0.24048114540682292
0.14605942477993772,0.1574723798651922,-0.1975073592965739
0.13452088171803478,0.16551219901357733,-0.16528527907430293
0.041240249176,0.22149332357936719,-0.2807310794469586
-0.1493573095477275,0.05667186669970392,-0.2777893900884065
-0.02727482155103611,-0.2645779378099215,0.24301447383091052
0.1766964213867261,0.1724630288633332,0.10313400358535146
0.23785281203328518,0.013949423300350039,-0.08529951622032952
0.11064913186490144,-0.0324787982701677,-0.029052849525138702
0.1439770706953113,-0.1567050206815088,0.07601488195461686
-0.009220028305971129,0.29522168544659816,0.210028774523553
-0.1828096038394525,-0.19262741957115065,-0.2675727063629962
0.08185704712458514,0.016322152236211918,0.15447248439899564
0.12599246962254773,0.07806919840242044,-0.18279047201468032
0.05826634532688313,0.15513986215020253,-0.24674470263074808
-0.21838302481506375,-0.12175821406581411,0.23888131774657345
-0.13901515229586106,-0.12180468268233731,0.147313279365279
-0.08861200161617011,0.2127504943829513,0.10395027927540679
-0.34516778558167344,-0.4978996806315308,-0.0012733512881212892
-0.2936907356440082,0.010068204678739137,-0.22148522294336784
-0.07830083389131763,-0.06021740511495383,0.04154389515157898
-0.0861549292896365,0.4520143564759737,0.3955615917087276
0.22865706686527834,0.30403531381193355,-0.16311599583759614
0.005237703985341307,0.04973918832384751,-0.009365836912432215
0.09818390621686751,0.4878555264595264,0.2538793955196674
0.2025115563037377,-0.18028926277186078,-0.2573397889414824
-0.26836642380396225,0.05609017306530715,-0.2776018901679358
0.29365573981099397,-0.23792430757725183,0.19662211860534834
-0.1777984798813781,0.07447261406286548,0.23231612288357667
0.1773555197531022,0.2387140504950283,0.06962484258939161
-0.21591711609761563,-0.24554730791962198,-0.25702837273061674
-0.23815250387482848,0.14409648564487915,0.1828050002728741
0.16485909206693644,-0.15595944519424806,-0.28875099840812085
0.2953915941138851,-0.16028345546373293,0.13821194103701173
-0.2521085333629453,0.2895796211631693,-0.1911480442308515
-0.19017695975629717,-0.1890020749886721,-0.23897244980144128
0.19519968669119486,0.25334810226948884,0.10277958034079138
0.005046402870272693,0.1140060182500851,0.13706618230778173
0.29968336641432697,-0.19782286728711684,0.19722578385144746
0.2289711446069,0.2530265761155989,-0.1460214283648882
-0.22920586472962262,0.2138849088290838,-0.2700893799442466
0.17177312900612707,0.23621577025754464,0.17532864755961758
0.22820604606860057,-0.27057872806781924,0.05175265177972854
-0.25768834899116366,0.2963113051085781,0.2441507446987356
-0.13374009845205853,-0.01485542932289245,0.33626591292603886
-0.21914578892430303,-0.21165958595970522,-0.2815800387240018
-0.07832044435905046,-0.09467080297896124,0.41672325125771253
-0.10334382374053104,-0.20235990348592836,0.15603731461754888
-0.47294900613608937,-0.48271241738744125,-0.023212621283684357
0.07735292708186059,-0.43532287600107067,-0.3253882121300285
0.05866786017896051,-0.1292472296029036,-0.4353372433519185
-0.41075574263829573,-0.09927935674189481,-0.146928712382937
-0.3011603267475684,-0.44558189907565676,-0.5646107104645314
-0.4072630349308105,0.056031721998937474,-0.09287215546032476
0.072146889852325,-0.39209062033879205,0.09685104036092687
0.4094388773891587,-0.41143160487543606,0.32216299607735843
-0.16659220200204153,-0.016655634375858985,-0.01671717749367596
-0.1539354823608504,0.24857723352072575,0.2340222483499474
-0.04225962818973905,-0.17861021875784608,0.024007416348481248
0.2406582792737763,-0.24005137929420498,-0.26362306814170894
-0.274231011750236,-0.10789181802619621,0.09753620216297676
-0.09712642288195592,-0.189812714300305,0.1730066969066249
0.0741817993694952,-0.17467152608872166,-0.043287547788938896
-0.019089815920204978,-0.09267377835165685,0.08213085821140365
-0.10994127041966234,-0.28718876095228246,0.04495415385062307
-0.25799169588795473,0.056136660749872114,0.04449096510684991
-0.12800285316727972,-0.13138326957920834,-0.17711360604821358
-0.1107810631656046,-0.04648506645506356,-0.020692112576472688
-0.2337974384838694,-0.0030575432207819997,-0.2913488092130289
0.04210551940269214,0.13729136657471158,-0.15195223885669495
-0.03624650095441628,0.05881742622537861,0.034859965527209824
0.0015363406899019383,-0.23727754075831928,0.12741342435964498
-0.1227919103594122,0.3376921292457669,0.14674257055683415
-0.12558550259152984,-0.022042017353699317,0.17086306174782923
0.2432352580177809,-0.2673873682495688,0.23801861959589282
-0.25290090099748425,0.23388789435658616,0.31272042713748605
0.0350903562970451,0.28418606499053956,0.37606249544809883
-0.2856840009394299,-0.29747909382276655,0.12588399985057014
0.2826203228436433,0.3122894765225851,-0.38885606365962805
-0.22890920299520062,-0.09002764384243636,-0.26762635851185285
0.17496751370578617,0.02288662813476061,0.21863454347302186
-0.07707607130174304,-0.28928808384260324,-0.13443012452662498
0.22956498976108458,-0.3530334408652676,0.17864466404705073
0.1375863405852662,0.1180932265340171,0.19873018125596725
-0.20101176271805254,0.19192553319839162,0.15177370053274714
-0.11917382293328194,0.05786112244861136,0.24670336482889083
0.011681558405315096,-0.2588340220795995,0.13387462760877628
0.28516299211639157,-0.06329173884628331,-0.07310213291282044
-0.19635305653958174,-0.1538159309185168,-0.13687294533582453
-0.16516826586815705,0.2648573288341421,0.010630826950226435
-0.1153344926906941,0.13610524189816958,-0.2654303488800887
0.22741797024109472,0.19669454190389069,-0.0763053694154755
0.2216115002729922,-0.21258755349400624,0.2005863891803374
-0.12096276211915546,0.1957098801285227,-0.22521911758605578
0.12560396039115684,-0.0018113830351318971,-0.07963880608889923
0.08080770418646493,0.24383126840429187,-0.008652554062748119
-0.010338944716237697,-0.19593167479685886,-0.2558839646363973
-0.1974495109526423,-0.278277274980421,-0.1111756076032169
-0.21195104420218247,0.1259772912537177,-0.2909575907883086
0.23095767771431602,0.13492416101031018,-0.11070589747957216
0.3397107089857577,0.14917059428631535,-0.06885354452120576
0.3659285926776996,-0.13941032415570315,0.1470017124694608
0.2400995352040815,-0.2701672512158363,0.02166905331157884
0.029846619239656244,-0.4718566503855318,0.28757010092195145
-0.24169305484477974,0.09685453198147828,0.29011828115669247
-0.0416883693745216,0.032357529239744914,-0.05824695064727888
0.13330339678433556,0.6246607911640368,-0.21381223071212074
0.0690762898973712,0.07443842120233622,0.08028163130272327
-0.38351214988126575,0.18476011637105472,0.44366344859476337
-0.15329340782228543,0.5057384624643068,0.09462667637798178
0.12343702692319315,-0.5134593355932315,-0.25112010126529355
0.22719950976090975,-0.04959025552987533,-0.09248037221426364
-0.1098160652132743,-0.11420596173621037,-0.06519953747766011
-0.2496788722575302,-0.24015790322313113,-0.18536374188382454
-0.14278493157618355,0.09928777217207013,-0.1575159093950426
-0.14766370399755427,0.19691879806011525,-0.1674714645921557
0.25760523105291017,0.2731998436564878,0.17663033396473127
-0.16212309953234463,0.09303693184458905,0.05492431162868344
0.05546220812068697,0.13908421852608605,-0.0009675402986288328
0.055078241919664095,0.26576531701052436,-0.12897005407646028
-0.24173266012053207,-0.04303755094691314,-0.13349374648444037
-0.2588548598959562,0.23152657120778003,0.05883049372687188
0.02626962402329658,0.13337735305099957,0.14541397393518485
0.10843528438177213,0.2981075113966511,0.26836957125161015
0.1897486665550211,-0.08080256217777937,0.10494100780254173
-0.017011363896783815,-0.29075489587108133,0.07594722621236999
0.2738164111058213,-0.17172518944070284,0.14497503474525797
-0.08578535120312836,0.21241838575713784,-0.15542170834290506
-0.13497265887836032,-0.2686111896952749,-0.12836904338376043
0.38548160857913294,0.08772402133643498,0.3685994452930478
0.05588926221857182,0.19401782062837175,0.08495766587273929
0.14018562339915383,0.006496937460398804,-0.15774023849701735
-0.10813709943787658,0.09148654990786192,-0.2186607429024825
-0.2118991753574396,-0.19605706490514915,-0.2809280751378785
0.6666784495044222,0.43535768495977495,-0.28835128820776995
-0.17072132824168854,-0.26699784652025904,0.10838395860555261
0.17313690110509383,-0.040399326466876495,0.14869489459566598
0.023675563341864603,-0.13249050893108846,-0.23371592588703238
0.04928880852148007,0.23739584879573575,0.3918427248250651
-0.23218753793119923,0.038942587239863324,-0.1548679893007996
0.057042736240730973,0.12671349951158795,-0.1917120293021793
0.08670936379459993,0.14158190486305816,0.19922081488604682
0.21083743940602212,-0.2943583963939355,0.2923248090786342
-0.29083727300627354,-0.06986930117318796,-0.23657992127567873
0.29680237938755,0.08705616175681674,0.10021082469626563
-0.049474906448699896,-0.2999313256967805,0.06571705683002083
0.01232934747957981,0.14719351599518105,0.29316728631761196
0.2548586458059539,0.29835038919483275,-0.09834790995052958
-0.047533951313190825,-0.21737808498187303,0.15707706072640898
0.0938265875068619,0.04677672833579738,0.26033675725699496
-0.14629106540918568,-0.21797649563559757,-0.0046908911690723976
-0.02290329725764234,-0.07241208830643439,-0.1656299472546328
0.16776837516147364,-0.0670085816206174,-0.26147246751901687
0.19697261351028972,0.08167204171040565,-0.22830408513928468
-0.02866164137600613,0.18632142629603893,0.26433826487313955
-0.049246785186476294,-0.1595298939868959,0.07128690771082491
-0.1029039519140039,0.038685148120694735,0.22381397811135134
0.4098679442832869,0.07828456074705359,0.005978372755535995
0.00675833302928838,0.018561427383560376,0.20468257548823215
-0.023281947593741484,-0.10421929165083703,0.24787858454185857
-0.08770255156386705,0.2732894643226023,0.0038226177772569536
-0.03939899670809599,-0.08126360777752356,-0.18157521159596235
0.3992746657131913,0.07968588553755168,-0.26018894543639
0.11808488569155218,-0.026692952459404007,-0.12015538492095529
0.18168347515853506,0.041319096018848644,-0.08797573373998771
0.02310569101794423,0.02994871956704054,0.14455300334605958
0.23719549191864367,0.24254707160715278,0.5386019901071022
0.2694111952221803,-0.03896075830965556,-0.04318929264090782
0.1802299460985345,0.21749484982052275,0.14642613789732667
-0.2610042422785401,0.14795353349373996,-0.09715313551269983
0.07341461661124471,-0.061139134972980375,0.07800674503582228
-0.03666232681583248,-0.1453302440741987,0.12620767786902654
-0.022298459637981716,0.009861019333827659,0.1894245099995897
0.1486774823406924,-0.07639839510102933,-0.005512469835302292
-0.09540592521499294,-0.08974638604031893,0.059855143462270055
-0.2908568302603078,-0.27077423809026835,0.12417088360509054
0.27727722723039033,0.07832323076143893,-0.18590304100355487
0.05979397558353683,0.2784178576341309,-0.1759602022387282
-0.022673905984429865,-0.28064043226102936,0.055774052450532574
-0.13932332365069258,-0.020935429376523984,-0.1490202349754825
0.13059561491320681,0.2736468749740208,0.0499982891614576
0.26928615777939574,-0.2269129269155163,0.1020537515595954
-0.11832740553061075,0.2478419050524044,0.058834422914229134
0.2537301166002564,0.03505298064585338,-0.15767259654354246
0.18110487416504067,0.13226054029292378,-0.11673176555827458
0.055508159186393125,0.1284907831462101,0.20105476136213335
0.09441152691250011,0.06587371800353557,-0.1118316100044156
0.07224581868567967,0.20951080865468036,0.34043785165982443
0.3526947066598896,0.23746890440171067,0.1980047621233416
-0.01157274055392642,0.10370998154518378,0.07959856007589855
0.34312244682184473,0.22222389682935711,-0.04163666215444134
0.229305743973279,-0.0937339003987411,0.33565171443642616
-0.07699779686002106,0.2514509642641545,0.40379429273501843
0.07997684730366808,0.15344968453149682,0.3490272686396956
0.37945970844067783,0.0019116827723368824,0.3562648263953676
0.0028211658232252246,-0.1317047898890438,0.21003503803175444
0.18140935419454612,0.2883840980678601,0.29841651497721283
0.031656964144756605,0.15582105207546842,-0.29519206385933977
-0.14431495077898965,0.24401330014711814,0.03303512119907698
0.1170551946790303,0.25587960411103333,-0.09590281484782559
-0.21516153932845,0.13496318882346608,-0.2293251857116147
-0.012188749901034024,-0.028562686256052128,0.19880993888328014
-0.18340726334639998,-0.2637082708192905,0.1498501310397916
0.26299694356745024,-0.26820933987461393,0.22773545249616672
0.009697911649607871,-0.11754226708265039,-0.10680040537730795
0.16597725450522555,-0.2778797708204463,-0.06948619290621871
-0.2933419832114231,0.16354714108569768,0.28635363923404983
-0.0690946420377308,0.1686808013042007,0.1903925007122435
0.23112115274110018,0.0626850232520143,-0.25307411924019724
-0.22567493076704398,-0.2638112464355474,0.0237646900172111
0.16118370772094215,0.0628130536044394,-0.06816911359199829
0.15440534359284924,0.15185019319875293,-0.15646791493397086
-0.17209746341634471,0.08623370649866163,-0.2605906736585213
-0.043063015562439466,-0.1275622673322169,-0.12021866193575839
-0.09816764052635299,-0.2234996757872898,-0.008904813714541437
-0.04002865072243905,-0.2948288397064952,-0.2239263963215236
0.2247321110153282,0.002024774677978898,-0.15567899439063043
-0.06395967737951824,-0.3620579108954365,0.40079121849364857
0.043679904705937626,-0.22963307043141748,0.03376114805960805
-0.17006285710901342,-0.46512662216133105,0.2972339602496203
0.38341159554184195,-0.07655166474435277,0.30501586178014206
0.01701407380844197,-0.4979999724289733,-0.14262642492027955
0.04268404388164826,-0.08037013933450793,-0.29248986948466865
-0.19971981658767785,-0.21302850274214064,-0.10367522155963604
0.03503282067299529,-0.0747509881975309,0.13478431793704282
0.16714587492200778,-0.14036794359963514,0.016318492237826887
0.23922097135020054,0.06544786773187578,0.023208859386667335
0.2385264116236217,-0.07141004496683892,0.11329219991194833
-0.21354217715942633,-0.13352117752563894,0.21031253837093328
0.10537414975439796,0.04168085568139834,-0.18937556644578168
0.2234884446376743,-0.086251202104204,0.15500097200180063
0.23765607541403894,0.1050649590122914,0.14585346147145217
0.25937284756256557,0.2943475756340222,-0.1893295244946669
-0.299304878285754,-0.2284301707207113,-0.01938384628869949
0.25175067221664277,0.08084849127031951,0.2397310714445648
-0.06402182947666951,0.2782920885789179,-0.12001701814236956
0.2930889161702815,0.27473631284461003,0.12923465789405264
0.202934098854969,-0.009502949975051578,-0.1805711192758217
-0.13422902267608794,0.03641334590776668,-0.23798549981477982
0.2072846333857547,-0.18681533713181464,-0.10233932913433269
-0.1409568458717401,0.25252494306196277,0.2353973529527918
0.1842344489821084,-0.08951157512741337,-0.14334750361972642
0.16127651778532293,0.2690359209664475,0.14169027574879606
0.1850888459689523,-0.040142268938416714,-0.248562966959863
0.25804508862729164,-0.25753971661637715,-0.13909432992093007
-0.021082031072682694,0.22385931966286626,0.23045681169974236
-0.02022687117213412,-0.09543907732778084,0.2239877792834049
0.2663106842567367,0.11474566973531353,-0.1735241020579883
-0.23724867816482648,0.006039091013233411,-0.27172862022952565
0.031274007403359894,0.09908049644901507,-0.1648750428305347
-0.0989846289157805,-0.0807394496981805,-0.207710040715412
-0.10055777744648822,0.14341447118164852,0.07059324885626828
-0.0996320934491984,-0.26901945616631784,-0.12488539148746905
0.02289914432792922,0.1954920318002052,-0.026224667995751183
-0.020439997926346487,-0.051471328053287996,-0.027627254719119865
-0.16475035070910846,0.18049507359769373,0.19245466537839517
-0.11310380706390191,-0.09947087341626415,-0.0211097935543762
0.12160766875578466,-0.20740330783036395,-0.13165480495496487
0.07138193943250348,0.02786676717625164,0.12641186706434338
-0.03862002471369469,-0.051554683578627636,0.056373797162580286
0.12517743029560618,-0.0743372268436685,-0.1548983676973774
-0.24607210155520365,-0.022539095425569533,-0.21025360849908398
-0.11455562075974715,-0.09657764149081041,-0.13567352944466904
-0.24957556487660493,-0.03262504525008958,0.2806952846200211
-0.15953466644611727,-0.0593156365248137,0.2970845967953613
0.1131954510018926,-0.2000979874545739,-0.16186598690514759
0.17845674757794655,-0.2476596337555218,-0.10482132652053286
0.07679336724950503,0.04462119446060109,-0.11717141940388823
-0.288426198443356,0.16171836162146913,-0.2585633856740027
-0.15566613927714143,-0.014001285823962817,-0.1483280248737152
0.15236728653463194,-0.027615800366946885,0.050711387991336954
0.08737421088168651,0.08248979409537921,-0.12321141059320331
-0.28858279239430296,0.13581198077062528,-0.01192585354841219
0.20892222039232172,-0.1356280554770929,-0.2250471043719386
0.15622598445003955,0.045646292307430225,0.18412389905080573
-0.01654632064921041,-0.033085581762775984,-0.27847103927913097
-0.06329734164610268,0.15487566030302113,0.28508379791011423
-0.14876999756089834,-0.21935528725340453,-0.11908996099066538
-0.05072397331726308,0.28658558606599643,-0.07191602500494876
0.07913022604347214,-0.04421040197525117,0.015882052294521887
-0.2841677836595646,0.06212225623808232,-0.02316780537999774
0.194729749184611,-0.10764403219678506,-0.19453857969267574
-0.2395070590324214,-0.25444520848688396,-0.056061818722274726
-0.010546755115078632,0.0023828003650882,-0.23078517561951126
-0.2829385122676475,-0.025764386621244917,-0.26100393486942824
0.19894542913385055,-0.04426405666661676,0.06518273973029987
-0.19867160026752245,-0.19105935905212534,0.20916749557528075
-0.13591366297718446,-0.16853615439998107,0.15898586606757636
0.1591733913192871,0.01545013733993067,-0.20435379605487664
0.06694495819133817,-0.04136490368632756,-0.27560842865297064
0.23938285566409628,-0.013827963955271416,-0.24607214164601687
0.15617800793736608,0.012460944805566365,-0.10676108770240744
0.05589257385150964,-0.13436527446733396,0.1844844841258615
-0.16867793260273448,-0.28075659236911515,-0.15402763128578112
0.2245972056094649,0.09871959604114577,-0.20843782319789017
0.2970249984510806,0.1486092090320063,0.08016265898006042
-0.1621379810543851,0.06432392742860182,-0.2099180854740862
0.16130943667864522,-0.05678007197315438,-0.14485833111067942
0.15896545233344345,0.29385785062212116,0.13593061190401973
-0.21339316095162125,0.09174065110859847,-0.17194914243980053
-0.26255666821715656,0.09613312012496994,0.2909747466095807
-0.04947573904833891,-0.12446300356434206,-0.006276443229360162
0.21288042948736147,0.23459558797917773,-0.22639776418585256
0.1992099564255198,-0.021564942170441692,0.18588157257951965
0.13959146446441256,0.14234714556495198,0.25139652449883493
-5.9549557585303337e-05,0.2724881436405178,-0.002288421879883429
0.07248400580912567,0.22470355306297535,0.01429192093082371
0.008109280519630668,-0.2492562008384187,0.18087320843145716
-0.28861552743244545,0.017175696336339752,0.2632643595727588
-0.18856069496869654,-0.13148980976841843,0.08362926422650296
0.10776035192470351,-0.19404512975891647,0.06726050602558209
0.29798311396103655,0.08980228487256398,0.013140161767841607
0.0671699036025471,0.1180312623593679,-0.24288068115901496
0.08404106414784979,-0.16128967579269948,-0.09659703256191729
-0.2871367507864665,0.09529406996455392,0.2341885360151244
0.042782550175655354,-0.29248992641709365,-0.18255839157498882
0.07988884241474681,0.17091937431732257,0.041807708312915304
-0.12311963931754846,-0.1654434802180543,-0.04215897703303423
0.055426745434754565,0.03564012530083699,-0.09587018307137862
0.07910604216122802,-0.04646868325681258,0.1527027022986
-0.09075911961844413,0.161634749903747,0.08445689481852392
0.12764004572078363,0.11925995098332282,-0.026404467670889553
0.08895565669117267,0.07153660512062932,-0.2332855120304433
-0.19648318485095878,-0.08793895201047222,0.10688280468607092
-0.15890179674264981,0.12008740767757442,0.14220242797429594
-0.0603419819263194,-0.058424521428650844,0.261258657258387
-0.27721553565017676,-0.2764927036222338,0.2776415604494182
0.10052807747333181,-0.27193875228961767,0.010434602653090985
-0.08542560293687076,-0.17191923049456553,0.15080263660388166
0.1262241314440543,-0.23208226278721808,-0.2832326304856279
-0.20399659192376007,-0.26723096096739085,0.00903827713259825
-0.09634930405678438,0.2420374506185185,-0.2963703090842899
0.17716189350927897,-0.0006118080813255489,-0.030200826240138756
0.28437518504793996,0.15732877548159246,0.19970657375365947
-0.040796034269269255,-0.17116025421457107,-0.2617236163816837
-0.23955481076239724,0.24173963222414435,-0.1353048535334547
0.054555102002047384,-0.2812423401466502,-0.0014468034250031403
-0.24469732207945305,-0.23735425729054027,0.11791893510005913
-0.04659055703198539,-0.2377147348475138,0.2917930930429076
0.01251298650809185,-0.1417381931256842,0.2839036387480908
0.053696918153136264,0.18214503009520672,0.12032833209858285
0.2592825909716327,-0.0111214062570541,-0.2685650293417961
0.16769328786101856,-0.022072684548443633,-0.006668307972679588
0.11350458905353167,0.0378768228096063,-0.2988837428629811
0.10683892532135703,0.14984722765403957,-0.009127746701410033
-0.22637987873728432,0.28975147028863185,0.06604548611025413
0.10186292410101411,0.025000007138746116,0.218188014779568
-0.2176982104046906,-0.20672283406943343,0.03769770693138308
-0.049720745165038605,-0.25807973061397765,-0.05342820828793021
0.028842219756763432,-0.21875757964387144,-0.1115047963245078
-0.2883228486518361,-0.09086921618357274,-0.060218074016851864
0.26234516622469223,0.2970853507914924,-0.06970579566267004
0.2814851945557361,0.035449064388696105,-0.08778902104652364
0.24396555355212474,-0.15159617648379883,-0.22717954344937638
-0.23449936017196213,-0.24538034541606396,-0.16842156245281983
-0.03398089214327471,0.26245258474522287,0.2851834553649622
0.14435425894867326,-0.13311801788087554,0.07772767006889902
0.21271165410505416,-0.10638567288833556,0.023531785553798035
0.06885669938838085,0.23193334080869338,0.19315987782649413
-0.2859410989519487,0.0006963561874316349,-0.2512715777303037
0.20727167444578715,-0.14080203308557637,-0.039677802872661705
0.16284667445214274,0.005155886691189326,0.05687708816050213
0.08320420884288804,0.050843964943660835,-0.15203256729799902
0.18865970220027423,0.027627819655216823,0.0560982328178643
-0.0915925327517684,-0.03002186037892718,0.17257860141448894
0.08572144782979013,0.17504586262489424,-0.002149282865473723
0.22291464463867688,-0.2672333730163071,-0.003363270171397259
0.10304552559544955,-0.2675208567468186,-0.23043918535993957
0.20589845373438292,-0.03451154519291283,-0.1065956396313453
-0.0685087911772708,0.06344299321271868,0.17300422275891325
0.18271052418109263,-0.24985751870464812,0.23609237301288338
0.19291869283391078,-0.22367733735531867,-0.24091865366249463
-0.25574241879916787,-0.14111756208964785,0.06156109577144009
0.17920020461649344,0.2873801726084036,-0.1335283658391007
0.25394668629239364,0.13184592780181853,-0.1140684036653844
0.02936404379940616,0.007288713881386577,-0.2771929449924214
0.13929352803973055,0.19603124633984975,0.010511181932845448
-0.19776496107272162,0.2743090887494087,-0.03902971947438688
-0.1647600332691905,-0.1730983523823929,-0.10633208204529165
0.2955823014733228,-0.022729171399178683,0.17307010536152123
-0.2611843613593086,0.2654289542179283,0.17059690278188788
0.04290358816752832,-0.03598054507425941,0.021802521573100975
0.19897716506938495,-0.02432722887829697,-0.2295715862067751
-0.12342437621538008,-0.060597451544137315,0.015845495064722326
0.09488733368397972,0.25357026535489297,0.27361244503870324
0.032254499568230066,0.018420668880654523,-0.1488496654011158
-0.07229025167841108,0.22571355982059377,-0.019928556001651387
0.021256931267701895,-0.15813727974865646,0.10014133941966485
0.09146580031295287,-0.27657498487399096,-0.16854202437175272
-0.2677318879597394,-0.27854466058510735,0.18825194526655742
0.2477076526320618,0.22648511055770687,-0.2500071228056565
-0.0956063669493053,0.232636197591726,-0.07990203787680508
0.006579666750832602,0.21621765848532332,0.15327128932190942
-0.03395369956874805,-0.04884414127724307,-0.13663482261186946
-0.17305808557498834,-0.13052392496283036,0.2517417770620562
0.11779991450691385,0.2783780078303992,0.1769385555176332
0.12785208004250448,0.12316521414413739,0.25589013765786445
-0.170587767857516,0.054634179241230596,-0.007503934739417684
0.07583034643724579,0.07087455927386177,0.030394562987027196
-0.137560182402759,-0.000964810797626503,0.09820273804109458
-0.16232432209481634,-0.17302364972879544,0.1273940172331161
0.14445494607759896,0.18715629148906543,-0.2938786733532927
0.05007461100348787,0.2334524716678596,0.25137057276280367
0.026297452397198662,-0.03834120677861452,0.18947061322143388
0.08951929097896605,-0.16055758740933831,0.26357303907331703
-0.07649891231841363,-0.10480993913842379,0.23040154976592836
-0.22606918177765534,-0.2799862127610708,0.1885768418588315
-0.23223750706574703,0.2701572806507025,-0.184027415752346
0.2575556853601773,0.2803233172466008,0.2153539908534508
0.15671982284004,0.21836122323170054,-0.15021745882362106
-0.15578232018934415,0.075968609255333,0.2884783533244087
0.17221949238753592,-0.21949084938145544,0.10722541193632851
0.0952897979330416,-0.21099827474392926,-0.13747283462811968
-0.02928702273268169,-0.015141855683748595,0.20675035849510143
-0.26431693976663295,0.09962143292704012,-0.1409144312561546
-0.13676396178133213,0.1528900473918911,0.09050938194254249
0.06290743052446113,-0.29746369458128324,0.16344469727555327
-0.255506874795875,0.28663158465681454,-0.2283091328591643
0.1162355853664378,-0.0632013155047148,0.007437778225269531
-0.28015339388879523,0.17479630932218898,-0.11051708988638878
-0.2646246720564042,0.23625444306681626,0.029463195271254683
0.18861828465886388,-0.1837955298613651,0.05699569800659032
-0.004744883366828601,-0.06224620312385165,-0.03538097337900131
0.06993026907211264,-0.0948795153428095,0.042613976754448224
-0.22469158636904468,-0.22312735513031395,0.06468703604595721
-0.16256976009819493,-0.2936279513941436,0.15657209875534667
0.2694126640425772,-0.0809008835081905,-0.11850864961849553
-0.073553081155949,-0.19347537053836744,0.0924473016991626
0.12065428059376154,0.09610885281155668,0.10152245375242253
