0.2092247179388118,0.248090517930908,-0.0117426307609248
-0.1262799507486173,0.1162865118046181,0.2850298117643038
0.1889004071171093,0.2863617777464434,0.2615179626587978
0.0624090278970649,0.0818513109471511,0.2652239935471669
-0.0275849138428978,0.1071770690305481,-0.2127943517878844
0.0509404399002533,0.1449849335078125,-0.0385874457633734
-0.0183231026663359,0.2412817251228003,-0.2666462830601577
-0.0028373503189002,-0.0850186710081749,-0.0396233078613346
0.1961296778987322,-0.1432900529007651,-0.1292661366393126
-0.1581730900187503,-0.2126570978269604,-0.0549327266568651
-0.2761881530199416,-0.1294434287868572,-0.1622717463106458
0.0431033359336186,-0.2261289483237346,-0.0970946025435861
-0.0697385722548994,-0.174395104885941,-0.2057970258117686
0.2666187994612655,-0.0174517506887823,0.1223228830354301
0.0384596999146363,0.119477580129409,-0.0314084906060478
-0.2158791893883453,0.1391204042214517,0.116912714910893
0.2857180071332956,0.086138376914511,-0.2469063799917865
0.2419328271432535,0.2490055797181032,-0.0914983060755069
0.0455280082095732,-0.1077139961037473,-0.024576765813825
0.1791273347375067,-0.2210121366154041,-0.2851057413122769
-0.2526188411347176,0.2958784990044126,0.0340453088349345
0.0522984452898862,0.0652455187763924,-0.1180229104266851
-0.2594399186134521,0.0816013030795552,0.0169335365121118
0.0366482629272467,0.1490458881717427,-0.1460441201418765
0.004318049003066,0.2769533294511456,-0.0556599897401577
0.1116327112654261,0.2425290324843075,-0.1980899020980096
0.0691552505520111,0.02125517999693,-0.2669265143591776
-0.2743087431178925,-0.1506222398055848,0.2480071860821228
0.0083688087043897,-0.2997625890447487,0.1137803662395302
-0.2184670064003314,-0.2610126132254743,0.2418507485965845
0.287067735761303,-0.1414460626920728,0.226579725217441
-0.1345619971159797,-0.0923733233629166,0.1135587184266353
-0.278293871334406,-0.1854504361632657,-0.2818526471164577
-0.0005227608555166,0.2215742742847203,0.077971860116551
0.2275122322811721,0.1091254337621455,-0.072987993794263
-0.1618453810822717,-0.1891610525469425,-0.1562886419890542
-0.1023623954760956,-0.0149690786520004,0.1390319449616363
-0.0663485209985595,0.238897548430566,0.059766880511764
-0.1056102865466704,0.2466210271775891,0.0806681036790342
-0.2263525719725813,-0.1284346410874847,0.2753599791615224
0.0614224900169509,-0.2634661988118743,0.0857940266346128
-0.2447070257458511,-0.2739678726690727,0.1147296145292552
0.0101330200868074,-0.2881881043195402,-0.1930777695699207
0.0910650296924394,0.1277034875493279,-0.2510886805645059
-0.1792618716479647,-0.049748636421298,0.2082840975499578
-0.2075191073516645,-0.0235132157751487,-0.0573467474329934
0.034035265559365,-0.0453114104823403,0.2999122013803714
-0.2296403675806917,0.0382172089680842,0.0765152808548557
0.2013887152205544,0.1142958661852924,0.0490775047576574
0.2034360259441861,-0.0857779841286686,-0.296140909467844
0.0559352246497548,0.0455311247371666,-0.0751943470442151
-0.1907640053264712,0.2257475597998068,0.1259581046941142
-0.2558443813680517,0.0158730953454909,-0.2723881978037167
-0.2423943200380888,0.1947927069470391,-0.0537341380857492
0.0703272285907053,0.2672302745706001,-0.2291160870482173
-0.0738492514694927,-0.1404300043249126,0.1188620382386883
-0.0693523431025683,-0.1846617945259555,0.2980487168503395
-0.0122389135929115,-0.2971122236458707,-0.1210809270981134
-0.0299643815398786,-0.2369680081194314,0.1780166562088605
0.1437105603543547,0.1687795872760726,-0.0685913574727264
-0.1330089302552832,0.0318946686217306,-0.2398409491187173
-0.1773696279983911,0.1073141700242401,-0.1110102148708055
-0.0226014154602477,-0.0604203303434377,-0.2703111327008195
0.0443782651815581,0.1711688356020355,0.1776525167919638
0.2214378596235387,-0.0854205708517416,0.1702304062657492
-0.0104393524232535,0.2872452996269967,0.2010395481175561
-0.0764584557096155,0.0566046275589823,-0.2957555465328395
-0.154906206976926,-0.1573087975112562,0.230422521178026
0.0075519753112298,0.218085793989007,-0.1954963433039764
-0.0302769579458341,0.0554009445452456,0.1844299399040989
-0.0247233747757439,0.2683484894137648,0.2946870404289551
0.2401389379366937,0.2260318289058249,-0.2257158166646319
0.2093354573594693,0.0684832802576247,0.2519407227164874
-0.2329583501464953,0.0797496520281099,0.0172833840451404
-0.279404955794045,-0.2933726327557868,0.1580397100004258
0.1086937210984169,0.2099012091994048,0.2607699294666779
0.2637703199724401,-0.1558861185153897,0.2972863065065765
-0.0805142611944923,0.0332397292364141,-0.1605547837876785
-0.1667194191588311,-0.1679403876691229,-0.2304089996494935
0.1780922288242858,-0.0287513884058653,-0.2319597280225364
-0.2936718541241729,0.1243798969028999,-0.1595107840555215
0.0770928877786265,-0.1490809981368776,0.2650122839477459
0.0844406096099147,-0.0151539348740039,0.2992512440850891
-0.1058767882132907,0.2267907979206176,0.2838507229617907
-0.02792690958462,-0.2210140954101207,-0.0529506074580622
-0.2668284106876774,0.0359835486138734,-0.0706404025038463
-0.0819151528082614,0.0047621881894401,-0.1674919481985981
-0.0645493013561392,-0.0813716339738109,0.2386737769380446
-0.0707306310295742,-0.2644851757738751,-0.2550254010556416
-0.2559840551997959,-0.0903220471990791,-0.0547926600124008
-0.1359841345757127,-0.1078782104335065,0.2104638228820773
-0.2714075571252388,0.2187099840537131,-0.2818796612989566
0.2216827982922788,0.0485480725770516,0.1965699904709567
0.277374726043911,0.0447321492155475,0.1581460211233737
-0.2091822452977193,-0.0477141292595385,-0.2781106831102746
-0.2615439656388717,-0.2852146020539921,0.0406477753549637
0.1833320105089069,0.1930955048589873,-0.2743317078482882
0.1105560503218329,0.2531523266863313,-0.1314842383023444
0.1327009130748827,-0.0231823660942728,0.1068372123293324
-0.2971109443611957,0.2327822390735175,0.1343062390685609
-0.0387566485641642,-0.157392129689753,-0.1369259815933572
-0.2578825810790763,-0.1679602679273798,-0.2968072314575154
0.0491159879053288,-0.0568924727798797,0.1812052979068765
-0.1608331885797218,0.1781249259153225,0.1661146071620823
0.186988944025699,0.1312918363580393,0.1474610431028555
0.1076128194133138,-0.1553958538919169,-0.2806994944538486
0.2266216272501482,0.1487067701311778,0.028312872252204
-0.1997793739674094,0.0444591198599179,0.1403275119897432
-0.0866131157468608,-0.2464702522510101,0.2083893084985393
-0.1765203434702102,-0.1951877185260709,-0.1788960722602751
0.1481015175017548,-0.1609281461307713,-0.1911290399870922
-0.2281500216371406,-0.0452283663491057,-0.0556986814438677
-0.2358758369110264,-0.01783139774056,0.1192253261026132
-0.1039812714512788,0.0995867138263793,0.2527541084228472
-0.1960389854229213,0.2279385880234744,0.0253751726634894
-0.1692578907151283,0.0153780098141226,0.2574404448306769
0.0079485879675773,-0.0717293213910539,-0.1912205715821049
0.2211524668899924,-0.1358203925448639,-0.1687004109686931
0.0166510229205326,-0.1040305310443215,0.0157405144270985
-0.177166524311375,0.1981014151500523,-0.1165376805873859
0.2803403270046686,-0.1438966639754607,0.1384861007286738
-0.0631909060041668,-0.0888352583164052,-0.1172894989394235
-0.1831745333597128,-0.2553772856135138,0.1745463289925487
-0.1479338037828324,-0.1431719548272271,0.2230971068463906
0.1435658963500441,-0.210659073482975,0.072180059732624
0.2137926375926089,-0.032465324954253,-0.2945602956244808
-0.263440989708933,-0.1550389604901091,-0.2153439784452667
0.211894567063281,0.0136634992148769,-0.0348408790042603
0.228421582674422,0.0845598449733496,-0.2164892821790633
-0.2378058757879119,0.1899579558979005,-0.1187749915283007
0.2988966794107412,-0.0730110678753161,-0.2693439231267291
-0.0437390502425578,0.1067984091424155,-0.1934749566707567
-0.072386562919562,0.0954982347395748,0.1373632692982875
0.1282990530862735,0.245014461359099,-0.1348669714579776
-0.1372181657158731,-0.01715335131116,0.286669073385223
0.1811266780412402,0.1838372113699114,0.1666791047295905
0.2602018740871174,-0.0374639074801204,-0.2488360456108505
0.1147992359977178,-0.1507186851084101,0.2631155764285078
0.1372961216620487,-0.2003154943366822,0.1529361320435775
-0.2462513563422442,-0.1721805253436086,0.118419843724599
-0.0172596040090826,0.1351253670350598,-0.089529119091338
-0.2247208988249542,0.1404503463953039,-0.1927363306235029
0.0142239432962657,0.1519130471942341,-0.2482956504774122
-0.1212454008736803,0.0657355642953745,-0.0920084405057312
-0.1871297455179225,-0.2032890388501525,-0.2539343678887161
0.0817424936457811,-0.1565790336513398,-0.017966182805898
0.091469447776089,-0.1156312600164481,-0.0039581432042893
0.014467434745184,-0.0229120178067029,-0.0250022814640717
0.1217602164375513,-0.0007184452727344,-0.1215733905445492
-0.0607193502940421,-0.1413449528960413,0.1590689464671743
0.1634259095984946,0.0723454705681114,-0.2504492097917742
0.1776496633665973,-0.235558537060662,-0.0060489742721541
-0.2986296162387745,-0.1514187624984769,-0.2746783585533889
-0.2325464587163629,-0.1715625907014638,0.2892288959636529
-0.1193781296281581,-0.1121005276146568,-0.1734368301155357
-0.2127513000460704,0.2105575735412264,0.1140442806755477
0.065703695716801,-0.1792673666367052,-0.2039201492727351
0.0851871112380892,0.1781070681071521,-0.0228856769570698
-0.0261152993721758,0.2053995524417868,0.2838358701242883
-0.2794848896371926,0.0489396404328889,-0.0375517256933281
-0.1382040214635434,-0.1577768016377293,0.1953944180516822
0.1927953649768611,0.0139890902810211,-0.2279413149562402
-0.251525045638751,0.2690740139660055,0.2829478286710536
0.0670354810920267,0.2470694017033369,0.1800739550046051
-0.2653290906259092,-0.0023415623271592,0.2149036613673305
-0.069254144205923,0.2950181196641955,0.1533054515285145
0.0333789070236769,-0.0466331901142627,0.2516308439928871
0.0240463426686914,-0.1969029363617433,0.1683724212135686
0.0237068711381213,-0.2643388724548888,0.2130926899110635
0.2602377346612672,-0.1082822154154066,-0.0780719048340004
0.1366786766047651,-0.2545855101403789,0.2060210868186388
-0.034375721234218,-0.1598292199022065,-0.2851673915024491
-0.2726205960891307,0.0448994202199096,-0.1792835290730179
0.135958715997117,-0.1159102903748112,-0.0953858419517331
-0.00019491880351,0.1302341408219497,-0.0050370488182246
0.2549544224283631,-0.0975091410233092,-0.2031940209503615
0.2792262370132471,0.270851580208499,0.051517908342117
-0.05620974713289,-0.2116055654347891,-0.1691959304161555
-0.2489321270391555,0.0161039645494905,0.1959786230084484
-0.07681844463387603,0.17774659842282678,0.28771181127824713
-0.21770031865835573,-0.1823486651478422,0.05959322950744575
0.14928618307239866,-0.1623417258000161,0.06580970949354065
0.049863172506219466,-0.21885203540893725,0.2265077688605987
0.018372178294425473,0.2093600728441947,0.014486220862582857
-0.27948981986391486,-0.22164314687190417,0.1494798788480167
0.15667139887888507,0.25937708749398275,-0.07960184061889025
-0.0859143311905891,-0.2666241874000924,-0.0244009948704855
-0.2498267317124142,-0.0593676961283461,-0.1224137080897678
0.199181902834347,-0.1030748788136906,0.2967946179444495
-0.1249339048830432,-0.122408021993509,-0.0523665266898082
0.1055079376340163,-0.1803261984674325,-0.0222355995452799
-0.0267080711568326,-0.0465886090647617,0.1083084994415625
-0.0103454619264538,0.0798034480160168,0.1615745108272197
-0.2475529068063506,0.1071586286528804,-0.169052052925121
0.1236043855800577,0.1170923994302813,-0.1252649604827417
-0.2822096339093558,0.0367634244524301,0.0190860588747123
-0.1510371427748637,0.2099708969132929,-0.2829837263564507
-0.104978799220629,-0.1711770383648207,0.0747264699498202
0.1053419609714596,-0.151289481409918,-0.0164428655057143
-0.1856805366733696,-0.164195455228611,-0.2940275795369991
-0.1821503404463906,0.2192467874361593,-0.2344231150786227
-0.0017698396733969,-0.190914271579208,-0.0617239312597685
0.1185988912199448,-0.081657207736781,0.1166913699683181
-0.2758131123526708,0.0691145104921222,0.1960378650288768
0.2988331802758653,-0.0660774835873625,0.1771639935177338
0.0663203933799727,0.0527460264890751,-0.1406843148489575
0.17832618801190997,0.02307597208647398,-0.019532298757849172
0.021996466962383974,-0.02187576905278452,-0.05827886064859865
0.1226956564799688,-0.0958226497721641,0.278540860271606
-0.2640835531650063,0.2530540125972667,0.0964609587172413
0.0198514344009522,-0.1499318978237487,0.0334322043566351
-0.1615076269620067,0.1091320092374514,-0.2577172021379831
0.2061627610989932,0.2855284907813053,0.1084984969811976
0.10242109621493586,-0.08077708041951409,0.2222886611833543
0.18112557431017268,0.044018099848835604,0.194055478029521
-0.28210797313629077,0.2463050214051131,0.25686834063800623
0.1722807336478913,-0.0449779151224615,-0.0304185822580308
0.0930150710699883,0.2598458467307734,-0.0848887324445026
0.0124532896697037,0.2682148866272779,-0.234868941074736
0.0186871107503636,0.104559121929429,0.1959820779347836
-0.1824880686302582,0.15409689111442,0.2629449846033787
-0.0783755838072109,-0.1262193255094743,-0.0487732249828135
0.2288801404136275,0.1124359187481939,-0.0735433804999707
0.2495771846822256,-0.2606622299818625,-0.2321156360339221
0.2062075047308779,0.1985674241906921,0.1224933772307483
0.0016087065269507,0.0149128061775454,-0.0732446558631317
-0.1275594629175247,0.2375819119137058,0.1994554981373124
-0.2399357032204961,0.0054323490561927,0.2437432893824998
0.0375922920701203,0.0544246084811134,0.2938569711907403
-0.0615076083598383,0.018138839545976,0.298773981116458
-0.2689369296342312,-0.2117524679507127,-0.0893277246903042
-0.0913343024841031,-0.248318336490299,-0.1686047468001094
-0.2091854751953561,0.1654710548870669,0.1021358551742973
0.2263411775025793,0.0971711753494868,0.0987999947610064
-0.3018164669798883,0.442838606524101,-0.006371519564837042
-0.5911287032538279,-0.2158219652605853,-0.3385732769808841
-0.0666094764478631,0.11369317194514512,-0.26092777082777907
-0.1844088148470321,-0.2911821924075862,0.1725017279349184
-0.3465996434215901,0.448491081472373,0.416194105208553
0.1465187670035362,-0.2935623717317771,0.0755463900376457
-0.0614447889840166,0.0573251182262406,-0.2256850465386939
-0.0994005076447116,0.0720145941546881,-0.4328977009493583
0.2582162676149647,0.2127522638961085,0.1446766186187269
-0.23715449814002373,0.2678428640255311,-0.1278434930787109
-0.1935186806730235,0.050127956081193,0.2618297371325573
0.0517309367908211,0.2196952622105351,-0.1957697915698074
-0.2319615745526272,0.0933285438419609,0.1964788430361465
0.176401320951422,-0.2285870489687073,-0.1328231599127699
0.2530076314477799,0.2260521717665575,-0.0562044325483804
-0.2797597966069445,0.1675215544671673,0.1185236660420071
0.2496717230689925,0.002550876020419,-0.1533141677536815
0.0161101337510354,0.1468158308853878,-0.1616621352131793
0.2442001578435692,0.1947187475829685,0.1658964118902957
-0.2737060897074438,0.041472477980096,0.070817513492679
-0.1550654089937227,0.060833305467742,-0.1349886487263812
0.0623395693286108,0.1893778772336793,0.252702533741136
0.1865754019366395,0.1926997962202085,-0.0608232758969829
0.0516300211059438,0.2139081239844963,0.0624422953703979
-0.080045718495784,-0.1594791153661185,0.1992769782514549
-0.1133797500115443,0.1515505999492665,0.2371400632952282
-0.2411809110137691,0.2323497653880576,-0.1949184581996472
-0.48745918899354196,0.1255474685090726,0.2427819945225627
-0.6127317062956729,0.14456836314611363,0.2079965300614794
-0.16555541534908436,-0.22818657423310362,-0.44718928276250364
0.0005445497132366305,-0.12006318498461956,0.09122243079571288
0.45881362522394803,0.18451492147000353,-0.8403168727803835
0.5099592188989837,0.33340699167511273,-0.6604964330932854
-0.1762492299109034,0.0331481820526225,0.2438037294610725
-0.1986272134564228,0.3475868843474192,0.1573752754178044
0.1342087387384116,-0.2249706622454003,-0.0388439607896072
0.166784848805826,-0.1982038769480424,-0.202888186744776
-0.016758485987737135,0.22936120053602338,0.09263076668135914
0.2245905141464382,-0.0109100950070799,0.0524806758209649
0.2689657269860158,-0.2322598468706411,0.021087181377642
-0.0533768082099007,0.0431127836018159,-0.2890091820477251
-0.227320825300497,0.2638318546140393,0.1517818417805189
-0.2427611138437895,-0.2180159686876892,0.1761833788059022
-0.0470731402632802,-0.146926783499651,0.2220002786275531
-0.2524577014624428,-0.2517552861928567,0.149753159668456
0.1485356689903074,0.0345077374365907,0.0107737789901633
-0.1662291766077258,0.1956405308823716,-0.1723892435138775
0.286585215796001,0.1545603687437012,0.1921551318574257
-0.1277691868890913,0.0302056834332449,-0.209886096793143
0.0579671168984926,-0.05452798595518,-0.0006777165386669
0.0588477924511045,-0.157752195318562,0.2797877927909488
0.1594536253781006,-0.1966374388459219,-0.2938839610261602
0.001928091660034,-0.1510934558289118,0.2949644856232823
0.1846509704002074,-0.2022804223447126,-0.0382934063364335
-0.1253604635999785,-0.0809000317686964,0.2106204815960733
-0.13023307006758322,0.10152917123328022,0.1991306327751867
0.45657273003888776,0.35984241215977614,0.20988229406401118
0.27419879303391603,0.03346433605351733,0.377637896939693
0.1946021419427066,0.12095577311322532,0.22059605827968365
0.9093121381473079,0.5787428386896967,-0.16188609725314274
0.47903967817652365,0.08309783601349163,-0.39567610132464415
-0.2350408044875749,-0.07759826291174,0.04201986743400031
-0.4322060754782529,0.0370326894277164,-0.340770080374029
0.1426879576069072,-0.3443898663760748,-0.3572638100887916
0.28335722902377164,-0.08808313809940982,-0.017559211973790456
0.04967327105628107,0.2574916311782819,0.007992225562369962
0.1846653045478098,-0.0295346698247739,-0.2644503657804938
0.0863467348903511,0.2811458878859154,-0.2125270086440436
0.2162000064761239,-0.1132523775842635,0.2822615898756618
0.0610646500877695,-0.2813937487946673,0.1475570492839582
-0.1491495869370291,-0.1302694863090314,-0.1055755252466028
-0.0565294897252093,0.0469081377667935,-0.1742391488392896
-0.0231740658037211,0.0155883319553787,0.2680532791528886
0.0896044698579637,-0.0809195449245069,0.1420085755613574
-0.1656206159285968,-0.1567741415490365,0.0793575814797188
0.0863401049639388,-0.0343336315966352,-0.0204355225351292
-0.0846193139809151,0.2839137470224087,0.1443480755388173
-0.111117426309984,0.2472427691700321,0.2974827014671357
-0.0033951230260283,0.08798903274004,-0.1629150078616157
0.1172159160981164,0.2390189037038099,0.135061117733268
-0.0719763114873117,-0.1757672060322422,-0.0461400266863399
-0.1526047563928534,-0.2007733514085201,-0.2533222097340973
-0.0498597128501222,0.3387527767044756,0.1943531643279311
-0.2656135459004725,0.10165992911823943,0.36375671232711504
0.33680207340374796,-0.2880788577441555,0.11410244174562255
-0.166694407651774,0.0663479575081751,-0.276247939168722
-0.1383118962762719,-0.2334928492608902,-0.1302533538885648
0.2209250963421796,0.0328134973416511,0.2999792833703663
-0.01145965592874151,0.018145362201801848,0.20592408906014384
0.16566845744538033,0.537815334491943,0.15324158203447694
0.04086132131089329,0.10709088945157003,0.4551834805174219
-0.2242697135947639,-0.6893352861702517,-0.072414837308813
-0.15204794330459126,-0.29597293447359174,0.10175495958566695
0.045707768982612966,0.31899392191640735,0.1874760106528436
-0.1256698873043597,-0.0836935492226271,-0.1785589368711135
-0.2392803484484716,-0.1219623109146897,0.0695375443859134
-0.232049464232926,0.2402719249518598,0.2474541720128591
-0.0829301201479771,-0.2795616143812019,0.2041837437932462
-0.2625497843464359,-0.1577535301068273,0.0997703167346596
-0.0079698501374013,0.1802362290833369,-0.2758159885202521
-0.2591148211321421,0.2310172649072829,-0.0281174704804451
0.1396895040379022,0.0178188562455999,0.1639193854153691
-0.1832040464590038,-0.0026318275928108,0.2840174609934355
0.2212514651746294,-0.1425809809751266,-0.1874886244594251
0.2210470072281934,0.2700745234818514,0.1305669521454446
-0.2050572548420586,0.185006138404469,-0.0357178324022135
-0.085484749053899,-0.1627409047769422,-0.2182030679574187
-0.047769467654475,0.0897304642459991,-0.1673315646564445
-0.2272060452815656,-0.0584252740670458,0.0646110718156662
0.1647920835888827,0.1850246055676198,-0.0008062005896631
-0.0850279788538335,-0.14991234791357966,-0.1985108345218755
-0.6195199379627565,-0.19744211517089513,-0.18431782488976195
-0.00986930260250796,0.06051252500526292,-0.04524617807646865
-0.10350802426240203,-0.3930126058095989,-0.28700797309122267
-0.013373984744608512,-0.2746695791693356,-0.14515845144779838
-0.0801398206289325,-0.40876419935759384,-0.1178531285119252
-0.41175811559585934,-0.130665039280559,-0.14818182685550044
-0.0115852940170632,0.664882373693622,0.5141165982649663
-0.18066259025194895,0.6291158674487657,0.2581720148350889
-0.4686477798178123,0.07736797325181252,-0.051309460086429656
0.16975116673409837,-0.10702775893791931,0.10743620429089941
0.048224900456168,-0.1541802750635781,0.2404811454068229
0.1460594247799377,0.1574723798651922,-0.1975073592965739
0.1345208817180347,0.1655121990135773,-0.1652852790743029
0.041240249176,0.2214933235793671,-0.2807310794469586
-0.1493573095477275,0.0566718666997039,-0.2777893900884065
-0.0272748215510361,-0.2645779378099215,0.2430144738309105
0.1766964213867261,0.1724630288633332,0.1031340035853514
0.2378528120332851,0.01394942330035,-0.0852995162203295
0.1106491318649014,-0.0324787982701677,-0.0290528495251387
0.1439770706953113,-0.1567050206815088,0.0760148819546168
-0.0092200283059711,0.2952216854465981,0.210028774523553
-0.1828096038394525,-0.1926274195711506,-0.2675727063629962
0.0818570471245851,0.0163221522362119,0.1544724843989956
0.1259924696225477,0.0780691984024204,-0.1827904720146803
0.0582663453268831,0.1551398621502025,-0.246744702630748
-0.2183830248150637,-0.1217582140658141,0.2388813177465734
-0.2614370633728442,-0.26056379931421425,0.020530686712829326
-0.16462946444368987,0.16509458694224038,0.05993983854387996
-0.3495745369980053,-0.5435859433786867,0.006134157050601401
-0.2936907356440082,0.0100682046787391,-0.2214852229433678
-0.08284048187428834,-0.018638946220286116,0.046687418832314045
-0.09069457727260724,0.49359281537064115,0.40070511538946296
0.22411741888230768,0.34561377270660093,-0.1579724721568609
-0.12172385507461268,-0.04744146941336188,-0.13100490588414673
0.09364425823389676,0.5294339853541944,0.2590229192004027
0.24437635657023066,-0.04760759468602702,-0.16942411333982418
-0.2729060717869334,0.09766863195997472,-0.27245836648720045
0.29378863637763336,-0.32518902921907555,0.19888610326333575
-0.1777984798813781,0.0744726140628654,0.2323161228835766
0.1773555197531022,0.2387140504950283,0.0696248425893916
-0.2159171160976156,-0.2455473079196219,-0.2570283727306167
-0.2381525038748284,0.1440964856448791,0.1828050002728741
0.1648590920669364,-0.155959445194248,-0.2887509984081208
0.2953915941138851,-0.1602834554637329,0.1382119410370117
-0.2521085333629453,0.2895796211631693,-0.1911480442308515
-0.1901769597562971,-0.1890020749886721,-0.2389724498014412
0.1951996866911948,0.2533481022694888,0.1027795803407913
0.0050464028702726,0.1140060182500851,0.1370661823077817
0.2996833664143269,-0.1978228672871168,0.1972257838514474
0.2289711446069,0.2530265761155989,-0.1460214283648882
-0.2292058647296226,0.2138849088290838,-0.2700893799442466
0.171773129006127,0.2362157702575446,0.1753286475596175
0.2282060460686005,-0.2705787280678192,0.0517526517797285
-0.38011026006814697,0.15755218847670105,0.11736815204628605
-0.2561620095290416,-0.15361454595476953,0.20948332027358932
-0.17274134067483946,-0.12055637676853916,-0.1988078868030788
-0.08272719577538172,-0.1403570657261173,0.42413075959643526
-0.10788347172350174,-0.16078144459126062,0.161180838298284
-0.4774886541190605,-0.44113395849277376,-0.018069097602949172
0.0773529270818605,-0.4353228760010706,-0.3253882121300285
0.07966699900911171,-0.0922867921652218,-0.46893952030526914
-0.5331776537152791,-0.23803847337377182,-0.27371130503538665
-0.3011603267475684,-0.4455818990756567,-0.5646107104645314
-0.36085858668134696,0.14713493119010337,-0.010100003539401737
0.072146889852325,-0.392090620338792,0.0968510403609268
0.40957177395579814,-0.49869632651725976,0.324426980735346
-0.1665922020020415,-0.0166556343758589,-0.0167171774936759
-0.1539354823608504,0.2485772335207257,0.2340222483499474
-0.042259628189739,-0.178610218757846,0.0240074163484812
0.2406582792737763,-0.2400513792942049,-0.2636230681417089
-0.274231011750236,-0.1078918180261962,0.0975362021629767
-0.0971264228819559,-0.189812714300305,0.1730066969066249
0.0741817993694952,-0.1746715260887216,-0.0432875477889388
-0.0190898159202049,-0.0926737783516568,0.0821308582114036
-0.1099412704196623,-0.2871887609522824,0.044954153850623
-0.2579916958879547,0.0561366607498721,0.0444909651068499
-0.1280028531672797,-0.1313832695792083,-0.1771136060482135
-0.1107810631656046,-0.0464850664550635,-0.0206921125764726
-0.2337974384838694,-0.0030575432207819,-0.2913488092130289
0.0421055194026921,0.1372913665747115,-0.1519522388566949
-0.0362465009544162,0.0588174262253786,0.0348599655272098
-0.12088557038708131,-0.37603665739019604,0.0006308317071952014
-0.1227919103594122,0.3376921292457669,0.1467425705568341
-0.07918105434206617,0.06906119183746673,0.25363521366875225
0.24336815458442043,-0.3546520898913926,0.24028260425388023
-0.2574405489804554,0.27546635325125357,0.31786395081822133
0.03055070831407437,0.32576452388520694,0.3812060191288341
-0.2902236489224011,-0.25590063492809906,0.1310275235313053
0.3036194616737946,0.34924991396026667,-0.42245834061297866
-0.351331114072184,-0.2287867604743134,-0.39440895116430225
0.1749675137057861,0.0228866281347606,0.2186345434730218
-0.030671623052279405,-0.1981848746514372,-0.051657972605701846
0.2295649897610845,-0.3530334408652676,0.1786446640470507
0.13771923715190573,0.03082850489219327,0.20099416591395464
-0.2010117627180525,0.1919255331983916,0.1517737005327471
-0.1191738229332819,0.0578611224486113,0.2467033648288908
0.011681558405315,-0.2588340220795995,0.1338746276087762
0.2851629921163915,-0.0632917388462833,-0.0731021329128204
-0.1963530565395817,-0.1538159309185168,-0.1368729453358245
-0.165168265868157,0.2648573288341421,0.0106308269502264
-0.1153344926906941,0.1361052418981695,-0.2654303488800887
0.2274179702410947,0.1966945419038906,-0.0763053694154755
0.2216115002729922,-0.2125875534940062,0.2005863891803374
-0.1209627621191554,0.1957098801285227,-0.2252191175860557
0.1256039603911568,-0.0018113830351318,-0.0796388060888992
0.0808077041864649,0.2438312684042918,-0.0086525540627481
-0.0103389447162376,-0.1959316747968588,-0.2558839646363973
-0.1974495109526423,-0.278277274980421,-0.1111756076032169
-0.2119510442021824,0.1259772912537177,-0.2909575907883086
0.10853576663733257,-0.003834955621566963,-0.2374884901320218
0.3397107089857577,0.1491705942863153,-0.0688535445212057
0.41233304092716316,-0.04830711496453709,0.2297738643903838
0.24023243177072104,-0.35743197285766004,0.023933037969566244
0.0298466192396562,-0.4718566503855318,0.2875701009219514
-0.2416930548447797,0.0968545319814782,0.2901182811566924
-0.04622801735749233,0.07393598813441256,-0.053103426966543646
0.027340976554532843,0.564440570864509,-0.3690535766371854
-0.0578852691625828,-0.02274223653487316,-0.041357437668991345
-0.3880517978642369,0.22633857526572237,0.44880697227549865
-0.11142860755579258,0.6384201305501401,0.18254235197963986
0.11889737894022236,-0.47188087669856404,-0.24597657758455835
0.22279275834457865,-0.09527651827703153,-0.08507286387554099
-0.11435571319624505,-0.0726275028415427,-0.06005601379692493
-0.2496788722575302,-0.2401579032231311,-0.1853637418838245
-0.1427849315761835,0.0992877721720701,-0.1575159093950426
-0.1476637039975542,0.1969187980601152,-0.1674714645921557
0.2576052310529101,0.2731998436564878,0.1766303339647312
-0.1621230995323446,0.093036931844589,0.0549243116286834
0.0554622081206869,0.139084218526086,-0.0009675402986288
0.055078241919664,0.2657653170105243,-0.1289700540764602
-0.241732660120532,-0.0430375509469131,-0.1334937464844403
-0.2588548598959562,0.23152657120778,0.0588304937268718
0.0262696240232965,0.1333773530509995,0.1454139739351848
0.1084352843817721,0.2981075113966511,0.2683695712516101
0.1897486665550211,-0.0808025621777793,0.1049410078025417
-0.0170113638967838,-0.2907548958710813,0.0759472262123699
0.2738164111058213,-0.1717251894407028,0.1449750347452579
-0.0857853512031283,0.2124183857571378,-0.155421708342905
-0.25739456995534343,-0.4073703063271518,-0.2551516360362101
0.43188605682859643,0.17882723052760094,0.4513715972139708
0.10242660703467485,0.19785630817771388,0.16999380245164966
0.1401856233991538,0.0064969374603988,-0.1577402384970173
-0.1081370994378765,0.0914865499078619,-0.2186607429024825
-0.2118991753574396,-0.1960570649051491,-0.2809280751378785
0.5652556772575901,0.3335590057655798,-0.4487361578135701
-0.29314323931867187,-0.4057569631521359,-0.018398634046897105
0.1731369011050938,-0.0403993264668764,0.1486948945956659
0.0700800115913282,-0.0413872997399224,-0.15094377396610928
0.04942170508811945,0.15013112715391186,0.3941067094830527
-0.23205464136455967,-0.04832213440196054,-0.15260400464281215
0.0570427362407309,0.1267134995115879,-0.1917120293021793
0.0867093637945999,0.1415819048630581,0.1992208148860468
0.2108374394060221,-0.2943583963939355,0.2923248090786342
-0.2908372730062735,-0.0698693011731879,-0.2365799212756787
0.29680237938755,0.0870561617568167,0.1002108246962656
-0.0494749064486998,-0.2999313256967805,0.0657170568300208
0.0123293474795798,0.147193515995181,0.2931672863176119
0.2548586458059539,0.2983503891948327,-0.0983479099505295
-0.0475339513131908,-0.217378084981873,0.1570770607264089
0.0938265875068619,0.0467767283357973,0.2603367572569949
-0.1462910654091856,-0.2179764956355975,-0.0046908911690723
-0.0229032972576423,-0.0724120883064343,-0.1656299472546328
0.1677683751614736,-0.0670085816206174,-0.2614724675190168
0.1969726135102897,0.0816720417104056,-0.2283040851392846
-0.0286616413760061,0.1863214262960389,0.2643382648731395
-0.0492467851864762,-0.1595298939868959,0.0712869077108249
-0.22532586299098714,-0.10007396851118222,0.09703138545890175
0.2874460332063035,-0.06047455588482356,-0.1208042198969137
-0.06925912979823136,-0.029094480057150693,0.1606721347567056
-0.1455709621040851,-0.33024312992453775,0.12335997654739628
-0.21012446264085025,0.1345303476907253,-0.12295997487519267
-0.1618209077850791,-0.22002272440940063,-0.30835780424841175
0.4202738045433426,0.1166463229752334,-0.29379122238974065
-0.004337025385431116,-0.16545206909128107,-0.2469379775734049
0.22808792340799855,0.13242230521001463,-0.0052035818190647315
0.06951013926740782,0.12105192875820653,0.22732515526698252
0.23732838848528312,0.15528234996532886,0.5408659747650896
0.2694111952221803,-0.0389607583096555,-0.0431892926409078
0.1802299460985345,0.2174948498205227,0.1464261378973266
-0.2610042422785401,0.1479535334937399,-0.0971531355126998
0.0734146166112447,-0.0611391349729803,0.0780067450358222
-0.0366623268158324,-0.1453302440741987,0.1262076778690265
-0.0222984596379817,0.0098610193338276,0.1894245099995897
0.1486774823406924,-0.0763983951010293,-0.0055124698353022
-0.0954059252149929,-0.0897463860403189,0.05985514346227
-0.2908568302603078,-0.2707742380902683,0.1241708836050905
0.2772772272303903,0.0783232307614389,-0.1859030410035548
0.0597939755835368,0.2784178576341309,-0.1759602022387282
-0.0226739059844298,-0.2806404322610293,0.0557740524505325
-0.1393233236506925,-0.0209354293765239,-0.1490202349754825
0.1305956149132068,0.2736468749740208,0.0499982891614576
0.2692861577793957,-0.2269129269155163,0.1020537515595954
-0.1183274055306107,0.2478419050524044,0.0588344229142291
0.2537301166002564,0.0350529806458533,-0.1576725965435424
0.1811048741650406,0.1322605402929237,-0.1167317655582745
0.0555081591863931,0.1284907831462101,0.2010547613621333
0.0944115269125001,0.0658737180035355,-0.1118316100044156
0.11878316350178265,0.2133492962040225,0.42547398823873483
0.39923205147599244,0.24130739195105264,0.2830408987022522
-0.0115727405539264,0.1037099815451837,0.0795985600758985
0.364121585651996,0.25918433426703874,-0.07523893910779178
0.15328828114575926,-0.1413898078394521,0.29164127370489906
-0.03046045204391795,0.25528945181349666,0.48883042931392884
0.08010974387030745,0.06618496288967295,0.3512912532976832
0.37959260500731723,-0.08535303886948702,0.3585288110533552
0.0028211658232252,-0.1317047898890438,0.2100350380317544
0.1814093541945461,0.2883840980678601,0.2984165149772128
0.0316569641447566,0.1558210520754684,-0.2951920638593397
-0.1443149507789896,0.2440133001471181,0.0330351211990769
0.1170551946790303,0.2558796041110333,-0.0959028148478255
-0.21516153932845,0.134963188823466,-0.2293251857116147
-0.012188749901034,-0.0285626862560521,0.1988099388832801
-0.1834072633463999,-0.2637082708192905,0.1498501310397916
0.2629969435674502,-0.2682093398746139,0.2277354524961667
0.0096979116496078,-0.1175422670826503,-0.1068004053773079
0.1659772545052255,-0.2778797708204463,-0.0694861929062187
-0.2933419832114231,0.1635471410856976,0.2863536392340498
-0.0690946420377308,0.1686808013042007,0.1903925007122435
0.2311211527411001,0.0626850232520143,-0.2530741192401972
-0.2256749307670439,-0.2638112464355474,0.0237646900172111
0.1611837077209421,0.0628130536044394,-0.0681691135919982
0.1544053435928492,0.1518501931987529,-0.1564679149339708
-0.1720974634163447,0.0862337064986616,-0.2605906736585213
-0.0430630155624394,-0.1275622673322169,-0.1202186619357583
-0.0981676405263529,-0.2234996757872898,-0.0089048137145414
-0.040028650722439,-0.2948288397064952,-0.2239263963215236
0.2711365592647918,0.09312798386914482,-0.07290684246970738
-0.017422332563415154,-0.3582194233460943,0.485827355072559
0.11121638835219189,-0.18883414544439348,0.08519500768516793
-0.12352551229291032,-0.46128813461198886,0.38227009682853075
0.38354449210848135,-0.16381638638617654,0.3072798464381296
0.0170140738084419,-0.4979999724289733,-0.1426264249202795
0.0426840438816482,-0.0803701393345079,-0.2924898694846686
-0.1997198165876778,-0.2130285027421406,-0.103675221559636
0.0350328206729952,-0.0747509881975309,0.1347843179370428
0.1671458749220077,-0.1403679435996351,0.0163184922378268
0.2392209713502005,0.0654478677318757,0.0232088593866673
0.2385264116236217,-0.0714100449668389,0.1132921999119483
-0.2135421771594263,-0.1335211775256389,0.2103125383709332
0.1053741497543979,0.0416808556813983,-0.1893755664457816
0.2234884446376743,-0.086251202104204,0.1550009720018006
0.2376560754140389,0.1050649590122914,0.1458534614714521
0.2593728475625655,0.2943475756340222,-0.1893295244946669
-0.299304878285754,-0.2284301707207113,-0.0193838462886994
0.2517506722166427,0.0808484912703195,0.2397310714445648
-0.0640218294766695,0.2782920885789179,-0.1200170181423695
0.2930889161702815,0.27473631284461,0.1292346578940526
0.202934098854969,-0.0095029499750515,-0.1805711192758217
-0.1342290226760879,0.0364133459077666,-0.2379854998147798
0.2072846333857547,-0.1868153371318146,-0.1023393291343326
-0.1409568458717401,0.2525249430619627,0.2353973529527918
0.1842344489821084,-0.0895115751274133,-0.1433475036197264
0.1612765177853229,0.2690359209664475,0.141690275748796
0.1850888459689523,-0.0401422689384167,-0.248562966959863
0.2580450886272916,-0.2575397166163771,-0.13909432992093
-0.0210820310726826,0.2238593196628662,0.2304568116997423
-0.0202268711721341,-0.0954390773277808,0.2239877792834049
0.2663106842567367,0.1147456697353135,-0.1735241020579883
-0.2372486781648264,0.0060390910132334,-0.2717286202295256
0.0312740074033598,0.099080496449015,-0.1648750428305347
-0.0989846289157805,-0.0807394496981805,-0.207710040715412
-0.1005577774464882,0.1434144711816485,0.0705932488562682
-0.0996320934491984,-0.2690194561663178,-0.124885391487469
0.0228991443279292,0.1954920318002052,-0.0262246679957511
-0.0204399979263464,-0.0514713280532879,-0.0276272547191198
-0.1647503507091084,0.1804950735976937,0.1924546653783951
-0.1131038070639019,-0.0994708734162641,-0.0211097935543762
0.1216076687557846,-0.2074033078303639,-0.1316548049549648
0.0713819394325034,0.0278667671762516,0.1264118670643433
-0.0386200247136946,-0.0515546835786276,0.0563737971625802
0.1251774302956061,-0.0743372268436685,-0.1548983676973774
-0.2460721015552036,-0.0225390954255695,-0.2102536084990839
-0.1145556207597471,-0.0965776414908104,-0.135673529444669
-0.2495755648766049,-0.0326250452500895,0.2806952846200211
-0.1595346664461172,-0.0593156365248137,0.2970845967953613
0.1131954510018926,-0.2000979874545739,-0.1618659869051475
0.1784567475779465,-0.2476596337555218,-0.1048213265205328
0.076793367249505,0.044621194460601,-0.1171714194038882
-0.288426198443356,0.1617183616214691,-0.2585633856740027
-0.1556661392771414,-0.0140012858239628,-0.1483280248737152
0.1523672865346319,-0.0276158003669468,0.0507113879913369
0.0873742108816865,0.0824897940953792,-0.1232114105932033
-0.2885827923943029,0.1358119807706252,-0.0119258535484121
0.2089222203923217,-0.1356280554770929,-0.2250471043719386
0.1562259844500395,0.0456462923074302,0.1841238990508057
-0.0165463206492104,-0.0330855817627759,-0.2784710392791309
-0.0632973416461026,0.1548756603030211,0.2850837979101142
-0.1487699975608983,-0.2193552872534045,-0.1190899609906653
-0.050723973317263,0.2865855860659964,-0.0719160250049487
0.0791302260434721,-0.0442104019752511,0.0158820522945218
-0.2841677836595646,0.0621222562380823,-0.0231678053799977
0.194729749184611,-0.107644032196785,-0.1945385796926757
-0.2395070590324214,-0.2544452084868839,-0.0560618187222747
-0.0105467551150786,0.0023828003650882,-0.2307851756195112
-0.2829385122676475,-0.0257643866212449,-0.2610039348694282
0.1989454291338505,-0.0442640566666167,0.0651827397302998
-0.1986716002675224,-0.1910593590521253,0.2091674955752807
-0.1359136629771844,-0.168536154399981,0.1589858660675763
0.1591733913192871,0.0154501373399306,-0.2043537960548766
0.0669449581913381,-0.0413649036863275,-0.2756084286529706
0.2393828556640962,-0.0138279639552714,-0.2460721416460168
0.156178007937366,0.0124609448055663,-0.1067610877024074
0.0558925738515096,-0.1343652744673339,0.1844844841258615
-0.1686779326027344,-0.2807565923691151,-0.1540276312857811
0.2245972056094649,0.0987195960411457,-0.2084378231978901
0.2970249984510806,0.1486092090320063,0.0801626589800604
-0.1621379810543851,0.0643239274286018,-0.2099180854740862
0.1613094366786452,-0.0567800719731543,-0.1448583311106794
0.1589654523334434,0.2938578506221211,0.1359306119040197
-0.2133931609516212,0.0917406511085984,-0.1719491424398005
-0.2625566682171565,0.0961331201249699,0.2909747466095807
-0.0494757390483389,-0.124463003564342,-0.0062764432293601
0.2128804294873614,0.2345955879791777,-0.2263977641858525
0.1992099564255198,-0.0215649421704416,0.1858815725795196
0.1395914644644125,0.1423471455649519,0.2513965244988349
-5.9549557585303337e-05,0.2724881436405178,-0.0022884218798834
0.0724840058091256,0.2247035530629753,0.0142919209308237
0.0081092805196306,-0.2492562008384187,0.1808732084314571
-0.2886155274324454,0.0171756963363397,0.2632643595727588
-0.1885606949686965,-0.1314898097684184,0.0836292642265029
0.1077603519247035,-0.1940451297589164,0.067260506025582
0.2979831139610365,0.0898022848725639,0.0131401617678416
0.0671699036025471,0.1180312623593679,-0.2428806811590149
0.0840410641478497,-0.1612896757926994,-0.0965970325619172
-0.2871367507864665,0.0952940699645539,0.2341885360151244
0.0427825501756553,-0.2924899264170936,-0.1825583915749888
0.0798888424147468,0.1709193743173225,0.0418077083129153
-0.1231196393175484,-0.1654434802180543,-0.0421589770330342
0.0554267454347545,0.0356401253008369,-0.0958701830713786
0.079106042161228,-0.0464686832568125,0.1527027022986
-0.0907591196184441,0.161634749903747,0.0844568948185239
0.1276400457207836,0.1192599509833228,-0.0264044676708895
0.0889556566911726,0.0715366051206293,-0.2332855120304433
-0.1964831848509587,-0.0879389520104722,0.1068828046860709
-0.1589017967426498,0.1200874076775744,0.1422024279742959
-0.0603419819263194,-0.0584245214286508,0.261258657258387
-0.2772155356501767,-0.2764927036222338,0.2776415604494182
0.1005280774733318,-0.2719387522896176,0.0104346026530909
-0.0854256029368707,-0.1719192304945655,0.1508026366038816
0.1262241314440543,-0.232082262787218,-0.2832326304856279
-0.20399659192376,-0.2672309609673908,0.0090382771325982
-0.0963493040567843,0.2420374506185185,-0.2963703090842899
0.1771618935092789,-0.0006118080813255,-0.0302008262401387
0.2843751850479399,0.1573287754815924,0.1997065737536594
-0.0407960342692692,-0.171160254214571,-0.2617236163816837
-0.2395548107623972,0.2417396322241443,-0.1353048535334547
0.0545551020020473,-0.2812423401466502,-0.0014468034250031
-0.244697322079453,-0.2373542572905402,0.1179189351000591
-0.0465905570319853,-0.2377147348475138,0.2917930930429076
0.0125129865080918,-0.1417381931256842,0.2839036387480908
0.0536969181531362,0.1821450300952067,0.1203283320985828
0.2592825909716327,-0.0111214062570541,-0.2685650293417961
0.1676932878610185,-0.0220726845484436,-0.0066683079726795
0.1135045890535316,0.0378768228096063,-0.2988837428629811
0.106838925321357,0.1498472276540395,-0.00912774670141
-0.2263798787372843,0.2897514702886318,0.0660454861102541
0.1018629241010141,0.0250000071387461,0.218188014779568
-0.2176982104046906,-0.2067228340694334,0.037697706931383
-0.0497207451650386,-0.2580797306139776,-0.0534282082879302
0.0288422197567634,-0.2187575796438714,-0.1115047963245078
-0.2883228486518361,-0.0908692161835727,-0.0602180740168518
0.2623451662246922,0.2970853507914924,-0.06970579566267
0.2814851945557361,0.0354490643886961,-0.0877890210465236
0.2439655535521247,-0.1515961764837988,-0.2271795434493763
-0.2344993601719621,-0.2453803454160639,-0.1684215624528198
-0.0339808921432747,0.2624525847452228,0.2851834553649622
0.1443542589486732,-0.1331180178808755,0.077727670068899
0.2127116541050541,-0.1063856728883355,0.023531785553798
0.0688566993883808,0.2319333408086933,0.1931598778264941
-0.2859410989519487,0.0006963561874316,-0.2512715777303037
0.2072716744457871,-0.1408020330855763,-0.0396778028726617
0.1628466744521427,0.0051558866911893,0.0568770881605021
0.083204208842888,0.0508439649436608,-0.152032567297999
0.1886597022002742,0.0276278196552168,0.0560982328178643
-0.0915925327517684,-0.0300218603789271,0.1725786014144889
0.0857214478297901,0.1750458626248942,-0.0021492828654737
0.2229146446386768,-0.2672333730163071,-0.0033632701713972
0.1030455255954495,-0.2675208567468186,-0.2304391853599395
0.2058984537343829,-0.0345115451929128,-0.1065956396313453
-0.0685087911772708,0.0634429932127186,0.1730042227589132
0.1827105241810926,-0.2498575187046481,0.2360923730128833
0.1929186928339107,-0.2236773373553186,-0.2409186536624946
-0.2557424187991678,-0.1411175620896478,0.06156109577144
0.1792002046164934,0.2873801726084036,-0.1335283658391007
0.2539466862923936,0.1318459278018185,-0.1140684036653844
0.0293640437994061,0.0072887138813865,-0.2771929449924214
0.1392935280397305,0.1960312463398497,0.0105111819328454
-0.1977649610727216,0.2743090887494087,-0.0390297194743868
-0.1647600332691905,-0.1730983523823929,-0.1063320820452916
0.2955823014733228,-0.0227291713991786,0.1730701053615212
-0.2611843613593086,0.2654289542179283,0.1705969027818878
0.0429035881675283,-0.0359805450742594,0.0218025215731009
0.1989771650693849,-0.0243272288782969,-0.2295715862067751
-0.12342437621538,-0.0605974515441373,0.0158454950647223
0.0948873336839797,0.2535702653548929,0.2736124450387032
0.03225449956823,0.0184206688806545,-0.1488496654011158
-0.072290251678411,0.2257135598205937,-0.0199285560016513
0.0212569312677018,-0.1581372797486564,0.1001413394196648
0.0914658003129528,-0.2765749848739909,-0.1685420243717527
-0.2677318879597394,-0.2785446605851073,0.1882519452665574
0.2477076526320618,0.2264851105577068,-0.2500071228056565
-0.0956063669493053,0.232636197591726,-0.079902037876805
0.0065796667508326,0.2162176584853233,0.1532712893219094
-0.033953699568748,-0.048844141277243,-0.1366348226118694
-0.1730580855749883,-0.1305239249628303,0.2517417770620562
0.1177999145069138,0.2783780078303992,0.1769385555176332
0.1278520800425044,0.1231652141441373,0.2558901376578644
-0.170587767857516,0.0546341792412305,-0.0075039347394176
0.0758303464372457,0.0708745592738617,0.0303945629870271
-0.137560182402759,-0.0009648107976265,0.0982027380410945
-0.1623243220948163,-0.1730236497287954,0.1273940172331161
0.1444549460775989,0.1871562914890654,-0.2938786733532927
0.0500746110034878,0.2334524716678596,0.2513705727628036
0.0262974523971986,-0.0383412067786145,0.1894706132214338
0.089519290978966,-0.1605575874093383,0.263573039073317
-0.0764989123184136,-0.1048099391384237,0.2304015497659283
-0.2260691817776553,-0.2799862127610708,0.1885768418588315
-0.232237507065747,0.2701572806507025,-0.184027415752346
0.2575556853601773,0.2803233172466008,0.2153539908534508
0.15671982284004,0.2183612232317005,-0.150217458823621
-0.1557823201893441,0.075968609255333,0.2884783533244087
0.1722194923875359,-0.2194908493814554,0.1072254119363285
0.0952897979330416,-0.2109982747439292,-0.1374728346281196
-0.0292870227326816,-0.0151418556837485,0.2067503584951014
-0.2643169397666329,0.0996214329270401,-0.1409144312561546
-0.1367639617813321,0.1528900473918911,0.0905093819425424
0.0629074305244611,-0.2974636945812832,0.1634446972755532
-0.255506874795875,0.2866315846568145,-0.2283091328591643
0.1162355853664378,-0.0632013155047148,0.0074377782252695
-0.2801533938887952,0.1747963093221889,-0.1105170898863887
-0.2646246720564042,0.2362544430668162,0.0294631952712546
0.1886182846588638,-0.1837955298613651,0.0569956980065903
-0.0047448833668286,-0.0622462031238516,-0.0353809733790013
0.0699302690721126,-0.0948795153428095,0.0426139767544482
-0.2246915863690446,-0.2231273551303139,0.0646870360459572
-0.1625697600981949,-0.2936279513941436,0.1565720987553466
0.2694126640425772,-0.0809008835081905,-0.1185086496184955
-0.073553081155949,-0.1934753705383674,0.0924473016991626
0.1206542805937615,0.0961088528115566,0.1015224537524225
