-0.06798259331444297,-0.010738236163154544,-0.046871298481914514,0.007128780120618683,0.033685970739168514,0.0782099945427773,0.02132755310033696,0.012531551484842682,-0.06871636786391014,0.06686657607889687,-0.04216945841038469,0.02464535517623942,0.08925031778378945,-0.01689795520398199,0.0019214093087822903,-0.08085839877661388,-0.03170563382156735,-0.003575125835461379,0.023595303302132886,-0.07513722850126398,-0.03557342196344353,0.08809770429308489,0.06032274384752337,-0.04680904209506616,-0.043408927368258056,0.07115448730691315,0.08046288833350182,0.0527665197718758,0.09852715409534846,-0.07158404432953623,-0.06620514263748883,-0.03725503037158773,0.05239691731375737,0.046240769218167194,-0.09465121905011331,0.07553619757597546,-0.07765521328767766,0.09154323162340902,0.02816959947918954,-0.0038163744947603134,-0.03898588740498208,0.09357015627217591,-0.056010325292727786,-0.06614124263873233,-0.044637258505797056,-0.035974072095279905,-0.033763334372912054,0.09473227717853627,-0.06355854750828002,0.07790954519172907,0.054700529941831416,0.07905794171606736,0.05815852200425109,0.05207280354353838,-0.07670033904757843,-0.09536273901521736,0.09101211387368888,0.0412146797098108,0.06366581832778759,-0.04639398734924356,-0.03881552701231503,-0.054798317396864894,-0.032090244827303535,0.07017842734356003,-0.08714706820666669,-0.025278204872874785,-0.01848820737161734,-0.054732803424308266,-0.015824267358701058,-0.08398303821778211,0.03698283183832249,-0.027542900575020388,0.06134173612602886,0.01992552052093806,0.0274679737359311,0.04965124148262015,-0.023942917497780547,-0.05903750423923065,0.05145317283144954,-0.08438430379834164,-0.0012445184432626766,0.009328334354023401,0.07735769565137385,0.09167839367503008,-0.05522479779161456,-0.019526048605744556,0.0681295685360088,-0.08797872401532657,-0.08833923185914999,0.0363629597013026,0.02666458772572436,-0.09902765594339498,-0.04234532824748208,-0.042077368721166034,0.06995730592183033,0.025961874505329635,-0.040305527235263906,0.04354115278100229,-0.04546110120477179,-0.06936785885977113
0.08945635274017968,-0.08728369169039939,0.014920218010635922,-0.08076751352313516,-0.004100436754701259,0.07092841884357864,0.030514976110985248,0.033458376217730734,0.0629153170847361,0.026885442179328006,0.012726376635552067,0.038274739333521685,-0.05022805191047271,-0.0529924099401643,0.09166934305893312,-0.08451235543348457,0.0990427293872155,0.04356168899687202,0.09597384227485012,0.06655844403314082,-0.09663615334502323,-0.06990460142357922,0.08657237889442765,-0.07351919276449743,-0.007542400731664095,0.0619787499483119,-0.010028639571167217,0.04095860378055555,0.07445119040176867,-0.052166762989994724,0.025415099716429967,0.0012122544794931356,0.09721260202741627,-0.05187566599831755,0.0993538076932299,-0.08053406754740931,0.0402495220342271,0.08337634560520502,-0.051623393366089676,-0.007928661454452327,-0.07904264115303652,0.0729600807975764,0.015172751143452623,0.09616162157133185,-0.06662982740307957,-0.09111596476774611,-0.04919412666647274,0.04446999409320809,-0.05797870627857922,0.08214093368764638,0.09015522922388933,-0.047788425693552954,0.007252513408012029,-0.0697234701442746,0.011855016538177582,0.07426793551202096,0.001993017002272765,-0.0042583508392568525,0.09257900084729784,-0.025098558658393375,0.06741586877828604,0.02383762050012446,-0.01711808557656705,0.006285896989390222,-0.049007983336105926,-0.039077262701447735,-0.01438133060334816,-0.05497482280590971,-0.0601496195951399,-0.0845687501885814,0.059366776811943384,0.09960210423282476,0.024624903718783966,0.06399754154089651,-0.06544585708298045,0.05810729758263031,-0.05219261738933761,-0.02986511482982608,-0.055659609878518125,-0.09785419763513686,0.03606431528933027,-0.04893527497534338,-0.018823198618683798,0.07061476236474293,-0.06947603873793591,0.03324301039659769,-0.0003440839358255926,-0.016543303579067442,0.012657446577178683,-0.08859073247695488,0.03242410193690706,-0.07956990098675615,0.04965111101758746,0.0194359203900637,0.05489701097217617,0.00861216981372781,-0.023921880129029877,-0.008184868247434224,0.044845498026422126,0.03936139726243554
0.045670019151249464,0.02613964065137897,-0.03594213590422446,-0.08523062186203384,-0.05637886461849487,-0.06653823200234332,0.060021556226406036,0.004480697101718639,0.06152314825452676,-0.06464704744514113,-0.014719378835791413,-0.08517950542906899,0.024407938909085256,-0.010113428404715186,0.03386138938260838,0.08759336401565351,-0.09620157152364642,-0.09304263583206294,0.061035607136473324,-0.05501075336656705,0.07864711749367667,0.08451534878773154,0.08136254153304434,0.050118194949792555,-0.08461811360510424,0.009200626768266343,-0.057274405083910775,-0.07222197210429526,-0.004928974192894689,-0.010644453353101754,-0.0690748183133173,0.017158149584862364,-0.0658456997059427,0.04025821980728711,-0.07614022618014647,0.05310671962244262,-0.08275130455167044,-0.06757435883326379,-0.03552066061653246,0.06294237491475177,0.024562918286893096,-0.033083221501848906,0.09782190449456651,0.07259888060837913,0.08571988595128288,-0.04161125206454874,0.024630844922462702,0.022300216147693813,-0.07543370250014017,0.09959638437192883,0.08469546002584652,0.021745334671855132,0.026218633718437745,-0.06264441891125294,0.09524200283746848,-0.04396702683417793,0.05636022250422126,-0.08866879128207934,0.04205438961143945,0.09684192948173587,0.011541369992779951,-0.016260294030027336,0.009456953421193265,0.03430070144002473,0.011628306876694028,0.04331066077560469,0.0681678230151255,0.06744328929324175,0.0303587326262941,-0.06897325270425331,-0.09489274204645592,-0.01056446107835847,0.01991626533408826,0.07607956957264969,0.055258853966545673,0.06135249817105001,-0.006418232424992482,-0.061844457679120814,-0.0014718139462404911,-0.026381046691567156,-0.007807441032858423,0.0716846519619189,0.03865472255796509,0.014402312895914454,0.04344973580496511,0.009505431767127898,-0.01571701657076166,0.05240790390004296,0.0219479202880795,-0.08358730114575262,-0.08583351915712911,-0.02242431854903744,0.05168052639732901,0.06069855734845525,-0.012582150595950428,-0.04308969199704898,0.07449864851104379,-0.021958990542189055,-0.0014443701745122245,-0.0031061571369713353
0.017594173064720862,-0.10342638277609338,-0.07415564199438188,-0.0020408177068740796,0.012848417526652858,0.026399233360598497,0.0954773375275595,0.007255500483933661,0.042716352055752776,0.10101775729930565,-0.09583599918992006,-0.03005894683202488,0.020137763501106503,-0.07251434966349694,-0.05258807821908371,0.00987583285998195,0.050175499574826775,-0.03913462522614068,-0.04791325486884141,-0.10182055761955335,-0.03322710577480878,-0.06572503390557238,0.013705919647713106,0.08337640366882561,0.033282189670211786,-0.020277056475327213,-0.02660024504071038,0.007032239484844921,-0.04895670616129098,0.08381860083294061,0.026073998779406492,-0.002095409352846703,0.011802943255875682,-0.011356467388674227,-0.048246337086485104,-0.02479440668320865,0.05352120199785113,-0.01771866572253342,-0.07143764832061328,0.04925690923833873,0.04725549524059449,0.009725345423427964,0.05145939759379534,0.01355373740313101,0.03281797813743067,-0.0392763236104587,-0.04096087928122853,0.049425336470372686,-0.05485332938463449,0.009012121957608704,0.025387846809258572,0.013807140432381548,-0.015957243202993857,0.03709733443345893,0.056404029445923605,-0.027773736947877114,0.0354847703999665,0.06036027082141518,-0.04458876553726813,0.05629837923745955,0.07576573259406502,-0.08515584922111126,-0.036628882519157115,-0.03843918791161061,-0.07455532575944462,0.08846226509452848,-0.06048390630334566,-0.06656908505780673,-0.072945495471086,-0.06037691261100859,-0.04268963284177484,-0.0344611643629821,-0.03032885558046824,-0.044997989175040685,-0.03472142335857591,-0.10185162320630892,-0.029918235696194916,0.08900670211800442,-0.0974738337929011,0.07938541155014342,-0.047068151491721104,0.03623002578177698,0.05057699003278514,-0.03380136025177374,0.018727318267503543,0.03802198603333371,0.07950747240339122,0.03988808911970047,0.0176391563759366,-0.09611642000094782,0.09299122137648158,-0.033005274257699634,0.05079712620054104,0.06983883508590501,-0.005316107999605252,-0.028537238647322494,0.020661536092985922,0.10647878532100455,-0.03300914475138588,-0.03351732158109649
0.05987673844140104,0.012154643265420567,-0.07553296148438936,0.013225300927802233,-0.007766722332125678,-0.08801026407821477,0.02699312466437906,0.07734266464953213,-0.007892296384825179,0.0782478646849861,-0.005865653910043206,0.046057897104175016,-0.060981314898409744,0.08305194113650807,-0.0005572125935242589,0.01557749770558517,0.014914081817389485,0.08925799266164511,0.0231979602885726,0.05762073826245284,-0.03330178798981363,0.04883628123157016,0.09993609314939822,0.07866488726430895,0.007613904862631429,0.07166572605139049,0.03759695292296056,-0.0059009149634045716,-0.08770742012168822,-0.0737597911196059,0.04611304401886243,0.062153887554445786,0.024207946113498996,-0.026417786960884995,-0.08393232101134535,-0.033162735980563185,0.08334183529444833,-0.061195181547770774,0.07813060584059384,0.0035090863432129665,-0.08765012060855781,0.0008648372896317424,0.03452786895983023,0.05661096736810192,-0.06374867627552713,0.08301825209437719,0.07061139300220243,-0.09976368432244674,-0.0914045732819559,-0.0519470931685349,0.03452269416205289,0.07949238622388163,0.024690683592003923,0.05085066969352267,-0.09267623007894388,0.09429512754016983,0.09673724354614133,-0.010103404492748075,0.00548564276969199,-0.06143288472290909,0.07089399024967524,-0.05291757827545329,-0.017534242119870466,0.08216682608963907,0.01944118821324796,-0.08799803320201145,-0.04300428561353913,0.057647227293676134,-0.03217092895327903,-0.05175401464069323,-0.012257115911428487,0.005228471326222464,-0.04631791099910024,0.023833388980953468,0.012660144415749877,-0.003981497780443169,0.026923410062057757,0.03099223473961485,0.007370021256046494,0.003657633019468934,-0.03334542623419466,0.03700858152936673,0.026865837674228288,-0.055560382550143554,-0.0264511520975607,-0.005242177988125721,0.07867977589135661,0.019192007824954782,-0.06754621522939915,-0.017150761268435927,0.021952901160375557,0.005596433624533395,-0.055987527622717664,-0.001183061399692792,-0.08029449735327437,-0.04295376804296152,-0.07064497960173406,-0.03855539165697992,0.09992598493394395,0.03614439649398629
-0.07109988667974776,-0.05208768265156087,0.09701282201411397,-0.08525866114764873,0.023887341984539335,0.07522922265479358,0.0917066651169306,-0.08550934553597135,0.11086325361703966,0.06866491872804335,-0.02976286730708811,0.01334688859092305,-0.08073455095304224,-0.06620385038982059,-0.09114036583601665,-0.003733950711253959,-0.08434066303806359,-0.0073020943482392546,-0.047225453225652005,-0.039145345449089465,0.09813229335564938,0.07425858704461273,-0.06559726242691867,-0.020118097370854706,-0.07655634779258627,0.03548291041883387,0.02022300808249497,0.042614186201585136,-0.006314065013924027,-0.01973159932674711,0.05678495673810188,0.09491152035445871,0.0438079856409305,-0.09348269676582839,0.03932036744292942,-0.07626256530671219,0.1038150658199741,-0.006779305639226011,-0.04238434892358938,-0.05194979621068506,-0.04138993093577179,-0.08784674931973876,-0.0910619642835451,-0.08724025381445105,0.05868028298202416,0.0342277893092622,0.031777537719354404,-0.04837662402001494,0.06565247959607177,-0.09116026328525309,0.003004356303319411,-0.02407568816022672,0.07118671895048326,-0.008979716538343677,-0.052150101691571304,0.00818684480812195,0.03418247920720439,0.01636922602660369,-0.017385828382237928,-0.02872095065928263,-0.020752627736992983,0.05633453645702273,-0.10228751912115056,0.02213375706682013,-0.0828112420899508,-0.059716842320858526,0.02382786241209404,-0.057006370530158806,-0.08777642249474524,-0.02656441834887526,-0.005323988751882009,0.04894532836610496,0.02311600747597485,-0.07651339833456786,-2.2806201707669676e-05,-0.06982269066731912,0.04316089088900583,0.08677408395597719,-0.10350240013157633,-0.018488666708453852,-0.023590562264195432,0.08549581268160447,-0.029871480278161684,-0.03446784790804205,-0.03351163406367412,0.036364129724023295,-0.0988836508559257,-0.009622936767484705,0.10518374208547066,-0.08478516181961904,0.03301073314290151,-0.08534934131186983,-0.03785849104103139,-0.038227617790615696,0.04367141157363887,-0.02694214450290722,0.06522402606265695,0.035779941026154415,0.01402146849514951,0.08566710925463869
0.07730249353381498,0.05367136218210848,-0.02616810093472024,-0.024487524851988112,0.08436170478111794,-0.021361436171302855,-0.009149289636661945,-0.01833105239426376,0.08650858899035462,-0.012791538474559718,0.06195167786019654,0.03395466585946778,-0.061843335719703914,-0.03848800746929013,0.0005521132935970002,0.014317484170926112,-0.027858368138901784,0.040207586513043674,-0.0764476638353747,-0.10817746042786058,0.09918578829097238,0.07187754873852474,0.017192282523413992,0.05567209797230788,0.07799927467755116,-0.024606571670397374,0.08239007505620452,0.05872917143841044,-0.056432532945143665,-0.08777478016294873,-0.10433583955790979,-0.053125866489017085,0.049766960909823285,-0.04751245076645191,0.03621643543191204,-0.026163822264908685,0.01973399930524219,0.03961492817775326,-0.04474627041430609,0.039530937964853276,-0.028861193008913353,0.06323200823387785,0.03700413807191722,0.009539840249783977,-0.050501645865702195,-0.04472665862564322,-0.020648457196477003,0.07109696099167936,-0.08321844323783707,0.04213315195841072,4.312365611416933e-05,-0.07869899942103822,0.08597222302151468,0.06646674033060034,-0.06229099982693603,-0.009364795800916537,0.03238108508060228,0.012209999805110961,0.07298312521949724,0.010309018829596749,-0.07061237354950167,-0.020620039422050984,-0.09643881998154183,-0.05428669460754375,-0.06799956353116335,-0.08467385080460527,0.03471629086540232,-0.08199459345773222,-0.030111940684044488,0.08922210805943051,0.03031254763409749,0.017406480314285162,-0.10609830752630638,0.04872538345554662,-0.038411204787348684,-0.0058377663302141706,-0.04401464515618167,0.000388967949478704,-0.014168171057828874,0.028453945817653353,-0.05720261977191219,-0.06280867334679252,0.0073892666026528515,0.029006306325406617,-0.0060611092682309065,0.008097942860878475,-0.08804998191870375,-0.07040015092970192,0.03786591886596961,0.06527975971744356,0.08321735320047191,-0.04542533725011547,0.02100987077933604,0.08354724073293417,0.09974223417286054,-0.0011638036612212684,0.08616008377028633,-0.005424780787202357,-0.05262369918765438,0.03904198557526989
0.06643172152508955,-0.08490490743729671,-0.0263353515063824,-0.03209234883371122,-0.0653404044013199,-0.06110908462423295,-0.09238210512129907,-0.09501352700321374,0.07344530813029046,0.04410276763932813,0.03274184674125302,-0.05624877271141304,0.09858949975303541,0.07970679010734066,-0.09190725979556386,-0.002008412272390278,0.08692091492440146,-0.01605059652950054,-0.016601146962846605,0.03472752871569271,-0.05124468337023907,-0.07943236756703556,0.0082862013915624,0.0183867555191312,0.05224515466475224,0.019274790156479704,-0.0021387235824918277,-0.07474546331139925,-0.07314626127626944,0.05602672291619534,0.04868089315124069,0.07937198206305168,-0.0010682349617228554,-0.002320101861860019,-0.06519284476366001,-0.06986817870362523,0.07214903457313324,0.09064175442616329,-0.0017100245131093372,-0.06640874695338,-0.08216396495291406,-0.09870524018828025,-0.09338249868893506,-0.03582566710567468,-0.004519643642705448,0.09986630529959833,-0.09240610519781736,-0.0012796928396745233,0.005446702529625508,0.05207563434306242,0.08999220690955817,-0.003519399414678409,0.03780273695608616,0.016755781153598145,0.013891708674921288,-0.03211913186029869,-0.0025914397223680136,-0.03183590942390693,-0.09934552610985813,0.07263196780354206,-0.02440767904954308,-0.09477575371070829,0.05597053494994128,-0.05190572641839056,0.051222243320101724,-0.048415939899341544,-0.05696719865021796,0.04990991161102104,-0.08391786551167575,-0.062405832095069474,0.09685924016221456,0.08772263528086446,-0.03325134634589742,0.08754360237966016,-0.0435082869816841,-0.08040771319638942,-0.025323973897003832,0.01729121159114229,0.008933481598088044,-0.0987878965599966,0.058215929251705156,-0.008930989792854754,0.024566570295294743,0.003548291147280974,0.056848433344612925,0.037190149605350276,-0.03902543720638361,-0.030037611258364114,0.056347464042926204,0.09116101051616585,-0.06859013573073143,0.09790665635699036,-0.022899188226558745,0.0022410653718931417,-0.08243830924681286,0.09955539803763089,-0.05178785589471564,-0.06766738057728586,0.012157188814909792,0.028851667877138443
0.007398685097575644,0.01136425908719016,0.08793685607045901,0.041075779236197124,0.09774573643251147,0.07319780436578632,0.0701498579532785,0.0021934991967916123,-0.015746622532835014,0.060307697215415484,-0.07433983542323777,0.019391507487698217,-0.08481388676102997,-0.012059048028484703,-0.009917849824212024,0.09467592844134662,0.010874762904468399,-0.07370455785179707,-0.04502012338096406,0.002937906761743367,0.0023058361097114677,-0.01591155489857818,0.03146438697909629,0.004489498267971667,-0.07281037825067574,0.017485004969223006,0.08461543706116703,0.06530414484776464,0.008135690754720051,0.07817713033074691,0.014905534919283259,-0.09262552156039716,-0.03652522399354817,-0.09461602332435211,0.04435506070938697,0.05840702784965021,-0.0771664087308442,-0.08880599382407439,0.05047958780113049,0.024639026314802664,0.07132950000154603,0.05376125420093916,-0.01709221995459871,0.05212701468658751,-0.08657593564245628,0.03156093188777381,0.0014729309269390367,-0.08030666994366552,-0.08819862875072274,0.051084723319658076,0.06416864968992061,0.09168023677393786,-0.033939271921101244,0.031777562864437,-0.026297429083065274,-0.009501767234406391,0.07130717163686043,0.07055865708673259,-0.05494905720050776,0.08638243057315262,0.05339963398229369,-0.041065672807491654,0.07168389150307045,-0.006981028708411038,-0.037539335574995426,0.04817295658740567,-0.011958855314346512,-0.08635769840067853,0.05602970623266093,0.06843683794644495,0.035975066515535475,0.009514705215844826,-0.09738772998156094,-0.03621603050163025,-0.09747090882584826,-0.004217639049195032,-0.09284581435111855,-0.06246326424300874,-0.03662112703029463,-0.033808539075913774,0.015264558162302183,-0.02455071280271101,0.0701322407875245,-0.046758746717744964,0.03590630704443351,0.09752676446804034,-0.07231349820623899,0.09429601120968181,-0.08311312558056974,-0.02593331741190477,-0.09021547943996094,-0.0959542524233707,-0.012708409510316349,0.022828775707871646,0.02378824714208616,-0.03517520352636001,0.00487196819365017,0.06412014932181895,0.04517602443280064,0.055333054526974096
0.06545729035028339,0.03134079422619268,0.09407636356600843,-0.08822222635843951,0.018069868452698507,-0.06743387369189031,0.04893882281023443,0.016591148281056012,-0.0481385396047429,0.06405554715384262,0.016158067303609913,-0.019328792194436215,0.06664849695378913,-0.08232956212331409,-0.06620958394242418,-0.035685810820266214,-0.07382311424730409,-0.015289099458427852,-0.06466852613328655,-0.04413839101136492,0.05392934003685587,0.06227434264819948,0.0923837602821285,-0.02344213688555316,-0.011932417681594212,0.059910988089597966,0.09009619575831951,0.07034697152115807,-0.024798584698092332,0.043191080000246934,0.09616145111361105,0.052703830041281846,-0.08148616332991086,-0.08382638281914503,0.02882458249748812,0.09003793675913105,0.010484165603063783,-0.00012442871005527434,-0.012056823432546465,-0.06379289088032464,-0.07279274317104477,-0.0508404208874941,0.009387776471747114,-0.05841486900617743,-0.09826931020135504,-0.018410433971040543,-0.013726118439707835,-0.056082169079984825,-0.05880013598939742,-0.08686615890761958,0.052581816562260325,-0.08907029446468107,-0.06962155822231866,-0.05059560641872512,0.08553423013221814,-0.09779984767819579,0.09123789458418388,0.07758039492614582,0.021391569117238163,-0.08062492414093292,0.03994364125548841,-0.04471910387154159,0.05264194962997168,-0.09566226903512164,-0.082196441399385,0.09059944149080976,0.07283813417494564,0.03191432910918074,0.007782589138167123,-0.06217557118227506,-0.09486464300001687,0.05631786555279136,-0.0803197529437091,0.049544591439056956,0.05865180271306766,0.04468825281702776,-0.0024268570325374217,0.061620681899451885,0.04968058502502093,0.09000075364096202,-0.015230490317853507,0.0861759075595867,-0.014960899849082068,0.03018507398665088,-0.050131542543718925,-0.014719091625733843,-0.03222052097592017,-0.04565188090361856,-0.09264599645535794,0.03504394915464659,0.0008417222846434924,0.032076894503386716,0.014710269753158284,-0.031260462135992304,0.05685063008075017,0.07581250764278619,0.08422317249797051,-0.06721302689688802,-0.08955712878260752,0.07377177495936202
0.0651857015907199,0.040581736820769765,-0.0009286756528521789,-0.08424165984602827,0.08122457619855089,-0.0401580037349073,-0.03514654373699695,-0.0951478169962003,-0.0004140670085650139,-0.09826654444335903,0.036150884392805394,0.05921533374337004,0.01171437492180935,0.04948697361529525,0.008882481107646695,0.03141876761204959,-0.043276398128307,-0.05675638107053871,-0.02969437635352999,0.0676000875395753,-0.04104988778582304,-0.08361574328031934,-0.06239247613215158,0.04782569805424569,-0.05556119974840195,-0.03036234311074662,-0.07470361001577858,0.0826236986962563,0.08970328775888178,-0.06243206257989471,-0.020070199600068908,-0.026904849241458625,0.03094142554838522,-0.018482587430657033,-0.096035934177896,-0.0718006200247823,0.06697149488733464,-0.042312313458207455,-0.09568301017827224,0.09671044106052878,-0.019722075956692106,0.04644964014993905,0.0914809356132038,0.03817450599973998,0.009492902720786359,0.08936960638232988,0.09455872881661612,-0.041869987655987706,0.012871219122642552,0.07222570041235432,0.024019723076787305,0.009045689223550354,0.018234845615105244,-0.06252368253942006,-0.0506535495255456,-0.017750953162327512,0.09847515224173381,0.05497251465512934,-0.023210944180274612,0.08660227921334471,-0.08331806757844412,0.07902508337980088,0.03864118962313767,-0.09508913588092407,0.033057794832295595,-0.09666257291443299,0.0016317091436256065,-0.05383194807484526,0.026880369761913242,-0.003551935195505007,0.032453780877051364,0.027281206368939687,0.015929485447963132,-0.017840422513856133,-0.02132024286179454,-0.004205520100312304,-0.06545441092278034,0.041214591354098384,0.05108925186540919,-0.09267298839187127,0.06180131927921234,-0.051891654184414264,-0.09634091773630155,0.03284309728672527,0.0008395223016051945,-0.07786917825411531,-0.08026847731867133,-0.04148692649448649,0.040125452994871635,-0.0733503400560565,-0.0666532805530915,0.062007811013252895,0.039961307511145266,0.026577210345897856,0.053077329603044815,-0.07071441794852287,-0.017166917623127012,-0.013181326126692247,-0.04597652227320042,0.05587648657844016
-0.08788516282877519,-0.014439665602114363,-0.013999621667289922,0.008999254397370565,-0.05891218738352069,0.09869331109025484,-0.09383796616923153,-0.01574466794602017,0.039845362053500394,0.04142645294308345,0.050634052850856426,0.05318324390422641,-0.08478111314051928,0.058214127378192954,0.03047653482677326,-0.08179261372041327,-0.03848905620683399,-0.09473426420581732,0.08667281480151454,-0.0726701344210272,0.035115138461978224,0.02494462575649163,-0.07478660817488066,0.06378518318348841,-0.010950476864241443,-0.002795217858910709,0.08148971230101673,0.012213492729139228,-0.0835995958764942,0.008560567993216361,0.08997999341758867,0.07985270974568301,0.04036785996120368,0.09823419688359031,-0.056884623647970006,-0.049701696829141676,0.013680166278839542,-0.09859602571429969,-0.003059130323263576,-0.06162081783478699,0.043742065749262704,-0.05828446853258798,0.0273002932894382,-0.02094178853977005,-0.010660644034404879,0.050931601886438777,-0.0010408841403647812,0.0668852234729854,-0.07779814056072086,-0.07632964868625401,0.08589630076660501,0.07679789814007737,-0.0851093160333317,0.09431876482567195,-0.011208555103503687,0.09110990301342423,-0.0034303694949318897,0.06036576948781891,0.0535429988486574,-0.004701511042142309,-0.01634276770295788,-0.04867199618501814,-0.0862797420950031,0.03624052971532096,-0.015327861391485204,-0.02956272914287819,0.0684739090196981,0.05875883075695287,-0.03159945999542191,0.054599062198402104,0.07953321330306837,-0.07537238801046382,0.023177961920743978,-0.03814347303575463,-0.03752247633573183,0.07932819344082515,0.09295666270827607,-0.06825180860805899,-0.03932270091065518,-0.013644861139621711,-0.016511740937570088,-0.02825529641202265,0.08634029563309462,0.07446359341520661,-0.06950770366787251,0.06763731272530468,-0.09190134255746052,-0.05800082335042296,0.053200837103676374,0.08517718581044023,-0.0895474262236026,0.05059976726680035,-0.0858870661624742,-0.04921012377209553,-0.061144271898288506,0.014139758961024457,0.01393920881467256,0.059718347650024484,-0.09322007873646015,-0.044747244072457226
-0.06729298608821613,-0.04605166353953001,0.01538523620564261,0.030341623372369148,0.001226831293467942,-0.006294345597270781,0.015024116460172904,0.05999906351542192,-0.01761443175052349,0.012463520425797597,-0.008709820767090926,-0.003296815204303319,0.03497326967853104,0.02912129295175911,0.06588316755492632,-0.03169914361266142,-0.05108997052178288,0.08985880093905099,0.07940849901437683,0.03410269035487187,0.019979906045110504,0.06629926299945946,0.044648945970936105,0.0949691018551102,-0.09900366768381277,-0.0484486920857429,-0.06305801437940534,0.06313607839805152,-0.04350038614682366,0.0679935396465669,0.0860763002224513,0.05738061027201352,0.037954618408435725,0.08889902067224933,-0.05728353007367737,0.0862778268109623,-0.05918168153327692,-0.04677544137011831,-0.0514329771080102,0.08015812161397631,0.05706881684759585,0.030487553161592018,0.08583277504359721,0.05900074373287542,0.055704766948952156,-0.06555782413051867,-0.02627531078403547,0.0764571669227864,0.07841521332426268,0.018327293308015774,-0.0400443104400136,-0.06137850918589632,0.08381991424274057,0.024384980168666998,-0.03002041274621743,0.07148876962720249,-0.030051014515872665,-0.023659620645376855,-0.007034742207976771,0.0913778095718484,0.018736920818854252,-0.0030848986833920816,0.051857432743155824,0.06700412675959502,-0.01112480619779406,0.08567330864088368,0.04524096420268936,-0.07929264797443186,-0.0415010275455705,-0.055378109342854455,-0.06124338969785559,-0.04378012964818528,0.055821094022084766,0.043022726331218675,0.002563953529934243,0.027656286575469535,0.029593550919755213,0.005678401243665546,0.05941968241601228,-0.05570511828743037,-0.015952836426588332,-0.035879152501121905,-0.013260308632178391,-0.003435500435897798,0.004919571816837248,-0.05189852128876833,0.04925850849677629,0.07202775194738384,0.093196102871942,-0.09043887740991874,0.07499801057907593,-0.09076570911683875,-0.03538609990867132,0.022901230600243766,0.016160683680533056,-0.07313140420911493,-0.08926881211674283,0.006958515431875714,0.056105116985135706,0.0760213783676584
0.07098276744807208,-0.023211633354362646,-0.002813892785037367,-0.03695579130983298,0.040030322165091115,0.04450272483500567,-0.09397862185569944,-0.05202099005688204,-0.013004340562258673,-0.0021782971733161904,0.01796286825871643,0.05776821298856427,-0.013638990134040754,0.0522130487441371,0.06916262922425553,-0.08783601126855206,-0.004140711469029612,0.05451787227901292,0.0812725200380576,-0.046680807090407894,-0.09955606761317155,0.08800957495247713,-0.03883270232281251,-0.027725520375856405,0.014937159219405999,0.04202611371759893,-0.03598687159954671,0.07333874357255135,-0.06790223429704596,0.0738973336586771,-0.08272510602605515,0.001832575922858265,-0.04217210358805499,-0.011047882667208991,0.0684506533623497,-0.08836577218108839,0.08775956475564892,-0.008978219855360695,-0.05986005600074629,-0.0832848677766537,0.07235620131871645,-0.05126130572526564,0.017284319119581434,-0.05872363230560776,-0.015106857398125256,-0.09635434448129415,-0.03510740291168746,-0.037737975726880625,-0.0914699821346276,0.06618141299313848,0.04032326083421972,-0.01777747386268584,-0.01039075515585533,-0.03240276100922866,-0.024884633603419054,0.016729295669451805,0.08145088970116587,-0.08711175715071462,-0.09173989321479602,0.010151681329146608,-0.07131845695988946,0.006080979052374674,0.09129870731896755,0.010621257318646452,-0.08621796470166294,0.0410216952615956,-0.06449998936370678,0.008847605460291022,0.05114409490421651,-0.06499974204518728,-0.05336866810289729,-0.08271541681026869,0.024244733959682935,-0.03491488691748253,0.009658166856899644,-0.0684996372314455,0.09457177804101419,-0.005567696945226741,0.012085444673570048,0.05614682519261038,0.02195665454081111,-0.0704767730761641,-0.09425473356017773,-0.00782277484812513,-0.03481379911822749,-0.011977089244054023,-0.02985201878159867,-0.03466296616405587,0.00882587373156711,0.06875839927479444,0.03220861399923172,0.041371334953752614,0.0910491692688101,-0.007432277069566659,-0.08321830995555331,-0.01129867372609468,-0.04981723213860341,0.07387902454840539,-0.028508266667220422,-0.02482458193331305
-0.0046840848876175956,-0.020372999498172548,-0.07999659108102075,0.06953663749125755,0.00720981893371575,0.08091037974741541,-0.0036098134441500396,-0.09901613681420492,-0.02259427136913758,-0.033711660433497714,0.05877044679639176,0.04608838534236129,0.07746685780201193,-0.023048051739498754,-0.042449924833720856,0.06170964465988574,0.07031733610160704,0.095348672650444,0.06708328856174442,0.07658819359574151,-0.075858543346661,-0.07759596001072543,-0.023302795824900885,-0.00932404089425612,-0.019017530480020778,-0.029594474901104298,-0.08097062874123027,0.08156925317823344,0.07245557026200031,0.07395347666722268,-0.05601343162997263,-0.0419382880304521,0.030074043769742598,0.01079571275732509,0.09353098341713684,0.06740336858647736,0.045046592027876364,-0.06428304453069829,-0.08511523937537722,-0.014153635342202181,0.07654385256671314,-0.07719858041838319,0.07019301986329343,-0.0489245450186242,0.05890338229878367,-0.07974049570421105,-0.03264778762814857,0.06834183209331907,0.0565490239571515,0.05080333000403353,0.06698033626474537,-0.054734699204388476,-0.0261955122326053,-0.039733497064354584,-0.029865063937553837,0.050501679906661046,-0.029229132741766403,0.006068191608322573,-0.00962841912052996,-0.053769571281553,-0.008185388780822672,0.045187099912118944,0.05126250489610787,0.04796726499574147,0.09046089554004105,-0.044518601986727795,-0.016207399510261664,-0.0029111599429302998,0.020140983448700217,0.07930247067367843,0.011370292260188125,-0.0924996471425028,0.029243218847717828,0.08996836594563845,0.009364629786885653,0.07721447291263087,-0.08572712836621688,0.07871556314129877,-0.005163186831494082,0.08022735937310596,-0.013090569807051325,0.06714571722117199,-0.08375193883014485,0.09652064331931151,-0.07445579874302809,0.05496424502958708,0.0996664945591858,-0.054865148481085126,-0.0823982658009535,0.09583945330090565,-0.011699308331018649,0.050612724204925325,0.06435380271243793,-0.04976456416372295,0.018410364878520324,0.03168848120856832,-0.0526425016953934,0.018321267030662253,0.07087629927860004,-0.06796793723187258
-0.047836193564186495,0.04209450503224915,0.09569035004543325,-0.01322667878792938,0.048550355470329126,0.0710314586539644,0.047922253471394394,0.0865563556381797,0.09131567750042144,-0.0967459355872675,0.017169518548914645,0.02679532629370643,0.06458913901365082,0.032159568548077555,0.0739149957376227,-0.07984855266785605,-0.020986683570112533,0.05701181973609301,0.06988142229333269,0.09284901933604314,0.0880264108765782,-0.027599407569443,-0.0671381040667767,0.07312201994535691,-0.04180397973393897,0.011987819727831805,-0.043659103772024005,0.04793603923919826,0.012225023027207113,0.04605055153957022,0.01861894868700656,0.07162276004082932,-0.0831958655410326,0.07642519124498579,-0.07902654513257586,0.06498876785989968,-0.013997694825933715,0.09682647643886519,0.06321925452001834,-0.028043505403884783,-0.08328775989665677,0.01477642788589846,0.009432632854481815,-0.02775309899749999,-0.00619494288571984,-0.08012512664992857,-0.06418707258987844,0.09858523318032208,0.03718205297805152,-0.06838173072553605,0.045451662272849525,-0.09182701343073035,-0.030748435760147408,0.03756308861873503,0.05257901342998783,0.018840947924654322,0.07338872727392934,-0.0016695780712614183,0.01981083355940086,-0.035202612328288904,-0.03169323280557078,-0.09714020021620061,0.08484867705261032,-0.013590312540324362,-0.0388498770682886,0.05537993418294296,0.027032944597578046,0.07147649319230126,-0.004012656860014327,-0.02478847569491968,-0.07873141946023815,0.04043707484162079,-0.060703381659559,-0.04456382326144979,-0.05157534697252519,-0.022716180350782225,0.08021668986875347,-0.08250064760618417,-0.03358445625291842,-0.08087379480742213,-0.0381349296047927,0.050202521876299394,0.01614371976408406,0.0177853128943493,-0.044469063605417164,0.047356931374121974,0.07981059243150934,0.027434126677092358,0.054554723107241215,0.02006743301108113,0.016489794124857918,0.07459988511830312,0.054055628091321,-0.04605254626479256,0.03532535276678886,0.07811218842764808,0.024667230079274363,0.029140476005248078,0.02352413050649864,-0.01951259121139433
0.05541095939107715,0.009322679691991492,-0.0005406705369455089,-0.049204535928381234,-0.054848867486467716,0.04825995568064828,-0.07447799610039796,0.012415832971425053,-0.06567760681144755,-0.06113972857458416,-0.04643148010983411,-0.029175447250266592,-0.06030271087500383,0.05604263228965062,0.04535790610130058,0.06637348772759696,-0.02482068686053944,0.07592765574071031,-0.05946434655260287,0.022378277840033725,-0.05098363967383701,-0.05351370792322494,0.08249551662099983,-0.021335019278400383,-0.004973968824872596,0.05375943332057234,-0.016365042548838526,-0.0995768729406166,0.03725610601896767,0.0504160603676575,0.07139096780176452,-0.09493972687337889,-0.02568335368299328,-0.06457132849421879,-0.007296689853316857,-0.04845842158444587,0.029723415455645746,0.03452386242232172,-0.004762236142803286,-0.0619812470830899,0.024474067121196,-0.003287689177514125,-0.0319245057310658,-0.023047454764172165,0.008225194201590694,0.026008748706496276,-0.057837005058553916,-0.08631254766061587,-0.0009509038124444757,-0.05922014205151447,-0.03134461472670445,-0.09050782115616945,-0.09609452697105994,-0.05756815274736715,-0.08498587915100703,-0.002537039417879111,0.09549613260166004,-0.027427107437016693,-0.07414810415631697,0.01591534963449477,-0.07205907366755099,0.057449434468562516,0.02626315309932109,-0.04624185351797552,-0.01185957405095979,0.08263049729812161,-0.00500955581036111,0.08055802922141517,-0.09289947755654127,0.05665593928456736,0.0042313331693542705,-0.061464935901356536,0.08477526175171338,0.008220458508548578,0.021709536008753735,-0.05614838198839511,0.07328850493160496,-0.03495385128338323,-0.05824329602750105,-0.09697694252582097,0.04797476056063993,0.08183039950880566,-0.08693714766188164,-0.055583238327654286,-0.023746768845996205,-0.05600649282291899,-0.045352679501775066,0.03656536057137491,-0.05992619844471428,-0.0024080993952740187,0.09074913304648155,-0.031858716275916285,0.004589095332918264,-0.062284250338271945,0.07402044021772103,-0.058816452479895025,0.06035174862123102,0.07449337962982996,-0.0854941946372429,0.0065623617049793
-0.09660649594866744,-0.05758894437450275,0.019240930109886117,0.09627231038934828,0.09934163752497108,-0.052125696402257664,-0.05944653103893907,0.09044350631729356,0.04612873568565687,0.03611197642866237,0.03223903711638626,-0.05557707738794422,-0.032597656897206714,-0.016956750322964537,0.0655170321999845,0.09059729923171198,0.007608034624437113,0.09411590529922004,-0.07172784774661674,0.0516023218578153,0.0852934183187187,-0.0417538144397267,-0.08291422638531193,0.0547296279117776,-0.04771225193665732,-0.09407757576546405,0.08045355446059116,-0.09983852021003446,0.0510527936080358,-0.056832393151566164,0.012119830781386454,0.07136397015893814,0.09577846827997497,-0.025425316499832887,-0.038627150227843826,-0.061591159996126146,0.09219366117880723,-0.04609339913797037,0.09346106567908552,0.031168949404140334,0.02652061511303111,-0.07071773861196495,-0.018097044158364356,0.04974906794903239,-0.05698277199702795,-0.028791300702321526,-0.0038056268327939097,0.014219928169213608,-0.09850424624883132,-0.0244254055057455,-0.08257481946047421,-0.08058472206309447,-0.07449550643388823,-5.058476064509487e-05,-0.08138473095113526,0.06015128281790222,0.0007624529866794572,0.026677893208949255,0.05553947269845533,0.08988467292421007,0.07161714956936199,0.07605900956214892,0.011737311796425495,-0.07413743016524775,-0.06384008736019915,0.03973948541862449,-0.05727127230525997,0.04913336666626919,-0.020891339550398944,0.013961189682682534,-0.08679216600202284,-0.013881449924927194,-0.0938275384340071,0.05389258243968206,0.05921823082008415,0.035529385411827985,-0.01268487566255258,0.0640818423003697,-0.03440043203918479,0.03619556309883015,0.060742989640578476,-0.09761096018601965,0.03774903950203243,0.04325408435653927,-0.08396775614289625,-0.06602311593454893,0.016929625851484872,0.06491360678626765,0.02408539944553753,0.09461325411525581,-0.01605239075171294,-0.09495698354981204,0.011003498609022971,-0.02991325228615878,0.07775217010489208,-0.09328294204882737,0.03985956297237764,0.08930062326619403,0.003213363646625028,0.01763846578354808
0.009620445211959108,0.09261029540202184,0.07347426781598129,-0.08064792649134311,-0.05868411187608327,0.07653581068351853,0.03771872755857514,0.025789467985221637,-0.06351040979589265,0.0434732274496292,0.08970697941592509,0.01020329247883893,0.01974286292083194,0.034920826804252264,0.003577282430699172,-0.04263701477074653,0.02397399873699982,-0.07696272228076365,0.09459064580521595,-0.03178413567511296,-0.09742448267813658,0.05432605637833454,0.057449617647689716,-0.07574438218750873,-0.017101845791096082,-0.04200952499541815,-0.013378661789366753,0.01112220345289898,0.01585776320564307,-0.061534017792943235,0.07448843203915617,-0.007800733128550633,-0.028588968878310236,-0.03971566621247083,0.048518693384934725,0.035537455957894676,0.009250036718885288,-0.017662426579649337,0.04552870233631537,-0.03394630789278362,0.011197489805791522,-0.008172735589477592,-0.09414035858461355,-0.007724459338583081,-0.0039445106648450246,-0.09798492332333744,-0.011674214151555201,0.08171320921625477,-0.0713342938556155,-0.060198917447376515,-0.007843236930029168,-0.02367151960429112,-0.09162268960809905,-0.0265804398445995,-0.0027566492180582935,0.07394927068348936,0.07373528360587958,-0.016238816204718093,0.09212786351368105,0.08916624061847808,-0.04927553762779229,-0.08883577287146278,0.07608901802895665,-0.02884622346416703,-0.0608736227573957,-0.05691791314199575,0.03403322734838865,-0.08919522033774037,-0.04221666398743238,-0.072069552571354,0.025238695382146015,-0.054052621782256276,0.04850420242394787,0.09433782148474465,0.04856991334225971,0.09536310095946801,0.08129078852974106,-0.0066358438292880295,0.061954095025072486,-0.08933393846044275,-0.03523150914909638,-0.059427956713793195,-0.024010092534022393,0.046730195108285605,-0.0373789086048245,0.014616780758315143,-0.04892914152857069,-0.06214365558943882,0.05771442769310281,0.03230008988316818,0.04231419871211936,-0.08263814015981857,-0.024886186973677255,-0.009570867767645458,-0.002307406441048182,-0.07020510936402043,0.039789506714045436,0.07456822691361426,0.017422822817523914,0.09656496028593922
-0.09443835862111834,0.042364456404278716,-0.006734746183572032,-0.09393867424532594,-0.02923778000201338,-0.06390159135994669,-0.017400818067805066,-0.0635493671632899,-0.01649252702897816,-0.08280364276435861,-0.04546682888942608,-0.04082035935082298,-0.0077157893919355125,0.07471770256616347,0.058835960004606364,-0.09980360667907079,-0.02818997062163789,-0.07875919085875334,-0.03611586490402166,-0.03350231220732562,-0.05214951780762798,-0.027186471074554075,0.028434364357950215,0.005815753244577546,-0.05990723901175463,0.05482362341235569,0.00744941104864158,0.03751938211505659,-0.07279005841387892,0.08294455506147366,-0.03548948153731675,0.03877622324394098,-0.029202399740949944,0.027683831321755253,-0.040243651467121215,0.00836944938213817,0.06378611119450173,-0.08999346146070064,0.08800603888286754,-0.08634741768533623,0.09982049536052326,0.07792989772911094,-0.09600782405779851,0.0026566454204173667,0.09903873462590124,-0.0365641623704817,-0.018654338832797324,-0.08431410288910349,-0.06859352415043513,-0.039411005752416434,-0.06417532649910271,0.0306333066112488,0.039907749355509864,0.0945524559022036,0.07426313125153455,-0.05535337479402989,0.023639383972499498,0.057146570155896054,0.024582271745882706,0.062341012843741356,0.0017244453112919694,-0.00847549642281556,0.09579998962035718,-0.06768158811590988,-0.016577528728735996,-0.02115238565399384,-0.06753599372430696,0.0550024452358534,-0.007732961180201864,-0.08764510558564531,-0.06747235300711349,-0.02253602447479927,0.07741178820452313,-0.09345705759361629,-0.04153579583656486,0.030168521030461554,-0.08990215997406244,0.0016371051227926092,-0.07498906896199936,-0.07347369499724954,0.08370983607141877,0.05536352174718148,0.08097354436169946,0.011014885045182929,-0.051678237225630363,0.09006128556981605,-0.06148442069242619,-0.048344759271816896,-0.0930173572467684,0.047056273212564254,0.014700388229882136,0.0018186883962378608,-0.02890822340433412,0.02960701632100357,-0.0672819824597467,0.040356684140263166,0.036728936065394235,0.07941120447628602,-0.01734535879700269,-0.09641548402842964
-0.0316992539602053,-0.018710833313975286,-0.10208015609853022,0.013246045851951502,0.038307244258849266,-0.06403528115730964,0.03463210063808984,-0.09740308106243507,-0.07847482176138745,0.012160392262422999,0.06521367181600035,0.1002493178613865,-0.07225861620131489,-0.050872557808995765,0.05310262245889631,-0.10176538169929458,0.014459289221526884,0.019700569734748437,-0.056160475557223886,-0.01975532743871803,0.0038195272035052167,0.016195358312273412,0.0035381347328992687,0.0038464579642109127,0.06900114133752372,-0.03617315090062517,0.07005977508193599,0.06605953780182099,-0.07397556549442807,-0.09796214719944422,-0.07418336234433061,0.016338234278917337,-0.03192214564367936,0.02530777409180963,0.0485576344194938,-0.04424985938687777,-0.030910956495387547,0.013729849665612689,-0.03760052932738975,0.08130115957388183,-0.07006802101909594,-0.036071526035499735,0.10504251258990006,-0.0022840125173804165,-0.013215566845309314,-0.010390146331356485,-0.0715888993577423,-0.0005814239816645973,-0.012020593719066651,-0.06378053848367062,0.09975590763484016,0.056161094756131014,-0.06555439771257414,0.05510187895777802,-0.07710100189177009,-0.09071458084362663,-0.08690094846859302,-0.030353179079502118,0.026641180101432935,-0.0694023052163691,0.0567783865535864,-0.08145369760079685,0.06826033598967288,-0.08514848305819445,-0.07360747678612709,0.04492917506734539,-0.0714989080189885,-0.08005458018985767,0.0685755939484049,-0.027061672417953833,0.04691923086613218,0.0774040816194252,-0.09534282860862985,-0.03886220067501874,-0.06192132700049306,-0.019027813843648267,-0.0465025989337363,0.016154178387925124,-0.08766884239782896,-0.0026051987549420277,-0.03887436964539147,-0.09353085148546172,-0.043984774519015175,0.03314050853168729,-0.019010120724790306,0.01709997106424389,0.02591018178915688,0.029794045514588453,0.08305235706102662,0.08321800636331836,-0.029895884224518058,0.03478864681991744,0.03865807530327248,-0.05421874443660827,-0.023375219929600153,-0.011152788131600607,-0.10433557982144998,0.040236805126923104,0.10252458749895248,0.06892036071359105
0.02686825648373875,0.035804582999490686,0.009294733190360921,0.04732306836568517,-0.09441674977463169,0.019460446454838132,-0.09677070355199764,-0.07554468676672313,0.040634846848175116,0.07986080473320908,-0.024040094772641643,0.08514165153436415,0.09627171878382174,0.013771371982584685,0.043879266697053165,-0.0038498837400166713,-0.014654704911749222,-0.05480494929027085,0.005870552369264703,-0.07151225710271798,0.048637008089352174,0.08952759504130603,0.08447439311023372,0.0268924954216731,0.02926529022209387,-0.028960168724716434,0.08546613014737844,0.08727398966880331,0.08245725849779934,0.0954287007573835,-0.04496206807676886,0.012225847875793214,-0.03209781707546522,-0.02428100358404109,-0.08842491064008262,0.03731680308454016,0.08044852937591904,0.03985004154828947,-0.006601994268811168,0.009367536530921677,-0.01983815909717264,-0.013668555277845648,0.04156500292167303,-0.024203507439745392,-0.015664181774004943,-0.06724057333646857,0.08136047401042076,-0.022422692985454296,-0.030293922437985413,0.08231650147448746,0.031184005418818495,-0.006007447166922614,-0.03428021095710043,-0.048242213914247926,-0.017509813274250274,-0.00922273230014281,0.062456657251560854,0.07462715734269873,0.09171549862888032,0.05445661148367631,0.01747644512043582,-0.020962494522589054,-0.04977553567649327,-0.05701503318781569,0.021423888641767724,0.09458201798401975,-0.005247413946965415,-0.013483184380900348,-0.0624609463743103,-0.09938212383507555,-0.0334299889861573,-0.0801848214542529,0.09336370631454619,0.05210578444900976,-0.06736097930079224,0.038129883393176495,0.009851207779787458,0.04035536748490215,0.005639253913676964,-0.04786661977794052,0.05109104327514907,0.09363077976423176,0.09787479137761124,-0.07209093747293377,0.024145767396233725,-0.03685307876661133,0.09017260777377534,-0.08786142115611302,0.01867291713574995,0.0658766489104042,-0.09104821501443608,0.09862989077468828,-0.014517619073347213,-0.06963184772729798,-0.09436014680801275,-0.05126967189762615,-0.021439446693234054,-0.07773499381681528,0.021904331672593452,-0.06322807357823404
0.020277653128878775,-0.08994572980796522,0.05929974994673071,0.0074654777555835244,-0.08440370674930459,-0.028814204128962073,-0.0829494737278012,-0.04252933269065065,-0.06248208000507203,0.001530418806628936,-0.014140820802195836,0.046736836577556395,0.03368739393259618,0.030502297617247792,-0.08428854583639966,-0.06407424771746978,0.08562486964734367,-0.0538172743744104,-0.06809848860196684,0.018691319108687224,0.05399324834278271,-0.003210914586896818,-0.08104874495813981,-0.023485613302659192,0.04248387954435953,0.04462458087036464,0.07045831606216621,0.06977209698196482,-0.08551409676918882,-0.05357443403572022,0.010878677196935138,0.03407210757519297,0.09898093069613953,0.06337424168138639,0.015232562213237058,-0.07155048262829006,0.04406906604890501,-0.08995106501630806,0.009916709551752653,0.057458276443545925,0.04624591191054822,-0.05629560101128311,0.0017551034509666052,-0.022050717860698427,0.0032827355007513798,0.08024272380201586,0.042748094028279005,0.006471442251596765,-0.008565519642106681,0.031721556985079835,-0.05126902850180859,-0.019507933208242095,-0.07603784384366781,-0.053488568627008376,0.05423376619587034,0.05756664424976607,-0.07782703633069941,-0.05789254776144226,0.06598848092030449,0.09557243463765538,-0.09564639717483177,0.0953804900976182,-0.0057714509568594224,-0.061043740953931794,0.04430884530170165,-0.020742035893471497,-0.040963224017040493,-0.003496188775003989,0.07321392037064259,-0.050355193869445626,0.08834652434688878,0.08834061541419852,-0.07950911169532837,0.03619920022874837,-0.09975468339122928,-0.0577834164145028,0.06291161173041412,0.03591205975169304,-0.05204791767060042,-0.033031143684914485,-0.0419088850461286,-0.016869080808207787,-0.0726668606048718,0.08570527427239127,-0.01243461581535818,0.020342217311719077,0.09257954179826117,0.07546236804923429,-0.02801516017951658,0.05541884599254149,0.04252380243826964,-0.011454086600721627,-0.026735437036076948,-0.05382124264417412,-0.015608927471640818,0.04858291977812873,0.07300777108581585,0.008330077571931521,-0.07730376654793734,0.019860633513167872
0.026513889746148493,-0.03296948712860758,-0.09381208874087325,0.03990800151821969,0.036511183177923325,0.03373793476112315,0.05784086118643829,-0.09196093693003209,0.04484093610369458,-0.09570827273329091,-0.02694248382976985,-0.06339769184023061,0.03846339087578876,0.07691988329525978,-0.02187812895565797,0.047376195839747344,-0.0002816820359773743,-0.05241170001541799,0.04378298388870267,0.0798588758087538,0.09388050562280673,0.05394979337134596,0.03621039367303219,0.09812226904615663,0.08079119430826298,0.011644843657010413,0.03876255250190704,-0.05593654084967318,0.03464688668599279,0.008588145423014337,0.034383708352000136,0.07922166625317922,-0.03909237203568583,-0.09404520428105863,0.012856140587175642,0.0835360563420221,0.0021902463643994033,0.04584924443030337,-0.06940896143178168,-0.033340400003682026,0.028577307706596604,0.05672616297847358,-0.10034197833510453,-0.08641428504150575,-0.08655897499055977,0.09563056922229583,0.037910840045303124,0.04654284777377139,0.06861913933612179,-0.001879252770609596,0.036671853720978365,-0.04950775137798063,0.08059573321102419,0.047221851371952936,-0.08054590211976613,0.004220890804088814,0.036377618269168244,-0.08769897553047255,0.06211938475043111,0.057899588978936836,0.02919275180708643,0.07654975328135703,0.028920435136197655,-0.0010833068093116722,-0.05322115228661768,0.04268119447174835,0.06740244998791092,-0.026888737426966958,0.02318154703574681,-0.06925109556647993,0.0022330340613287425,-0.057093884170335396,-0.08847612538728351,-0.04955408167007526,0.008031109133502487,-0.05808541520725304,-0.04934137562085056,0.06102968281971058,-0.02800732429469056,0.06047731445507132,0.038745093745160435,-0.007608272494185524,0.035544914237791755,0.049262622679379975,0.04228133971753865,-0.10313316995677038,-0.0017700392204687428,-0.030514736712239258,-0.06148464685804583,-0.09993725960141225,0.041314453351176735,0.01960227486477902,-0.10696049944833512,0.00625159348730073,0.08256847666069331,0.08049609870218576,0.02350953940460764,-0.03375515756611892,0.039195232154737344,0.03009376111204675
0.08960594644834982,-0.04304772872441325,0.09962856535467685,-0.07272264311633876,0.025317706255632372,-0.06989120888102557,0.05375107314285987,0.07147244819921036,0.08533025205232103,0.0991501603020625,-0.007659019257817465,0.022871732571998746,-0.08492167466107514,-0.027302934686167776,0.08643230323137738,-0.02066975710651356,0.030952878378742665,-0.06815359118864268,-0.0816927788278953,0.08211971857488962,-0.06299020981293686,0.0002678599019909911,-0.030591302615712107,-0.08994384590682487,-0.034203520336139534,0.014804313324288734,0.01777992198594755,-0.079078723971952,-0.02344810896019947,0.024758857420237826,0.026111279762550038,0.03870402804519385,-0.05635545870080838,0.09369575030956029,0.050354772210410875,-0.08397332275147945,-0.018001135905011817,0.03825592619431337,-0.009626911507215868,-0.08119009077454703,0.030215549674118825,0.010211132512676538,-0.01236001688626738,0.03002079360848539,-0.029791933234287485,-0.07939870832635568,-0.02476963677490418,0.049473774828221156,-0.004353098718405196,0.03608711934872183,0.017240084325251565,0.015380267757051175,0.044923798143904514,-0.08950380225539178,0.04479323544410485,0.0036383702036070498,0.042270452640858575,-0.09615575839792752,0.09256134729148688,-0.09869030971206871,-0.069134968296596,-0.014485492598781999,0.026281607036955174,0.011757100993372932,-0.015986986179424956,-0.050392954626831535,0.08603159771478738,0.09352061026425823,0.09936335346361899,-0.08505399431254186,-0.08477072965248478,0.08200352993984314,-0.03416059954196249,-0.08946569178627657,0.04024898574567609,0.08307014977069802,0.04624279415988042,-0.06449640127998182,0.08541635197883043,-0.03653020423281887,-0.037620046737376116,0.020548291060418597,0.03579283472845621,-0.0872233763281298,0.017894730341102824,-0.0008938134732371095,0.05196549542562301,0.09277975426585416,0.054099540096908066,0.08538125867044405,0.0038779640614484273,0.017793294698109932,-0.0746990163789279,0.04550946777798437,0.0647878537971617,0.06816192784363087,0.08505586459459655,-0.0456884133254514,-0.0941194452089339,0.07258488179844394
-0.04894546658104637,0.0027147519786901303,-0.06328633267937414,-0.02204423842605782,0.07289207396243533,-0.02707679477030471,-0.05845733231515282,0.060227418041825714,-0.09962105201229388,0.057433620348310094,0.07918886937382213,0.0025929005457913795,0.08011231970816196,-0.05636313081754656,-0.09562254073220487,0.008286523456750627,0.0010353706010921282,-0.07424420802600112,0.057183876552337726,-0.0190145069209694,0.014010750587968857,-0.09799261121551879,-0.031097840393360762,0.09501548471150034,0.042319353820320094,0.07271924595600895,0.09129685546713115,0.09242324057225554,0.05155858968687882,0.04501321103961736,0.01509621632128108,0.043648687123966357,-0.09844911718809712,0.07644557118816378,-0.00027379115564060696,-0.08724581436779816,-0.03907005197902069,-0.09107762755232413,-0.033955746490049316,0.028195961266166636,-0.031320945796298835,0.04913559044805696,-0.08144759475626817,-0.07171109928280316,0.096424055960497,-0.06445051376980135,0.06726859463687268,-0.07178768387105823,0.023433382900311897,0.05312426652186528,-0.051772659295577575,0.029786237874380672,0.05225522441165334,-0.05438130324372199,0.051016818162943095,0.05873201424933297,0.08224498852360027,0.04186409144516573,0.0004516765938057804,0.025311563321415126,-0.018521026510810598,0.057060973630974815,0.06839539458901031,-0.05415620562389572,-0.06498193920797202,-0.02713882068227627,-0.030698119402902305,-0.028739809733246066,0.05297214152312918,0.05980716125486904,-0.09435525625112835,0.04561433838359122,-0.048312778623666966,0.06614919639459846,0.040364229512767746,0.02359076127003916,0.05045010403412392,-0.04626463417750415,0.02020467334098494,-0.05788309602730793,0.040285489966928795,-0.09725064100183951,-0.007903291001077561,0.041554928409950065,-0.06387015185448372,-0.04149758860699955,-0.08513655338586108,-0.09178576286803089,0.04184334913137089,-0.0036670006523309706,-0.08229694797763874,-0.0695076150593198,0.005555550645359439,0.053529361865400915,-0.012956039188491267,-0.06282205829258916,0.026479555561095103,-0.04383090708790349,-0.0009429320757543547,-0.05587572319354002
0.04444335504451977,0.07338579059070872,-0.009166273990667499,-0.08136306472674483,0.0594822350371087,-0.017886945588881462,0.09286863251871713,0.054138942490721945,-0.07447064833607259,0.05471276465077169,-0.06004548881694744,0.012320246321948891,0.024985643000025284,0.036019709108641426,0.08739155206643671,-0.10688997454294905,0.08702331362431572,0.0067453417600233205,0.003262042120310225,0.08503818174489702,0.065285065676767,-0.05597130089328307,0.08048488147385079,-0.025326816097305926,-0.0646482217158487,0.06609047771269518,0.05109411618710556,0.10348799030701378,-0.04095195848802937,-0.043200527733861044,-0.06797859416640253,0.08428956862180442,0.021508284700946127,-0.01640944037512674,-0.044035313166843164,-0.0706685204162177,0.06081240540035898,-0.06287337946284301,0.056969562427211164,0.046960027034244546,0.05942815094544717,-0.07335123391840544,-0.028671238815132196,0.01363053693919461,-0.07105279938214062,0.0838480731664053,-0.08400136407384072,0.007567354186857028,-0.02837815072780106,-0.0073194031843852965,-0.028953722142486878,0.09864289535617074,0.089049141454832,0.046588648725326136,-0.04736554660506838,-0.04280471020806466,0.048287531115782635,-0.06855534736296712,0.014362380748056701,0.08042166400793488,0.0661338143587318,-0.06139229571344927,-0.06290836598947891,-0.04068036144022312,-0.013352829662860406,-0.022245108299759352,0.08321836209199084,0.02958925293907062,-0.09903093193436849,0.09453021565812303,-0.07660754359618771,0.06718151550039257,-0.03758006659970318,-0.09732495936280455,-0.08727681981409044,0.004203214587746066,-0.06919444003609411,0.001807063520847986,-0.06953809470655203,-0.08823939817209182,-0.001040801266070738,-0.08717520041117217,0.00886093517549485,0.07450464637315052,0.08661334229286934,-0.054449913482101556,0.07521261947567533,-0.011853396976530529,0.0920461800549848,0.07501000438351983,0.09598484617496504,-0.05989832566568649,0.018449886787036584,-0.057815780693705895,0.026597138966434224,0.04190498437261099,-0.044461433532553774,0.10473911310445717,-0.07293476304049062,0.028163707976969536
0.033148472708842844,-0.026683050528376964,-0.00032914019986886854,-0.04453271745094538,0.05916944078171407,-0.006902318707138712,-0.031054465938834864,0.0583030987747658,-0.090306033677768,-0.04327834191311469,-0.046306023866070446,0.019138486177171714,-0.0498057049891318,0.03740819098153104,0.029186069434491514,-0.039093184925506765,-0.08411704363308466,-0.014621064553825405,0.06093748823902564,-0.032340668398841935,-0.0231949441028895,-0.029543569875419298,0.06074203738534685,-0.057045674765347866,-0.0204803102723499,-0.0941376364038591,-0.006752741355799,-0.053163058409731796,-0.05886676226073794,0.025167827353718815,0.009889387783986806,-0.08538090665987252,-0.007850135553965843,-0.059883597376685596,-0.044898600758018554,-0.08440363845616566,-0.007647806628998041,0.04850324065777517,-0.025724530279336286,-0.05140571358184622,-0.07725960969589336,-0.03785830157009336,-0.0681998009697887,-0.06641336514437164,-0.003936953156321772,-0.08090130248274213,0.023477492551669813,-0.11163492723855273,0.0691909407115593,0.08009401982087429,-0.01686863342911528,-0.03151393838679888,-0.08533326075536997,0.05464870159570938,-0.04521977315341884,-0.04268937223919864,-0.038006513735030126,0.0778754421282776,0.029365373412007508,0.0665734193366584,0.031432180508763216,-0.013474079721232497,0.09634097102905516,-0.03692643207992516,-0.07619170801695511,0.05926582448251259,0.06286510427849577,-0.00151839937725868,0.06865285324408606,-0.04017036464310521,0.009700883626479171,0.022620616820668005,-0.02209228808114033,-0.012566126454345246,0.026845352922114485,0.03373427581081419,-0.09860874249913762,-0.050456030536912146,0.10076573840633811,-0.029232759811156882,0.08009611720635189,-0.029200864826094755,-0.034072330548348684,-0.08591885474639831,-0.09948566457930401,0.0002357677450756657,-0.05759104655698791,-0.09339600104201097,0.08162483123148719,0.08931958905466672,0.054718446739033706,-0.045383564009051594,0.07252629504409126,-0.00709477305105347,-0.1098793367622839,0.03032070466230869,0.0016980149435845443,-0.10714271821768802,0.06696608953698302,0.10146913219387327
0.05723843306958684,0.03840391267140089,-0.05471549489941707,-0.07808332843286435,-0.09887561021020722,-0.027983095671798505,-0.09611870687744287,0.06735914135169618,-0.07448852154715063,-0.0671523827725809,-0.06530323484269214,0.07736381298716927,0.05623997159001856,0.009945891215894065,0.026594558780665994,0.004570977414388472,0.0986084981372394,0.031180032441630534,0.0591175139401533,-0.07745920843985486,0.03521702221562256,-0.029257205705762776,-0.018330639491284245,0.07609927983371315,-0.036708709547195115,0.0007381789961498075,-0.06547108624765041,-0.0470878115514084,0.011053168180534506,-0.07607784111698829,-0.08163310858612374,-0.016965471002814564,0.05578324905246709,0.024676540980562003,0.04036516351743072,0.08191504977100494,0.016028096927363594,-0.07011558673187795,0.09146073369471305,-0.002171951061486113,-0.01666942495841879,-0.016583728737732242,0.05734762727060827,-0.07578630671717601,-0.0033005835365503555,0.020543710588838485,-0.015729787465476125,-0.009585066919944138,-0.04603599684236875,-0.06654516319743614,-0.05810182460465185,0.036769797968368795,0.04919627965203072,-0.0839248128332605,0.025866776363692084,0.07465521815511392,0.06704085147766967,0.001018066088132888,0.0961655086667452,-0.00688233920779753,0.032214419455550314,-0.02259156700167156,-0.0046715359335161855,-0.010148598786954094,-0.050002109733797484,-0.05542624602247544,-0.020238749240745285,-0.03827146470327343,-0.0622006792608121,-0.07047157839414205,0.05352586508488191,-0.04929463397613052,-0.07938866819178653,0.032911784030144914,0.06372900139716905,0.08989547066637377,0.05707467965738061,-0.07863917312235842,-0.0498753712457652,-0.030355341110350875,-0.04940790061631888,-0.032997932316835926,-0.043363503460496625,-0.0866557836688639,-0.017702568551006964,0.002450572125277356,0.0374791515200148,-0.047686657646007304,0.060003896942579765,-0.059422431299999356,-0.014584414330759743,-0.002803990168774126,-0.05799580703244498,-0.09341022575680853,0.05511553832432284,0.002397620035227782,0.05900630348358729,-0.04997396632043632,0.08959057756530472,-0.06409305159842169
0.03203884907970431,0.05543783374196261,-0.080117412486526,-0.02447481599057889,0.10633453650058768,0.08501942271162612,0.07346400232992643,-0.028259310470752294,-0.0775200289032722,-0.06175781892749325,-0.08623356907949738,0.003400946005303582,-0.055645177068896795,0.02639322040199875,-0.0449363194275984,0.052674882446585004,0.09590655877810188,-0.06436978456898508,0.047124372161995116,-0.11013908587512808,-0.02363750087727182,-0.01282032712012783,0.021024491929367554,0.07723424560674814,0.04975518661764707,0.0009642359858834312,-0.010464808953395448,0.06638697689636618,0.08543434375056026,0.05931715978388057,0.03148982543128859,0.07051234673594536,-0.06135590343415465,0.015242586001259661,0.0949172111699761,0.0849445284977502,0.021093068244377188,0.0028801217691594412,0.06075685501220456,0.08134803164409601,0.058171827961269774,-0.0005787230015465643,-0.03815558817210508,0.05706781141920431,0.08751200885495532,0.08999240247541425,-0.00605695053294698,-0.04968133197278542,0.09190632217912484,-0.06263252886986245,0.061011276144593854,-0.08604097358649786,-0.07384946645928579,0.06241898414498802,0.06673464438816393,0.07013420863652933,-0.03682793227517088,-0.012392250382170457,-0.06426008910931381,-0.038249301384505045,-0.045642654793983634,-0.049087195985626955,0.04773764162681511,0.03383677154468856,-0.075537891728175,0.044737578142836194,-0.09916894544090611,0.031739507280239734,0.08795888437193503,0.047631031526543285,0.0005824258622979249,0.07436648878706519,-0.10722622474900158,0.08314922517142699,-0.09869957531757863,0.028513679038465245,0.013306546045323317,0.08035323650951019,0.037570313200548065,-0.06223938824300473,-0.07008772418799156,0.09537730545010781,0.00938595163319822,-0.0015381944982695997,0.05104901307089169,-0.015271313172573355,-0.0002043251188005047,0.04056768022421488,-0.03646928372918357,-0.004453078025249078,0.07004521452381157,0.028892017930442885,-0.10994787102942749,0.013833778585846784,-0.07505848937476316,-0.069456915790683,-0.09805715641606626,0.0815168259149914,0.10443227640871741,-0.052980640006457275
-0.07757791582201495,-0.019860614457833534,0.06197822977614595,-0.0734230450360619,0.05139100227320467,-0.02716952131103985,0.02690676041429846,0.029998752384190475,-0.09197782456680009,-0.09883653847603185,-0.08452004030041978,0.05142313272359042,0.09679439749485794,0.07872924904679818,0.0489002377509386,-0.022057270036392088,0.09680571255522705,-0.0732998621910685,0.06773453180722261,0.015052549753184999,0.07627254552780569,-0.029270629383743516,0.011283848774922056,0.07291570423647081,-0.042031258549553766,0.050573679731989285,0.030657598235933226,-0.048395508826571954,-0.05833192818595037,0.03485473591607957,-0.016502688439785612,0.06409843000994878,-0.007400211700780715,0.08619994055202126,-0.04619389564141159,0.06031817299594608,-0.08293298647897891,-0.016023627779889235,-0.05115660134357976,-0.03491622125093896,-0.05047332017960478,-0.0140922048712709,-0.020008670058668243,-0.07984112156354246,0.09586843024302541,-0.01610984675680463,0.029411519982892292,0.05571100673564633,0.0342216552098967,0.016067526208916758,-0.06331098989710751,0.02790775856261457,0.010201533970961574,0.09854828098921298,0.00462275175508213,0.011698717550474913,0.03148559548869839,0.06553065982167114,0.08808230968491762,0.06560685283365814,0.0785831514252929,-0.014149813221126475,0.024203749264231564,0.01268116540309136,0.07923532681275666,0.013217741910034969,0.056978239569349554,0.016466135405564963,-0.07328448517523528,-0.09734175761910523,-0.047603808015624874,0.09037927579511373,0.09518514393186331,-0.021537238212469514,0.02120259710372678,0.004124200629180577,-0.06990976655236754,-0.06860483070385787,-0.026590556357561024,-0.07909159223675655,-0.017641617684305805,-0.018069186297552192,0.005744464507305452,-0.08255086479438166,0.06084003080704953,-0.07877171779250353,0.08934949339086495,-0.05911575993975207,0.06719230087730904,0.04539246000301422,-0.02355684576461803,-0.05496107382670972,-0.08081276013632635,-0.04728735375299971,0.05692500619406604,-0.06082964905240367,-0.0338448108364086,0.022289149188146312,0.03214366699549237,-0.0939261273176033
0.09587364871250877,-0.02310896293450349,0.06230760392506946,-0.06160787598579629,0.06239732718554304,0.04631792655650242,0.016015685354443955,0.01525463637871396,-0.07985648781401346,0.05311348919373036,-0.03415651455958337,-0.045281679295774965,0.015910613734323033,0.0023466072064853255,0.02472230470583988,-0.05740239800538094,0.07158599388648253,-0.056701629805019894,-0.016478367080040957,-0.09118372001393475,0.02154384035540455,0.07624549869023424,0.06980411322807373,-0.05517157058606643,0.09736489658643384,0.04938107866809173,0.01327918956873488,-0.10067523471507739,0.03286801881311732,0.015209360747852396,-0.06637369300305784,-0.0002829708275167919,-0.01000144381524034,0.028448313737632812,0.01298304833170436,-0.0251067924519205,-0.10815908170902142,0.014606978923145,-0.028157525405126005,0.07935339745587473,-0.044299129750885964,0.04005446830697781,-0.08772487146420437,-0.08145526916453968,-0.09948207587906438,0.034786305280689406,0.08493027949289034,0.08031136527255128,0.0033692914746393447,-0.05223562437140947,-0.07973585223893763,0.06216492294239648,-0.02024573203877335,-0.11586621286962273,0.002717000373362547,-0.0705928106307678,0.03471610158734707,0.05288009953748157,-0.014183095068233063,0.07451045608796429,0.09239524284162158,-0.00640579152943903,-0.08189919266768035,0.09711743150754112,-0.0724820699352646,-0.03451356000550898,-0.09345388953355022,0.046104616304162176,-0.05167098121945399,-0.03265750685367985,0.08602583675568541,0.06617289842998765,-0.08395001084234259,-0.009842357002915572,0.10527013167370984,0.0865557486343396,-0.05257727553573634,0.10474962064262597,0.09374990485999228,0.0010387649119967994,0.03492967854125517,-0.09576272619818228,-0.06774381488307307,0.014204542585041405,-0.08190488348000864,0.03378189012524191,-0.07998326252209505,-0.08009401272588311,-0.052015012552177865,0.020979749764036146,0.058176832235229466,-0.015073872163420907,0.08310093660660764,0.07288376436778136,-0.0012116319210002185,0.03592869660531276,-0.0855918312317825,-0.06203897365812019,0.008994630711880652,0.05335500094729861
-0.05128320474140376,0.0933154837383578,0.037570485895463135,0.08410237129194331,-0.00171113155167317,0.01863694286712317,0.07772035894067683,-0.057492469429161155,0.09487506104158958,0.08815793543967804,0.044720812816278654,0.07197409752919584,0.0676156434935635,0.009889284603835341,-0.07092855163938681,-0.047789529372523544,-0.07321137545303913,-0.09910665133603497,0.01617194312811747,-0.031160732551113207,-0.033258917190200715,-0.07802375084580189,0.02037557936215044,-0.08088760148615999,-0.045143901678408205,-0.010473743210652003,0.06471164519183537,-0.010151109707776468,-0.02174271323131423,-0.007824437752642494,-0.043464749431106675,-0.04557466472514596,-0.08134676309590083,0.023147532777691507,-0.047064382435686,-0.05224291302087769,-0.09055451984416502,0.05982065697303873,0.07857624669870031,0.07088387973057148,0.01740030453373606,0.005852554120976988,0.07442017497598594,-0.062315023606865166,-0.08656796954779858,-0.08762873354422818,-0.03814680891073455,0.042673743310660456,0.011836220277596052,-0.0550159171262101,0.08815354474847334,-0.062094147178405,-0.0927390367718959,-0.01152634929562904,-0.04744426207642019,0.062016315963242,-0.051364170684225365,0.04331985492858392,-0.0013442704308575248,-0.010312906003301009,-0.03547722065224068,-0.06427791177260729,-0.0006439288337593413,-0.047985896735709056,0.026709343722534973,0.02311306088733074,0.08001875018655047,-0.05873835974840385,0.031217115367999648,-0.018548473094151863,-0.051944202673881515,0.08086631352109461,-0.05663347591023098,-0.031104385121565242,-0.04354285550801554,0.0281737522609648,-0.0009574348607070959,-0.051223066922941034,-0.010830910627738333,0.019762389343205664,-0.005873539082144191,0.055863277446120935,-0.06982084942447545,0.07515767754192165,-0.02189320971765292,-0.001629253146896631,-0.04058254848591698,-0.09869686349500002,-0.08434319480541963,-0.09883021908716352,-0.05483293999553527,-0.08861017309897104,0.0744288090293872,0.04878052461694654,-0.05745475289356372,-0.059599186382192575,-0.0013999068465152115,0.013846678162774517,-0.047027948538136036,0.03383227600263983
0.037386583776533755,-0.03277945973969361,0.08181048219040196,0.045535245624093335,0.05329867680686781,0.020380840123095115,-0.07173240040836158,-0.07226077637982618,-0.061983543552152215,-0.055088157717453394,0.005480893512886317,0.05108292220223762,0.07683457971693183,-0.06979912135059885,-0.08287604512394962,0.016766388131607052,-0.07306772358592427,0.042446590384335264,0.04843170236420097,-0.002164324695267089,0.07940079216851895,0.016651333914614264,-0.03847416979281668,0.05226131501776324,0.008902009672879768,-0.03232113634965965,0.09135581944412305,0.02602866175900373,-0.02198092679867103,0.05401188446785479,0.02854293659158419,0.004105543496476516,-0.042260941006626786,-0.07362799286634214,-0.07107331589796194,0.053076776011860644,0.05793661570141026,-0.047866479222833894,-0.09219100348543229,-0.06414991279393008,0.08455875352429165,-0.07037334250986974,0.09012266857985085,-0.009181126387648939,0.027264447680641346,0.06823769858772707,-0.040310947974345625,-0.08455809366139529,-0.08782459491311245,0.08134919629752888,-0.09513660108275074,-0.012550105795064187,0.09236322904239988,0.040957473078135576,0.09572961187340204,0.08361710096430566,0.030284296327815874,0.06853284951559366,0.052632633846666804,-0.08355334605898437,0.03976623851892325,-0.04075510695007221,0.09518409612212286,-0.026046693956297995,-0.06962606836142311,0.06192435734343882,-0.09814216465843645,-0.056248680717925485,0.04780936225970861,-0.06952403100856136,0.06964177699577354,-0.020467035846676862,-0.06759946221856875,0.047491516520438315,0.06584913928635905,-0.06848306200987106,0.014975629297659082,-0.01578788040504002,-0.0662985398913748,-0.019288403046541627,0.0859257032084387,0.05672955297343668,0.09924775324283949,0.011030684687198616,0.011406905008518417,-0.07590547766947756,-0.023277935491367807,-0.06413753139992825,0.03130588570789761,-0.04258064548335758,0.08241728755316888,0.015267419689578274,0.006400301537591052,-0.004633518827567615,0.05675348629036722,-0.08509466056152998,0.0734031637811716,-0.012098505408839083,-0.05092868340100139,0.038707837764641234
-0.01612655188952468,0.016427172283514396,0.017167395189601392,-0.01447426105284784,0.024153807515542608,0.0012430985982108539,-0.04597549107246628,0.02283263039205649,0.03928219122241711,0.044377716288794944,0.04572698323250962,0.0069358085211973924,0.030364683977051138,-0.0948876739493076,0.010744608167840758,0.07706270870705498,-0.00804845814756501,-0.0011896267516066927,-0.08302487844407942,-0.08743183870036955,0.043612327486394264,-0.0045007238600888455,-0.08364147775019824,0.03422302941655528,0.005268367905667121,-0.01957496720382748,-0.05514379099925391,0.06950142064294584,-0.014618762054762285,0.06688225117603708,0.05113365304701287,-0.06430440353268503,0.07017980130786472,-0.04328352247717853,0.02260308056639153,-0.0683993336844329,-0.017869881010443886,-0.09397022868204555,0.059769611155657515,0.059794790552473,-0.06476626501503686,-0.06541202540085447,0.027510742525166748,0.0648302926642362,-0.09794765645915426,0.006429178533869123,-0.04314261748744313,-0.05394376459365391,-0.04662086565732593,-0.03548046017632055,-0.043384389017931624,0.0012333688566565082,0.03412988090399288,-0.08557738000722195,0.031849537492725954,0.024975542926400834,-0.06966543658251519,0.09503539710398715,-0.08759713793725549,0.09337661244663531,0.011505321567754481,-0.019672135534271024,0.06830428849935657,0.03827616396908437,0.034702843197774336,-0.0852790055195618,-0.03010859968541682,-0.061727798161432416,-0.07519129510447367,-0.0038440942954458823,0.04053024775024475,0.015914559982318804,-0.01915952445913434,-0.051404967130306005,0.06760544231907015,0.09479474740491095,0.06367482586458986,-0.04565858903988276,-0.017404422394996913,0.07442720305342723,-0.08865293754189296,0.0704105991807695,0.07164048325100827,0.044290948258068175,-0.07833975722173997,0.029833050348896994,0.058018423772030175,-0.03735489756137274,0.02256063449986459,0.08621066271533415,-0.07602868709768953,-0.038006678738198255,-0.0615342582708589,0.02215348340531506,-0.04709620899729183,-0.05628753451839968,-0.04248504684871288,-0.08723131754710625,0.04031436436697905,0.034131319707147945
0.02791149048932057,0.02299764032023859,-0.10073575305045557,-0.019135463875394717,-0.07170737640363299,0.08435674756299356,-0.07336094433850188,0.04000853379831054,0.1032096282964859,0.0031146055668663654,-0.09072091440658958,-0.05273506850615016,-0.03193164007924218,-0.08782058777964945,-0.09038104044368972,0.09264493121153129,-0.06110281231647241,0.06322644796681143,0.027509529050602763,0.005893133093431613,-0.04682250437062656,-0.043715684775522644,0.015746093166422132,0.04428265587519287,-0.05236831533493236,-0.051200757282587474,0.10733864140109506,-0.05061021815137953,-0.03843740006088537,-0.06858486746847514,-0.03338104491928451,0.050129401417809194,0.003455271692291032,0.01859926869862791,0.046122596429870946,-0.033743320997682257,-0.033981032398076795,-0.031497279866795666,-0.10104465390028604,0.036602439131381566,-0.10731604193701275,-0.07365223395631862,0.09253664082885264,-0.03326789972667624,-0.006451645907698285,0.09760483198117288,0.06599979233728451,0.015297546809257108,-0.04634890296222404,-0.08534003089662062,0.08531455648816397,0.05676926732647989,-0.07159449554469273,-0.08228704007696662,-0.0575001971193688,0.01716958053887754,0.04439498659203778,-0.005944634285112507,0.05424516720992687,-0.062177282182465245,-0.02806564664230612,0.050922147400106296,-0.08208574756243203,-0.07013899115610767,0.05694551818189152,0.02108674284195002,-0.04985944024815545,-0.03467717269205074,-0.09070538044545721,0.08906354394673863,-0.049264206426457076,-0.09255745716440578,0.04867290858756474,-0.021725034808242505,0.01132054245034037,-0.03497092585542422,-0.010084140120602894,-0.045124739899908256,-0.034867960126700334,-0.0209405647566709,0.07889467412105712,0.009949995945925065,0.08147145363153072,0.05595272358241543,0.05101384152107145,-0.09961680721229023,-0.09993251098377827,-0.008305428089317958,-0.08121454312689601,0.04045519809902192,-0.04562809257417822,0.07458712755805993,-0.06058684432029476,0.09631319337965817,0.027268929597607464,0.09202180480919163,-0.020238521264353042,0.05280869713430416,-0.06365824067238789,0.08426996576006258
-0.026585249491721058,-0.0368181064754307,0.041271611797070534,-0.007154086039971766,-0.06229809704251839,-0.015089360227473161,-0.09681163969115743,0.06522986099314812,0.003482048049695957,0.07723634882909089,0.01258152811653121,-0.08631264280674347,-0.08268245246837252,-0.0488671079859125,0.035429743720235496,0.026502641577511532,0.09596061415906929,0.023293292794101778,-0.0735175201869583,0.09477728090135892,0.07321496605813535,-0.05896352304422925,-0.09364113748178514,-0.04143591944100736,0.06714068649503557,0.06562307481064941,0.05635567273228945,-0.06300943681502409,-0.09848712439920389,0.06922088874382196,-0.05273223307717259,-0.004288864004719173,0.01716166114311926,0.005960651532930794,0.07787566201992921,-0.07082994153909848,-0.08261716288857213,0.07078449713664925,-0.026507380921488508,0.0876272035015164,-0.05077365847173459,0.0904894247047294,-0.06031324555673867,-0.05139843174924519,0.027061252586113693,-0.005324564898436551,-0.0384625219834333,-0.06608643524075655,0.03317938454610064,-0.08437204308430318,0.04483594567961863,-0.038398703456250585,0.02824952002277381,0.04279562725539404,-0.0863229220063158,-0.08920094381340389,-0.055011257858081655,0.04148984728491828,-0.022644228238862404,0.036198341776873255,-0.07802103435623352,-0.08772137486292025,0.07797813806267795,0.03988022757072446,-0.0076778489180204385,-0.025229331439248145,-0.060297357479917026,-0.021791286386691186,0.05767423996516549,0.012624536854737772,0.03712651065946984,-0.09544712763659363,0.06438649918339115,-0.03819169991140203,-0.09515369422251706,0.08626350767277421,-0.04499343637461768,-0.00559958187579665,-0.05542190866197292,0.09733779037946597,0.06521600441576048,-0.011214615911539466,0.0032492494213416795,0.06563642354692209,-0.04277620899178874,-0.03155542591044756,0.026186156993389914,0.05706928350915999,-0.05667536079305655,0.09829566016659158,-0.08884630955081158,-0.06477259864230894,-0.03787591913327981,-0.09328737713288851,0.07872215722535977,-0.08280612060609323,-0.03194816385384609,0.0485016538675673,0.043957905429725885,0.03706512674650064
-0.06861841298521679,-0.04348835183610286,0.0402803100720174,0.07648781865450582,-0.010774807199269551,0.046318547644585206,0.05893587542023831,0.09177471325211316,-0.09080050410264649,-0.02070720138509292,-0.07464537645504347,0.056603938395524425,-0.08010615207009418,-0.017736831977445532,-0.05791494961543564,-0.02743705126844165,-0.0745795979788115,-0.10445223345887446,0.012573631454654063,0.002137911444030943,0.048285436909123465,0.04947396081582359,-0.01126003631407397,-0.03694878087967851,0.06698247779374795,-0.04232743694097398,0.016734204733576598,0.031670433734324634,-0.01383773158161477,-0.004352042794068925,-0.05705290997822336,-0.0483769682227291,0.0127690133137973,-0.05039885507492915,-0.10867425942182092,-0.03675522569874709,0.057369239903392585,-0.0358614289169048,0.07244718384569124,0.0358987355102949,-0.08116340464199741,0.024116739816083803,-0.08006088665028711,-0.03454442588238525,-0.11098692987067002,-0.06456242011711005,0.017813565306328907,-0.11827157352825124,-0.0017873598999644017,-0.0732310394417587,0.01960709145591849,-0.02697994800376839,-0.045955874095490866,-0.004145059591051413,0.02006728526330896,-0.10880512031930072,0.0006895119662375977,-0.0977207263620377,-0.01377674703630411,0.06893227749302518,-0.05754934566436589,-0.09157609959508511,0.03553663802260526,-0.09295567640167116,-0.023015500344819695,0.07514396785987582,0.054267492485769855,0.03979011051315636,-0.0496901996431673,0.031406352475677586,0.07425120333836854,-0.06473421757632875,0.09233935608673481,-0.04700099049617941,-0.06828149785897869,0.029023942001277524,0.05950976737146215,-0.0169212672152308,-0.021176121436494534,0.08546076662035224,0.08971995820330668,0.06501930501567381,-0.03487829883733155,0.00825392214447015,-0.031303870041478436,0.030240016816338006,-0.006398419714733608,-0.04022473218725929,-0.10285695767896098,0.040149109180825066,-0.023519936307665953,-0.06711572302069134,0.037833976257202515,-0.07977521848173148,0.012829512498276513,0.07257536775133484,-0.029317254605543644,-0.046597627271305474,0.021714086120282288,-0.027051079276578245
0.05147207042039123,0.07022949717725119,0.08651524369086247,0.07510005579431112,-0.03636105965494221,-0.056627507113732684,0.09308197961002601,0.003307396657627401,0.0469215342659533,-0.052238313361644265,0.02994133777463595,0.029457989526321282,0.05092679987336815,-0.07612855957496137,0.00867919417713299,0.07911768820311296,-0.0664959378705243,0.053267820336588695,0.05110634725183302,0.069184460009834,-0.04657428925362153,0.04105910910901803,0.052313389509994423,-0.01808593096526534,-0.034721359865106965,0.020107306385800716,0.042764515331524894,-0.039227807397525384,0.006227590225501456,-0.04213385607861613,-0.021440110563625422,-0.0054676395989894655,-0.0971445266267451,0.06693182737273073,-0.07683563430390071,0.06016678459298738,-0.021231492549313974,-0.08222084567430432,0.09073777952649151,0.06538975813402786,0.09061955291600274,0.027650745824216838,-0.015637872827486674,0.003933382878092126,0.09597155627772755,-0.09277505929939099,0.024272572292588876,0.0018915413249370044,-0.011268883587238918,0.028699994354026537,-0.025461809798276197,-0.08200799103828196,-0.04259955905249535,0.09777503534355933,-0.07439187040787734,-0.08930074014537877,-0.03994197042061492,0.06925415809010332,0.006984020692750503,0.07130226679245558,-0.015559111438077797,-0.04514301744852343,-0.07604003500341049,-0.09822547098571872,0.02572799661712813,-0.008672965693450732,0.030712944504606182,0.04376103770414799,0.00937628840078171,0.025112039760018495,-0.0074376061416416145,0.020289410541361977,0.07853622872648863,0.020087254476513314,0.03485907578164657,0.09482086297238604,-0.04295734350385754,0.09609694202518856,-0.07902540644040826,-0.050732995952193875,0.07413970893149566,0.00852104627017966,-0.07993760375926551,-0.015347721277755855,0.04560446382537489,-0.0966131124737975,-0.054309245706260015,-0.04852793237064632,-0.048784378672865114,0.05784385934095465,0.012128716149082064,-0.04282658502626986,-0.020217805803054587,0.014480656652117285,0.0584550429620789,-0.06677833713224873,-0.019877578566721982,-0.01025513404522456,-0.012275467437930329,0.09652245302272389
0.06275435882478685,-0.01045510349556511,0.09793595084041426,-0.014432398909119704,0.04447954560166302,0.02669024697532638,-0.02197180212124978,-0.05638622122078026,0.016895382635472876,-0.04246112209124,0.09316350121917914,0.06966670276625533,-0.03017111386288739,-0.05125878583574261,0.02790026438243943,0.1060925999108966,0.010198620245408635,-0.0011803194576885004,0.022083264064566493,-0.0011762070993865223,-0.04471278909839505,0.0880035386771998,-0.028868291502516914,0.0700672682231349,0.10296689819905434,-0.0039246389972729745,0.06734876833267073,-0.08151767936887587,-0.039510942510867196,-0.025859385469753412,0.03673645432965909,0.0639870054935247,-0.019049765204485456,-0.02507518865529291,0.05995143410899444,-0.002338140755859291,-0.06294394098901653,-0.07361641999460179,0.04016069624962889,0.07413746258859215,-0.0972257832903304,0.0633334960345068,-0.0017207102384158353,-0.05251256327064501,-0.009290072443841035,-0.06337844915182872,0.020255706556134973,0.0994061437833923,-0.025508533442354275,-0.029381631497097337,-0.0022313687595470464,-0.08645667267720591,-0.04884502498288837,-0.011408261650827978,-0.08847797626201345,-0.0002746597987848877,0.03173779048485931,-0.05581923797511632,-0.03106755058091947,0.02472307102191776,-0.0016731538089304271,0.06384090004499417,0.05752333769267784,0.11141991943222404,-0.08786138455926948,0.017294754191605817,-0.08840586292875273,0.029928570588015988,-0.08200970043746192,-0.07114755492983504,0.009857482449002714,0.014972214902903855,-0.07441429698446117,-0.015346548792488665,0.03508734012349766,-0.051167868063000985,0.025803651283908463,-0.003055099755390654,-0.013223592267015872,0.094327490133296,0.03908863161718834,0.04608900907282732,0.04828518620399506,-0.018296192561078596,-0.0360669368714315,-0.08756871419595805,-0.0797488153706452,-0.035249813554313954,-0.1005549886566495,-0.028722986017813923,-0.07008211285072836,-0.04078539949374607,0.004150850201196084,0.04012654027705508,-0.07781940915295574,-0.088825909588968,-0.02681808840141768,0.08443042199046123,0.056992507610612926,0.08032828667301543
-0.08083152453127132,-0.018424156481549617,-0.046931909132376416,0.08071535659538796,-0.05363829162891742,0.06376988419128075,0.05415457748884756,-0.08355314415355207,0.006733478740364255,-0.028437944749326743,0.05071792425423445,0.11193405129994702,0.06810288123543581,0.08228172207075168,0.05906247403426344,0.026280079660241453,-0.028582275656075143,0.022525960586469863,-0.08878002366577234,-0.0933081730739179,-0.0771146245913495,0.07871642717907577,0.016476403331217943,-0.058929588135750645,0.0016588949090084535,-0.07391740112377562,-0.058521586386680896,-0.07040035915392433,-0.10158218374953708,0.06771928957626056,0.02907330527099912,-0.014128369227504985,-0.0497576047125243,0.06924746427939998,0.03389556341823683,-0.033764681786562126,0.010447539317273649,0.06109184129699856,-0.10925599597267803,-0.04650855837627946,-0.0408537553294997,-0.009050578002609826,0.06583606954249258,-0.08606486121555099,-0.047574902309199,0.09054122516189608,-0.06597625282483437,-0.0822510550612579,-0.023007788437981392,-0.10979753863584693,0.013032383243192891,-0.004870275579461988,-0.06815014784583694,0.10503110273724929,-0.0951151877298525,0.015072900728017414,0.07697533672203188,-0.013695284619716223,-0.032041678458963656,0.01926011758211039,0.06789882192270638,-0.09054555696425574,0.05852894363010589,-0.08504087487492971,-0.057218357686432804,-0.06816489018595046,-0.07548818038198075,-0.011047312907792555,0.0428888822964914,-0.09726523348487971,-0.06695028346015833,0.008723791755887774,0.09209061681718071,0.09741028337918323,-0.003710053758504316,-0.040364678908750624,-0.09225510258925868,0.09576868619956912,0.012298426832079502,-0.08661850075405961,-0.001196332159992996,-0.04525426109951539,0.04112745242255309,0.045213396155575514,0.01328176209275882,0.06593329057322452,0.07036154994068704,-0.04464366341360757,-0.060252988240194066,-0.006390367559667445,0.019928202500416863,0.017860170902367325,0.04988908172674447,-0.08608006753347072,0.009231145215584487,0.025321904811810108,0.055891505849880264,-0.03305825590402971,-0.04832915870384392,0.0049320440024253325
-0.020375200082507677,0.028693302645148855,0.029032044437217547,0.09070218938937899,0.04139288552385015,0.023233112363956948,-0.00491016106371063,-0.048440545350667066,0.00693317404329738,-0.05860485922376533,0.06437995640365499,0.03880399836592674,-0.06389776552259502,0.05908090268377755,-0.08068103254988374,0.03734874804896279,0.04892988901974166,0.08452120129165924,-0.04694830662949015,0.07575361471533024,0.05828404801646453,-0.003202333786259934,0.006603775050894184,0.018933325096708337,-0.018484640124037457,0.00469192480067962,0.043454874804602694,0.0023419953137573807,-0.043119836066152176,-0.06620987103651405,0.08767926802907541,-0.024332088412451824,0.005978035534614984,0.05794208413156002,0.03128110609207241,0.029179672487641556,-0.00293616098777387,-0.09327296069078853,0.04068318494536577,-0.05101014607321677,0.08120712660229523,-0.08924729631834971,-0.02296170792549193,-0.06976118370821337,0.0583005635962798,-0.07471785578544682,-0.07654708256314031,-0.07706214348683077,-0.06511327372522242,-0.058757788544603985,0.07565608082508496,-0.09017291764052265,-0.07345618856271954,-0.09341663872394822,0.004624723542027587,0.08533307443626637,-0.01796712084529821,-0.06569619902122766,-0.03179186942007109,-0.06172363648108306,0.08502265739813517,-0.08766249262228243,0.06440521715033862,0.0788214308741225,0.04494425483875453,-0.07356702534211496,-0.018487106108625764,-0.03627934440538261,-0.02461768993215316,-0.05406023086111214,-0.0472893082671593,0.021019065597626674,-0.07801061099022577,0.07609156096099715,0.06566208546976335,-0.05752402816954745,0.08612343361969824,0.01571663176528526,0.03090856513521817,0.020786422490420467,0.04952957079940323,-0.07895178104363226,-0.02167455933447407,-0.0650512108310835,-0.03801206877197199,0.03917032423090103,0.07131002295380479,0.023545987819725583,-0.011204900572110182,-0.05306834253350117,0.058240655878967845,0.06320497777313791,-0.08638799566175402,-0.04052638038958816,0.06681369317832506,0.04870517013493056,0.0008195032141808112,-0.0745881590810448,-0.0747283635837351,-0.002482956903995248
-0.06894260167468538,-0.023832567609419986,0.07946464922609844,0.020477475112495452,-0.005933615469455547,0.04467937408269654,0.0051898584254916474,-0.030041201097186512,0.03113069016129502,0.03807231228431057,0.09145768684180891,-0.044752817881915034,0.0865315795390181,-0.041240736912510206,0.08528291411858649,-0.09534671759911804,0.03913327143208439,-0.06951718250770891,0.05353122765057591,0.08181718902002968,0.06708796868223796,0.08927130969707567,0.04280414849154199,-0.07565356986478507,-0.006709358845254837,-0.06546570078734423,0.057219325170044105,-0.020873477800204765,0.033470933250498075,-0.07640879268489825,-0.054854422779316916,-0.04431674720410555,-0.003915927605762898,-0.06543332988493242,0.0729652171857939,-0.009726424032172207,-0.07138030781436047,-0.09767329316789888,-0.030574781731550732,-0.025303044157674245,0.09925582944441977,0.0983344873655449,-0.07302629523824862,0.06579805859908341,0.07506588331211098,-0.09017959099400441,-0.07087794864128437,0.04671452452048741,-0.05157003090776207,-0.012934874251745748,-0.04835776571266164,0.047973854362889756,-0.0007195706988669948,-0.09741890025765276,-0.025175004560606312,-0.019280206533334246,-0.05798942025771823,-0.09759717949996755,-0.00665409855599379,0.08245629419156383,0.0006579946134746412,0.027400843834776006,0.0020054509375901225,0.04703573170273492,-0.06900704968286336,0.016651378532454686,0.028630740237504892,-0.05804764108954801,0.005729456876422234,0.05099931330536145,-0.07451845963676598,-0.007701925783632116,0.08789583727121342,0.08835198030627098,0.09259115351469344,0.08870224963548454,-0.09632223789869268,0.09491056609640483,0.014711740219685576,0.05465261293233187,-0.02806807072495969,0.08137344838814561,-0.03288676193468523,-0.012820033576989062,-0.06789878026858294,0.033929199062832205,0.06514892326946689,-0.06927135753658585,-0.027629696002537382,0.043829956987142205,-0.038162764193354785,0.04011128168165062,-0.0013563112898692387,0.042225544245375335,0.019949992914971168,0.04995618580007316,0.09881876515190796,-0.0008530733856032813,-0.068037767753938,0.050011761609492944
0.0032746604208252206,0.08777176698071759,0.02130145567400807,0.0969164611286421,-0.06678729624256666,0.0587406605984884,0.06267910376225799,0.042708586537950455,0.035135116524287524,0.07275046633693227,0.081422183732657,0.0032133345052915985,-0.06117804486577443,-0.012830830857673475,-0.095985072895395,-0.024321461419469476,0.01937255472099801,-0.03483114773719319,0.024078508453849817,-0.040703215562909394,0.0461277626605473,0.09075620809405918,0.0935309296796174,0.07168710348088911,-0.06694488493585654,0.0077745070889650575,-0.0901953050888385,-0.09400635789859949,0.04202733517924914,0.048965904206894534,-0.06088843113117533,0.09091000498169396,-0.03894561213631018,0.008484189833727604,-0.09971088824126591,0.02317749746492534,0.025409917028871187,0.011202174591132902,-0.023165929442475017,-0.09626274261869038,0.09066396097414683,0.09217323662556243,-0.08860597941465867,0.001255719143085976,-0.032323387691760935,-0.08021268239423976,-0.06837472746629909,0.031907253374666406,-0.05221103169664079,-0.04155307829934845,0.051449370019990226,0.03517575221453301,-0.07129587509384777,-0.05000266988911178,0.08186298932973957,-0.03459302697404845,-0.015116883178084267,0.08941168708566433,0.03744069611876055,0.08080075137579024,-9.249825815826895e-05,0.028077917240105388,0.05266358697908477,-0.06199160315021515,-0.07373477453014217,0.09954410705196848,-0.0302889598999784,0.03566526719969482,0.09285715579040721,-0.023181830048802102,-0.006951346202269601,0.035086762889654205,0.09166159411154703,-0.07187810818158565,-0.04338415769466855,-0.07098727692633314,-0.05421493298651332,0.01998043068325897,0.001697326969747559,0.006491427104385411,0.0027955372585759253,-0.013168586885608402,-0.03953164813207036,-0.014882020596810763,-0.04365006404276531,0.02443092633895519,-0.0047325536201554275,0.08990033478032255,-0.07615827766990564,0.03162889173547037,-0.0805775972159373,-0.07557354531639533,-0.03017817424643017,-0.08128334502341057,0.052522273725407326,-0.02225742981513104,-0.011998920838783914,-0.06109878344993034,0.016125520002716692,0.021222472242672888
0.097345249060578,-0.09298856565660213,-0.04664589866773984,-0.013063239495852126,-0.09045578256411613,0.03795142844135263,0.10271814335834148,-0.013661798848129774,0.012378245304332099,-0.04296512154107339,-0.11491947815933656,0.01567002614366595,0.036772648509726995,-0.10331680416843664,-0.020066739213033917,-0.09826890926515429,0.07089583399407877,3.814944416647651e-05,0.032817606925112326,-0.10598137774156947,0.09959605762571354,0.059029622091925506,0.0998993523917016,-0.043321040265664905,0.0647599827987625,0.07264127275633084,-0.07700933289762715,0.09580389294302943,0.07198273800358855,-0.06272772905769346,-0.08234783231149721,-0.022889466364110888,0.0779954052493511,0.09385314231140647,-0.062452143508947365,0.07284773881023648,0.03406063685050815,0.011000051726075285,-0.08578618411290792,0.10144650994867672,0.04102230844664737,0.00782922296178665,-0.10124174308061017,-0.0839489904808643,0.0028613436222109548,0.029412530952179838,0.01737814643665596,-0.03873595019182262,-0.0728737186434109,-0.06232699168362173,0.012386207578808227,-0.073638650413462,-0.04186209584421639,-0.016548672722085864,-0.059751806467261144,0.06008825149072517,0.035557129490655745,-0.04877166526575322,0.09322940318533032,-0.08173348755499324,-0.029585063997165744,-0.09296609153440105,0.019803360232884103,0.054750546330870675,0.08605142237898429,0.08935632579105017,0.033530361739015434,-0.010944389172511677,-5.53917204662949e-05,-0.036455316028695985,-0.0034416722609452222,0.03203940807015153,-0.12403280116379238,0.06638717037079614,-0.0359959727845849,-0.018669575848782802,0.04339453329174131,0.007827136317029157,-0.01859613149885288,-0.10127148327072734,-0.07818513431726626,0.0973071918864352,-0.06895164513731315,0.055194571553083334,-0.08090311485252455,-0.06498770657730163,-0.013866536696487335,-0.07384888839541796,-0.01582068798846694,0.011305887677138473,-0.020844035162891336,-0.03340290258797249,-0.12577105764940166,0.08802067122257828,-0.009881629435432903,0.06329119339651669,0.0797355811340719,0.057420793868479925,0.06750357340318056,-0.07271336392741952
0.09929392997306435,-0.08918065945964311,0.04106933793361542,-0.08784740731930185,-0.04859109831205133,-0.027415954613737956,-0.014496511865720069,0.09838015157527502,-0.061863716522849416,-0.039616163979219236,0.0010058881129837854,-0.042010743740722,-0.0059493856290166736,-0.07660423225864432,-0.07267724592784791,-0.019414167953320516,-0.0561553499714623,0.02654889724639295,0.05799174971744642,0.0803819989227354,-0.018964526142896926,-0.06476677224725998,-0.0945561734416392,0.029322708439175865,-0.010242739070726814,-0.0713637540014685,-0.052706010821459204,-0.06209609132791952,0.04792007244216487,-0.08818489456397079,0.0275276410966116,0.03056062382292385,-0.03486863821737425,0.0700735795355342,-6.4253448452678e-06,0.027994625576144294,-0.013469746970279722,0.035706912947383596,-0.039466007248695006,-0.033914460246712436,-0.0683270897350079,-0.05934301313609727,0.07908323167490955,-0.04857258868202672,0.05997862728685563,0.010797959250907721,-0.09136152534394056,-0.05904873867714591,0.07752839669022224,-0.06779977023426412,-0.00975771724224797,-0.0024061921845678763,0.056324113284366734,0.07183325505010771,0.06921060718762836,-0.07808297019504716,0.05634640952054035,0.09058727719195792,-0.01008883176601616,-0.019729207697417525,-0.08921773008063545,-0.08384139840968825,0.010234499807354538,0.032787565028442156,-0.0481558452438323,-0.009505001996127763,-0.02151356000714888,0.019858565459090344,-0.023525509489555313,0.05835698830395006,0.04735491564792366,-0.02721256663765799,0.016413863629537895,0.015127267893638358,-0.04095756624366627,0.05958784770598585,-0.05152485626038603,-0.0596968854707467,0.010923558382344933,-0.03303628108718844,-0.08530273957233109,-0.03174958760890019,0.07728015626389467,-0.013791840328353414,0.0029259573099241487,0.011152260825111698,-0.08432205396354797,-0.05091309670261619,0.03573628923114802,0.09511832614538529,0.08605843290060619,0.08600377371046586,0.06065432998498141,0.08443579404809382,0.09052488100665299,-0.0635804888263804,0.09218596777481877,0.014925413394501527,0.08503601014336026,-0.07981081077960164
0.026670957339454765,0.013088866293009177,0.02299799210363826,-0.05201894167185903,0.054389573075823816,0.052616176256695624,-0.012417725077017105,0.03460692027554069,0.01698719584444497,-0.02869092890348167,-0.07825608268590399,0.057929458977819676,0.050338228130319435,-0.09228247846638525,-0.05951078852711396,-0.018378592336338387,-0.0023762912395641073,-0.08640955632022176,0.08004772705064758,-0.0752659676741647,-0.03503515949117331,-0.0826567017605143,-0.03931895681040423,-0.08553006286555538,-0.07159343247902016,0.029019612221173552,0.0013852887911985912,-0.09696484482980712,-0.04820711659162202,0.04810374481594834,0.005333269341381314,0.0020171367593238704,0.09161396961963916,-0.05488422921001706,0.04805114545322814,0.0102152808369705,0.033561231824537296,-0.018998305257743528,-0.014432114930546233,-0.0435908933865895,0.03161558531305414,0.01659262584510804,-0.05328171898720371,0.030737695012311356,-0.021209065263326027,0.03365369328283774,-0.002800772426139103,-0.0941048618450181,-0.08745287086739284,-0.08652527831569164,0.07092414257690655,-0.07815021053617749,0.05291404832142854,-0.012797334889787251,-0.09338572096872688,-0.07752110227615644,0.06664343008818557,0.03180516001933792,-0.01818727533832154,-0.09719293821230893,-0.05909776399038805,0.08269987636306872,-0.06464332904389898,-0.06597991177648388,0.034034215626836894,0.05021456426965551,0.08625672123219444,0.03769829147606646,0.08286816282921566,0.08271362168088967,-0.0542167305666347,-0.023350078977491126,-0.07627320888420036,0.0501756593163194,-0.06189059932500751,-0.0008226785284742022,0.01523722084939498,0.04798974615127133,-0.0935384318483059,0.03606996467170703,0.09946418613031208,0.08419867613785317,-0.01308184186808728,0.03164433090810925,-0.03341725178695969,-0.06446067519675053,0.05307398213638892,0.0634683453588184,-0.008100999974366904,-0.06437538405347057,0.00926812827812766,-0.07542745775061484,-0.04952224809334656,-0.09983983638981336,0.07592282255415647,0.07492243698233791,-0.04622689847141934,0.01460722757754776,0.09569169103999625,-0.00706505567054079
-0.09807322961709497,0.05001958232086531,-0.001752040768529639,-0.09747034382408559,0.002094495032983354,-0.06799567354920391,-0.027558308283547106,-0.014383872917333826,0.016081079762495468,0.025685790175677348,-0.003315890938738894,-0.03544087380143311,0.08939027046570869,-0.05322876956745202,-0.0272468207709695,-0.09511741704337191,0.06371730863005157,0.09639055441785835,-0.05443453729686261,0.07138342956422461,-0.01312054683336368,-0.08593073096672771,-0.0014032291811768849,0.09081926046942998,0.013154629026118414,-0.09191115803830233,0.024266977673868012,0.02625583455811875,-0.04657035906105542,-2.373941757205511e-05,-0.059706996049502206,0.07924391362638789,0.07573158907932945,-0.070194991957486,0.08822007318777378,0.02777770251406081,0.024434084015083207,-0.08782064149517817,0.0738634949560116,-0.06455883262265649,0.08055576770633907,0.004487927809617376,-0.018435883203035547,0.07409470534608892,0.06070920011938999,0.0456643437992062,-0.04497767790345602,0.02138119092037169,-0.04585364913920469,0.0874805907454391,0.05463619911990822,-0.09568113028806002,0.07093176861642611,-0.06527057372834141,0.05230359883737706,-0.02252536106713439,-0.06320153855272066,-0.06880442294312182,0.029314293821363607,-0.09469884353915055,-0.05112286899949077,-0.017861404743074988,0.09617518270350064,0.09744405082302107,0.0561895112765238,0.025554924644811267,0.02058767127725973,-0.05959718024740138,0.06211931340759219,-0.036657634427552974,-0.09217770173059558,-0.04900115288062304,0.0049614518676715375,-0.022450238987411275,-0.04995956572063394,-0.09638059566419366,0.06894497104260539,0.04793816391800915,0.05884861848659048,-0.03390159723020916,-0.02868013511811443,0.08599841347332834,-0.06574010733015029,0.03941305946467205,0.03672278262988038,-0.061036678172421026,0.07475909057073621,0.08041844941597223,0.054368636629783834,-0.043422406459263256,0.027381519685441807,-0.06632680135287894,0.08957272556423285,-0.055175049888463536,-0.03412612241940492,-0.06341736568292028,-0.07334990020285799,0.011991197123407085,0.07618455705512803,-0.012593149215259045
